svm_type epsilon_svr
kernel_type rbf
gamma 0.1111111111111111
nr_class 2
total_sv 96
rho -2.7173604881131359
SV
-1 1:255 2:255 3:230 4:249 5:254 6:234 7:667 8:797 9:696 
-1 1:255 2:255 3:232 4:249 5:254 6:235 7:667 8:797 9:696 
-0.51758324299208458 1:255 2:255 3:238 4:249 5:254 6:235 7:667 8:797 9:696 
-0.68542255765759075 1:255 2:255 3:238 4:249 5:254 6:235 7:667 8:797 9:696 
-0.45325535767907749 1:255 2:255 3:234 4:249 5:254 6:235 7:667 8:797 9:696 
-0.19548709829795077 1:255 2:255 3:232 4:249 5:254 6:234 7:667 8:797 9:696 
-0.13182292232540438 1:255 2:255 3:236 4:249 5:254 6:235 7:667 8:797 9:696 
-0.22867931040364167 1:255 2:255 3:238 4:249 5:254 6:234 7:667 8:797 9:696 
-0.8783837073078038 1:255 2:255 3:234 4:249 5:254 6:234 7:667 8:797 9:696 
-0.99892835513085543 1:255 2:255 3:238 4:249 5:254 6:234 7:667 8:797 9:696 
-0.59717833626003003 1:226 2:255 3:186 4:223 5:252 6:179 7:649 8:776 9:654 
-0.62910512113713479 1:222 2:255 3:186 4:223 5:252 6:179 7:649 8:776 9:654 
-0.30865794204218971 1:222 2:255 3:184 4:223 5:252 6:179 7:650 8:776 9:654 
-0.022252061108325734 1:222 2:255 3:186 4:223 5:252 6:180 7:650 8:776 9:654 
-0.011581081976481469 1:226 2:255 3:186 4:223 5:252 6:180 7:650 8:776 9:655 
-0.45984315402777309 1:226 2:255 3:184 4:223 5:252 6:180 7:650 8:776 9:654 
-0.47073870775794663 1:226 2:255 3:184 4:223 5:252 6:179 7:650 8:777 9:655 
-0.0553083076362582 1:226 2:255 3:186 4:223 5:252 6:180 7:650 8:777 9:654 
-1 1:222 2:255 3:175 4:223 5:252 6:179 7:650 8:777 9:655 
-0.18202620155327792 1:222 2:255 3:184 4:223 5:252 6:180 7:650 8:776 9:655 
-1 1:226 2:255 3:175 4:223 5:252 6:179 7:650 8:776 9:655 
-0.041500027675428264 1:226 2:255 3:184 4:223 5:252 6:179 7:650 8:776 9:655 
-0.29536370066124301 1:222 2:255 3:184 4:223 5:252 6:180 7:650 8:777 9:655 
-0.41941460680853576 1:222 2:255 3:186 4:223 5:252 6:180 7:650 8:777 9:655 
-0.41313515936899148 1:226 2:255 3:186 4:223 5:252 6:180 7:650 8:777 9:655 
-0.1866508450786577 1:222 2:255 3:184 4:223 5:252 6:179 7:650 8:777 9:655 
-0.094586653690563349 1:211 2:244 3:149 4:203 5:240 6:145 7:638 8:762 9:623 
-0.088253213750375911 1:211 2:244 3:149 4:203 5:240 6:144 7:638 8:762 9:623 
-0.091573225325971161 1:200 2:244 3:149 4:204 5:240 6:144 7:638 8:762 9:623 
-0.093694283019508037 1:211 2:244 3:149 4:203 5:240 6:145 7:638 8:763 9:623 
-0.096514154408317468 1:211 2:244 3:149 4:204 5:240 6:145 7:638 8:762 9:623 
-0.096263402369390322 1:200 2:244 3:149 4:203 5:240 6:145 7:638 8:762 9:623 
-0.089155846884600237 1:200 2:244 3:149 4:203 5:240 6:144 7:638 8:762 9:623 
-0.086509325496993222 1:200 2:244 3:149 4:204 5:240 6:145 7:638 8:762 9:623 
-0.084883273795409359 1:211 2:244 3:149 4:204 5:240 6:144 7:638 8:762 9:623 
-0.077866130251480342 1:200 2:244 3:149 4:203 5:240 6:144 7:638 8:763 9:623 
-0.099862979285178538 1:200 2:244 3:149 4:203 5:240 6:145 7:638 8:763 9:623 
-0.086016733465134193 1:211 2:244 3:149 4:203 5:240 6:144 7:638 8:763 9:623 
-0.080115187038203237 1:200 2:244 3:149 4:204 5:240 6:145 7:638 8:763 9:623 
-0.078431704217497553 1:211 2:244 3:149 4:204 5:240 6:145 7:638 8:763 9:623 
-0.1037800213341841 1:211 2:244 3:149 4:204 5:240 6:144 7:638 8:763 9:623 
-0.10483173089478177 1:200 2:244 3:149 4:204 5:240 6:144 7:638 8:763 9:623 
0.0046509764669119234 1:185 2:228 3:119 4:186 5:227 6:115 7:615 8:735 9:579 
0.012745376926588989 1:185 2:231 3:113 4:186 5:227 6:116 7:615 8:735 9:579 
0.066052538848366343 1:185 2:228 3:113 4:185 5:227 6:116 7:615 8:735 9:579 
0.00389466217680621 1:185 2:228 3:113 4:186 5:228 6:115 7:615 8:735 9:579 
0.089683482089852218 1:185 2:228 3:119 4:185 5:227 6:116 7:615 8:735 9:579 
0.0016617619891157931 1:185 2:228 3:119 4:186 5:228 6:116 7:615 8:735 9:579 
0.073260307261199364 1:185 2:231 3:113 4:185 5:227 6:116 7:615 8:735 9:580 
0.061489464566471634 1:185 2:231 3:119 4:186 5:227 6:116 7:615 8:735 9:580 
0.01086004207215111 1:185 2:231 3:113 4:186 5:227 6:115 7:616 8:735 9:580 
0.032859392189393058 1:185 2:228 3:113 4:185 5:227 6:115 7:615 8:735 9:580 
0.02349866005622836 1:185 2:228 3:113 4:187 5:227 6:116 7:616 8:735 9:580 
0.092481479471656899 1:185 2:231 3:119 4:187 5:227 6:116 7:616 8:735 9:580 
0.11409968104789393 1:185 2:227 3:119 4:187 5:227 6:116 7:616 8:736 9:580 
0.08358434944993913 1:185 2:231 3:113 4:187 5:228 6:116 7:616 8:736 9:580 
0.0057728846193466484 1:185 2:228 3:119 4:187 5:228 6:116 7:616 8:736 9:580 
0.077582324520470355 1:185 2:228 3:113 4:187 5:228 6:115 7:616 8:736 9:580 
0.063627708535818478 1:161 2:203 3:85 4:163 5:199 6:85 7:603 8:723 9:557 
0.54558791691187392 1:163 2:207 3:85 4:163 5:200 6:86 7:603 8:723 9:557 
0.53407679741684955 1:170 2:203 3:86 4:163 5:200 6:85 7:603 8:723 9:557 
0.11865852685714477 1:161 2:207 3:85 4:162 5:200 6:85 7:603 8:723 9:557 
0.52321840420056243 1:161 2:203 3:86 4:163 5:200 6:85 7:603 8:723 9:558 
0.059115005608010723 1:170 2:207 3:86 4:163 5:200 6:85 7:603 8:723 9:557 
0.59021525815162246 1:170 2:207 3:85 4:162 5:200 6:85 7:603 8:723 9:557 
0.20542966968039417 1:163 2:207 3:85 4:163 5:200 6:85 7:603 8:723 9:558 
0.5336881344918003 1:170 2:203 3:86 4:163 5:200 6:85 7:603 8:723 9:558 
0.15975530126223134 1:161 2:203 3:85 4:162 5:199 6:85 7:603 8:723 9:558 
0.24173552652628844 1:161 2:207 3:85 4:163 5:199 6:85 7:603 8:723 9:558 
0.17808262216958992 1:161 2:207 3:86 4:163 5:200 6:85 7:603 8:723 9:557 
0.054900173337403824 1:161 2:203 3:85 4:163 5:200 6:85 7:603 8:723 9:557 
0.14564401000307048 1:161 2:207 3:85 4:162 5:200 6:85 7:603 8:723 9:558 
0.088449807082000814 1:161 2:207 3:86 4:163 5:200 6:85 7:603 8:723 9:558 
0.44369249719106862 1:161 2:203 3:85 4:162 5:199 6:85 7:603 8:723 9:557 
0.14775506913632841 1:170 2:207 3:85 4:163 5:200 6:85 7:603 8:723 9:558 
0.40136975007069398 1:170 2:207 3:86 4:163 5:200 6:85 7:603 8:723 9:558 
0.35658840938023995 1:155 2:200 3:77 4:153 5:197 6:78 7:593 8:711 9:539 
0.26189368017719983 1:156 2:200 3:79 4:154 5:197 6:78 7:593 8:711 9:539 
0.27817425194086942 1:156 2:200 3:77 4:154 5:197 6:78 7:593 8:711 9:539 
0.8538602998858863 1:149 2:200 3:79 4:153 5:197 6:78 7:593 8:711 9:539 
0.025810948281369629 1:156 2:200 3:79 4:153 5:197 6:78 7:593 8:711 9:539 
0.5040828076795798 1:156 2:200 3:79 4:153 5:197 6:77 7:593 8:712 9:539 
0.70469748625672857 1:149 2:200 3:77 4:154 5:197 6:78 7:593 8:712 9:539 
0.29684073090628893 1:149 2:200 3:79 4:154 5:197 6:78 7:594 8:712 9:539 
0.1394292205965196 1:156 2:200 3:77 4:154 5:197 6:77 7:594 8:712 9:539 
1 1:155 2:201 3:79 4:154 5:197 6:78 7:594 8:712 9:539 
0.9593433548411312 1:155 2:198 3:79 4:153 5:197 6:78 7:594 8:712 9:539 
0.76999635216170692 1:155 2:198 3:77 4:154 5:197 6:78 7:594 8:712 9:539 
-0.18474853468267013 1:155 2:200 3:79 4:153 5:197 6:78 7:594 8:712 9:539 
0.10068162242787775 1:155 2:200 3:77 4:153 5:197 6:77 7:594 8:712 9:539 
0.83050143509609109 1:149 2:198 3:77 4:153 5:197 6:78 7:594 8:712 9:539 
0.20551578379021726 1:149 2:200 3:77 4:154 5:197 6:78 7:594 8:712 9:539 
0.70399746802162699 1:149 2:198 3:79 4:153 5:197 6:78 7:594 8:712 9:539 
-0.53830710440478857 1:155 2:200 3:79 4:154 5:197 6:78 7:594 8:712 9:539 
0.22779231344665835 1:156 2:200 3:79 4:153 5:197 6:78 7:594 8:712 9:540 
0.34932558192659402 1:156 2:200 3:77 4:154 5:197 6:78 7:594 8:712 9:540 
