svm_type epsilon_svr
kernel_type linear
nr_class 2
total_sv 914
rho -408.09655753683114
SV
-1 1:242 2:255 3:255 4:236 5:254 6:254 7:646 8:775 9:677 
-1 1:239 2:255 3:255 4:235 5:254 6:254 7:646 8:775 9:677 
-1 1:237 2:255 3:255 4:236 5:254 6:254 7:646 8:775 9:677 
-1 1:242 2:255 3:255 4:237 5:254 6:254 7:646 8:775 9:677 
-1 1:237 2:255 3:255 4:235 5:254 6:254 7:646 8:775 9:677 
-1 1:242 2:255 3:255 4:235 5:254 6:254 7:646 8:775 9:677 
-1 1:242 2:255 3:255 4:235 5:254 6:254 7:646 8:775 9:677 
-1 1:237 2:255 3:255 4:232 5:254 6:254 7:646 8:775 9:677 
-1 1:240 2:255 3:255 4:238 5:254 6:254 7:646 8:775 9:677 
-1 1:237 2:255 3:255 4:235 5:254 6:254 7:646 8:775 9:677 
-1 1:237 2:255 3:255 4:234 5:254 6:254 7:646 8:775 9:677 
-1 1:242 2:255 3:255 4:239 5:254 6:254 7:646 8:775 9:677 
-1 1:237 2:255 3:255 4:234 5:254 6:254 7:646 8:775 9:677 
-1 1:242 2:255 3:255 4:238 5:254 6:254 7:646 8:775 9:677 
-1 1:237 2:255 3:255 4:235 5:254 6:254 7:646 8:775 9:677 
-1 1:240 2:255 3:255 4:236 5:254 6:254 7:646 8:775 9:677 
-1 1:236 2:255 3:255 4:233 5:254 6:254 7:646 8:775 9:677 
-1 1:237 2:255 3:255 4:235 5:254 6:254 7:646 8:775 9:677 
-1 1:237 2:255 3:255 4:234 5:254 6:254 7:646 8:775 9:677 
-1 1:239 2:255 3:255 4:236 5:254 6:254 7:646 8:775 9:677 
-1 1:237 2:255 3:255 4:235 5:254 6:254 7:646 8:775 9:677 
-1 1:237 2:255 3:255 4:235 5:254 6:254 7:646 8:775 9:677 
-1 1:237 2:255 3:255 4:235 5:254 6:254 7:646 8:775 9:677 
-1 1:237 2:255 3:255 4:234 5:254 6:254 7:646 8:775 9:677 
-1 1:237 2:255 3:255 4:234 5:254 6:254 7:646 8:775 9:677 
-1 1:237 2:255 3:255 4:235 5:254 6:254 7:646 8:775 9:677 
-1 1:237 2:255 3:255 4:235 5:254 6:254 7:646 8:775 9:677 
-1 1:239 2:255 3:255 4:234 5:254 6:254 7:646 8:775 9:677 
-1 1:239 2:255 3:255 4:234 5:254 6:254 7:646 8:775 9:677 
-1 1:239 2:255 3:255 4:236 5:254 6:254 7:646 8:775 9:677 
-1 1:242 2:255 3:255 4:238 5:254 6:254 7:646 8:775 9:677 
-1 1:239 2:255 3:255 4:235 5:254 6:254 7:646 8:775 9:677 
-1 1:239 2:255 3:255 4:236 5:254 6:254 7:646 8:775 9:677 
-1 1:239 2:255 3:255 4:234 5:254 6:254 7:646 8:775 9:677 
-1 1:237 2:255 3:255 4:235 5:254 6:254 7:646 8:775 9:677 
-1 1:237 2:255 3:255 4:234 5:254 6:254 7:646 8:775 9:677 
-1 1:237 2:255 3:255 4:235 5:254 6:254 7:646 8:775 9:677 
-1 1:229 2:255 3:255 4:230 5:254 6:254 7:646 8:775 9:677 
-1 1:239 2:255 3:255 4:234 5:254 6:254 7:646 8:775 9:677 
-1 1:237 2:255 3:255 4:235 5:254 6:254 7:646 8:775 9:677 
-1 1:237 2:255 3:255 4:235 5:254 6:254 7:646 8:775 9:677 
-1 1:237 2:255 3:255 4:235 5:254 6:254 7:646 8:775 9:677 
-1 1:237 2:255 3:255 4:234 5:254 6:254 7:646 8:775 9:677 
-1 1:237 2:255 3:255 4:234 5:254 6:254 7:646 8:775 9:677 
-1 1:237 2:255 3:255 4:235 5:254 6:254 7:646 8:775 9:677 
-1 1:240 2:255 3:255 4:236 5:254 6:254 7:646 8:775 9:677 
-1 1:223 2:255 3:255 4:226 5:253 6:254 7:646 8:775 9:677 
1 1:237 2:255 3:255 4:235 5:254 6:254 7:647 8:775 9:677 
1 1:236 2:255 3:255 4:234 5:254 6:254 7:647 8:775 9:677 
1 1:237 2:255 3:255 4:234 5:254 6:254 7:647 8:775 9:677 
1 1:237 2:255 3:255 4:234 5:254 6:254 7:647 8:775 9:677 
-1 1:242 2:255 3:255 4:236 5:254 6:254 7:646 8:775 9:677 
-1 1:237 2:255 3:255 4:233 5:254 6:254 7:646 8:775 9:677 
1 1:239 2:255 3:255 4:236 5:254 6:254 7:647 8:775 9:677 
-1 1:239 2:255 3:255 4:236 5:254 6:254 7:646 8:775 9:677 
1 1:237 2:255 3:255 4:235 5:254 6:254 7:647 8:775 9:677 
1 1:237 2:255 3:255 4:235 5:254 6:254 7:647 8:775 9:677 
-1 1:239 2:255 3:255 4:233 5:254 6:254 7:646 8:775 9:677 
1 1:239 2:255 3:255 4:237 5:254 6:254 7:647 8:775 9:677 
1 1:237 2:255 3:255 4:234 5:254 6:254 7:647 8:775 9:677 
1 1:237 2:255 3:255 4:235 5:254 6:254 7:647 8:775 9:677 
1 1:237 2:255 3:255 4:234 5:254 6:254 7:647 8:775 9:677 
1 1:233 2:255 3:255 4:232 5:254 6:254 7:647 8:775 9:677 
1 1:240 2:255 3:255 4:236 5:254 6:254 7:647 8:775 9:677 
1 1:239 2:255 3:255 4:236 5:254 6:254 7:647 8:775 9:677 
1 1:236 2:255 3:255 4:234 5:254 6:254 7:647 8:775 9:677 
1 1:237 2:255 3:255 4:234 5:254 6:254 7:647 8:775 9:677 
1 1:237 2:255 3:255 4:236 5:254 6:254 7:647 8:775 9:677 
1 1:237 2:255 3:255 4:234 5:254 6:254 7:647 8:775 9:677 
-1 1:239 2:255 3:255 4:234 5:254 6:254 7:646 8:775 9:677 
-1 1:237 2:255 3:255 4:234 5:254 6:254 7:646 8:775 9:677 
1 1:237 2:255 3:255 4:235 5:254 6:254 7:647 8:775 9:677 
1 1:237 2:255 3:255 4:234 5:254 6:254 7:647 8:775 9:677 
1 1:237 2:255 3:255 4:235 5:254 6:254 7:647 8:775 9:677 
1 1:237 2:255 3:255 4:235 5:254 6:254 7:647 8:775 9:677 
1 1:237 2:255 3:255 4:235 5:254 6:254 7:647 8:775 9:677 
1 1:237 2:255 3:255 4:234 5:254 6:254 7:647 8:775 9:677 
1 1:237 2:255 3:255 4:235 5:254 6:254 7:647 8:775 9:677 
-0.22378131177901875 1:242 2:255 3:255 4:235 5:254 6:254 7:647 8:775 9:677 
1 1:236 2:255 3:255 4:233 5:254 6:254 7:647 8:775 9:677 
1 1:237 2:255 3:255 4:235 5:254 6:254 7:647 8:775 9:677 
1 1:237 2:255 3:255 4:235 5:254 6:254 7:647 8:775 9:677 
1 1:237 2:255 3:255 4:234 5:254 6:254 7:647 8:775 9:677 
-1 1:229 2:255 3:210 4:225 5:247 6:208 7:641 8:770 9:656 
1 1:231 2:255 3:215 4:227 5:249 6:210 7:641 8:770 9:656 
-1 1:227 2:255 3:210 4:225 5:247 6:208 7:641 8:770 9:656 
1 1:229 2:255 3:212 4:227 5:249 6:209 7:641 8:770 9:656 
1 1:229 2:255 3:213 4:228 5:249 6:210 7:641 8:770 9:656 
1 1:229 2:255 3:215 4:227 5:249 6:210 7:641 8:770 9:656 
1 1:231 2:255 3:215 4:229 5:250 6:212 7:641 8:770 9:656 
-1 1:229 2:255 3:212 4:226 5:248 6:208 7:641 8:770 9:656 
-1 1:227 2:249 3:210 4:223 5:246 6:206 7:641 8:770 9:656 
-1 1:227 2:255 3:212 4:225 5:247 6:208 7:641 8:770 9:656 
-1 1:229 2:255 3:212 4:225 5:248 6:208 7:641 8:770 9:656 
-1 1:229 2:255 3:210 4:224 5:247 6:207 7:641 8:770 9:656 
-1 1:223 2:246 3:206 4:221 5:244 6:203 7:641 8:770 9:656 
1 1:233 2:255 3:214 4:227 5:249 6:210 7:641 8:770 9:656 
-1 1:224 2:255 3:210 4:224 5:247 6:207 7:641 8:770 9:656 
-1 1:227 2:255 3:212 4:225 5:247 6:207 7:641 8:770 9:656 
-1 1:224 2:247 3:206 4:220 5:243 6:202 7:641 8:770 9:656 
1 1:229 2:255 3:214 4:227 5:249 6:210 7:641 8:770 9:656 
1 1:231 2:255 3:215 4:228 5:249 6:210 7:641 8:770 9:656 
-1 1:229 2:255 3:213 4:226 5:248 6:209 7:641 8:770 9:656 
1 1:229 2:255 3:212 4:226 5:248 6:209 7:641 8:770 9:657 
-0.009851519639856636 1:229 2:255 3:212 4:226 5:248 6:209 7:641 8:770 9:656 
-1 1:227 2:255 3:210 4:224 5:247 6:207 7:641 8:770 9:657 
4.1545249923507816e-08 1:229 2:255 3:213 4:226 5:248 6:209 7:641 8:770 9:657 
-1 1:229 2:255 3:212 4:225 5:248 6:208 7:641 8:770 9:656 
1 1:229 2:255 3:212 4:227 5:249 6:210 7:641 8:770 9:656 
-1 1:227 2:255 3:212 4:225 5:247 6:208 7:641 8:770 9:656 
-1 1:229 2:255 3:212 4:226 5:248 6:208 7:641 8:770 9:656 
-1 1:227 2:255 3:210 4:225 5:247 6:208 7:641 8:770 9:656 
-1 1:229 2:255 3:210 4:225 5:247 6:207 7:641 8:770 9:656 
1 1:229 2:255 3:215 4:227 5:249 6:209 7:641 8:770 9:656 
-1 1:229 2:255 3:212 4:226 5:248 6:208 7:641 8:770 9:656 
1 1:229 2:255 3:212 4:227 5:249 6:210 7:641 8:770 9:656 
-1 1:229 2:255 3:212 4:225 5:248 6:208 7:641 8:770 9:656 
-1 1:229 2:255 3:215 4:226 5:248 6:209 7:641 8:770 9:656 
-1 1:227 2:255 3:210 4:225 5:247 6:207 7:641 8:770 9:656 
-1 1:227 2:255 3:210 4:225 5:247 6:208 7:641 8:770 9:656 
1 1:234 2:255 3:215 4:228 5:250 6:211 7:641 8:770 9:656 
-1 1:229 2:255 3:210 4:225 5:247 6:208 7:641 8:770 9:656 
-1 1:227 2:255 3:212 4:225 5:247 6:207 7:641 8:770 9:656 
-1 1:229 2:255 3:212 4:226 5:248 6:208 7:641 8:770 9:656 
1 1:231 2:255 3:214 4:226 5:249 6:209 7:641 8:770 9:656 
-1 1:227 2:255 3:210 4:225 5:247 6:208 7:641 8:770 9:656 
-1 1:229 2:255 3:210 4:225 5:247 6:207 7:641 8:770 9:656 
-1 1:229 2:255 3:212 4:226 5:247 6:208 7:641 8:770 9:656 
-1 1:229 2:255 3:207 4:224 5:247 6:207 7:641 8:770 9:656 
-1 1:229 2:255 3:212 4:225 5:247 6:208 7:641 8:770 9:656 
-1 1:229 2:255 3:215 4:226 5:248 6:209 7:641 8:770 9:656 
1 1:229 2:255 3:207 4:225 5:248 6:208 7:641 8:770 9:657 
-1 1:231 2:255 3:215 4:227 5:248 6:209 7:641 8:770 9:656 
-1 1:229 2:255 3:212 4:225 5:248 6:208 7:641 8:770 9:656 
1 1:227 2:255 3:210 4:225 5:248 6:208 7:641 8:770 9:657 
-1 1:229 2:255 3:212 4:225 5:247 6:208 7:641 8:770 9:656 
1 1:229 2:255 3:207 4:225 5:248 6:208 7:641 8:770 9:657 
-1 1:223 2:246 3:204 4:219 5:243 6:201 7:641 8:770 9:656 
1 1:229 2:255 3:215 4:227 5:248 6:209 7:641 8:770 9:657 
-1 1:229 2:255 3:210 4:225 5:247 6:207 7:641 8:770 9:657 
1 1:229 2:255 3:211 4:226 5:248 6:209 7:641 8:770 9:657 
-1 1:224 2:247 3:207 4:223 5:246 6:206 7:641 8:770 9:656 
-1 1:229 2:255 3:212 4:225 5:248 6:208 7:641 8:770 9:656 
-1 1:229 2:255 3:210 4:225 5:247 6:208 7:641 8:770 9:657 
0.38141491803264471 1:229 2:255 3:213 4:226 5:248 6:209 7:641 8:770 9:657 
-1 1:227 2:255 3:210 4:225 5:247 6:208 7:641 8:770 9:657 
-1 1:229 2:255 3:211 4:225 5:247 6:208 7:641 8:770 9:657 
1 1:229 2:255 3:212 4:226 5:248 6:209 7:641 8:770 9:657 
-1 1:227 2:255 3:210 4:225 5:247 6:208 7:641 8:770 9:656 
-1 1:224 2:247 3:202 4:219 5:242 6:201 7:641 8:770 9:657 
1 1:229 2:255 3:210 4:226 5:248 6:209 7:641 8:770 9:657 
-1 1:229 2:255 3:210 4:225 5:247 6:208 7:641 8:770 9:657 
1 1:229 2:255 3:212 4:227 5:248 6:209 7:641 8:770 9:657 
-1 1:227 2:255 3:210 4:225 5:247 6:208 7:641 8:770 9:657 
1 1:229 2:255 3:210 4:226 5:248 6:208 7:641 8:770 9:657 
1 1:233 2:255 3:216 4:228 5:249 6:211 7:641 8:770 9:656 
1 1:229 2:255 3:212 4:226 5:248 6:209 7:641 8:770 9:657 
1 1:229 2:255 3:212 4:226 5:248 6:209 7:641 8:770 9:657 
-1 1:227 2:255 3:210 4:225 5:247 6:208 7:641 8:770 9:657 
1 1:229 2:255 3:212 4:226 5:248 6:209 7:641 8:770 9:657 
1 1:229 2:255 3:212 4:226 5:248 6:209 7:641 8:770 9:657 
1 1:212 2:251 3:163 4:210 5:247 6:158 7:630 8:756 9:628 
1 1:216 2:255 3:162 4:212 5:248 6:160 7:630 8:756 9:628 
1 1:216 2:255 3:162 4:211 5:248 6:160 7:630 8:756 9:628 
1 1:213 2:255 3:163 4:211 5:248 6:159 7:630 8:756 9:628 
1 1:218 2:255 3:162 4:211 5:248 6:159 7:630 8:756 9:628 
1 1:218 2:255 3:162 4:212 5:248 6:160 7:630 8:756 9:628 
1 1:211 2:248 3:158 4:208 5:245 6:157 7:630 8:756 9:628 
1 1:213 2:255 3:163 4:211 5:247 6:159 7:630 8:756 9:628 
1 1:219 2:255 3:165 4:213 5:249 6:161 7:630 8:756 9:629 
1 1:218 2:255 3:162 4:211 5:247 6:159 7:630 8:756 9:628 
1 1:213 2:255 3:162 4:210 5:247 6:158 7:630 8:756 9:628 
1 1:212 2:250 3:162 4:210 5:247 6:158 7:630 8:756 9:628 
1 1:212 2:255 3:162 4:210 5:247 6:159 7:630 8:756 9:628 
1 1:213 2:255 3:158 4:210 5:246 6:158 7:630 8:756 9:628 
1 1:212 2:255 3:163 4:211 5:247 6:159 7:630 8:756 9:629 
1 1:213 2:255 3:163 4:211 5:247 6:159 7:630 8:756 9:628 
1 1:216 2:255 3:162 4:212 5:248 6:160 7:630 8:756 9:628 
1 1:213 2:255 3:162 4:212 5:248 6:159 7:629 8:756 9:628 
1 1:212 2:255 3:162 4:210 5:247 6:159 7:630 8:756 9:628 
1 1:212 2:250 3:162 4:210 5:247 6:158 7:630 8:756 9:628 
1 1:219 2:255 3:163 4:211 5:248 6:160 7:630 8:756 9:629 
1 1:219 2:255 3:163 4:211 5:248 6:159 7:630 8:756 9:628 
1 1:211 2:248 3:158 4:209 5:246 6:157 7:630 8:756 9:628 
1 1:212 2:255 3:163 4:211 5:247 6:159 7:630 8:756 9:628 
1 1:219 2:255 3:163 4:212 5:248 6:160 7:629 8:756 9:628 
1 1:216 2:255 3:163 4:211 5:248 6:160 7:630 8:756 9:628 
1 1:213 2:255 3:162 4:210 5:247 6:159 7:630 8:756 9:628 
1 1:215 2:255 3:162 4:210 5:247 6:159 7:630 8:756 9:628 
1 1:213 2:248 3:158 4:209 5:246 6:157 7:630 8:756 9:629 
1 1:212 2:255 3:162 4:210 5:247 6:158 7:630 8:756 9:628 
1 1:219 2:255 3:163 4:211 5:248 6:160 7:630 8:756 9:628 
1 1:213 2:248 3:158 4:209 5:246 6:157 7:630 8:756 9:628 
1 1:213 2:255 3:162 4:211 5:248 6:159 7:629 8:756 9:628 
1 1:219 2:255 3:163 4:212 5:248 6:160 7:630 8:756 9:628 
1 1:212 2:250 3:162 4:210 5:247 6:158 7:630 8:756 9:628 
1 1:212 2:251 3:161 4:210 5:247 6:158 7:630 8:756 9:629 
1 1:213 2:248 3:158 4:209 5:246 6:157 7:630 8:756 9:629 
1 1:213 2:255 3:158 4:210 5:247 6:158 7:630 8:756 9:629 
1 1:212 2:255 3:162 4:210 5:247 6:158 7:630 8:757 9:629 
1 1:212 2:250 3:162 4:209 5:246 6:158 7:630 8:756 9:629 
1 1:213 2:255 3:162 4:211 5:247 6:159 7:630 8:756 9:629 
1 1:212 2:250 3:162 4:210 5:246 6:158 7:630 8:756 9:629 
1 1:212 2:255 3:162 4:210 5:247 6:158 7:630 8:756 9:629 
1 1:212 2:255 3:162 4:210 5:247 6:158 7:630 8:756 9:629 
1 1:213 2:255 3:162 4:210 5:247 6:158 7:630 8:756 9:629 
1 1:213 2:248 3:158 4:209 5:246 6:158 7:630 8:756 9:629 
1 1:212 2:255 3:162 4:211 5:247 6:159 7:630 8:756 9:629 
1 1:213 2:255 3:162 4:210 5:247 6:158 7:630 8:756 9:629 
1 1:213 2:255 3:162 4:211 5:247 6:159 7:630 8:757 9:629 
1 1:219 2:255 3:163 4:211 5:247 6:159 7:630 8:757 9:629 
1 1:219 2:255 3:163 4:211 5:248 6:159 7:630 8:756 9:629 
1 1:219 2:255 3:163 4:211 5:248 6:159 7:630 8:756 9:629 
1 1:212 2:255 3:163 4:211 5:248 6:159 7:630 8:756 9:629 
1 1:212 2:255 3:162 4:210 5:247 6:159 7:630 8:756 9:629 
1 1:212 2:255 3:162 4:210 5:247 6:159 7:630 8:757 9:629 
1 1:212 2:250 3:162 4:209 5:246 6:157 7:630 8:756 9:628 
1 1:218 2:255 3:162 4:211 5:247 6:159 7:630 8:756 9:629 
1 1:218 2:255 3:162 4:211 5:247 6:159 7:630 8:756 9:629 
1 1:212 2:250 3:162 4:210 5:246 6:158 7:630 8:757 9:629 
1 1:218 2:255 3:162 4:211 5:247 6:159 7:630 8:756 9:629 
1 1:212 2:250 3:162 4:210 5:246 6:158 7:630 8:756 9:629 
1 1:218 2:255 3:162 4:211 5:247 6:159 7:630 8:756 9:629 
1 1:213 2:251 3:158 4:210 5:246 6:158 7:630 8:756 9:629 
1 1:212 2:250 3:162 4:210 5:247 6:158 7:630 8:757 9:629 
1 1:212 2:250 3:162 4:209 5:246 6:158 7:630 8:756 9:629 
1 1:212 2:255 3:162 4:210 5:247 6:158 7:630 8:757 9:629 
1 1:213 2:248 3:158 4:209 5:246 6:158 7:630 8:757 9:629 
1 1:212 2:255 3:162 4:210 5:247 6:158 7:630 8:757 9:629 
1 1:212 2:255 3:162 4:210 5:247 6:158 7:630 8:756 9:629 
1 1:212 2:255 3:163 4:211 5:247 6:159 7:630 8:757 9:629 
1 1:216 2:255 3:162 4:212 5:248 6:160 7:630 8:757 9:629 
1 1:219 2:255 3:163 4:211 5:248 6:159 7:630 8:757 9:629 
1 1:212 2:255 3:163 4:211 5:247 6:159 7:630 8:756 9:629 
1 1:215 2:255 3:164 4:211 5:248 6:160 7:630 8:757 9:629 
1 1:212 2:255 3:162 4:210 5:246 6:158 7:630 8:757 9:629 
1 1:215 2:255 3:162 4:210 5:247 6:158 7:630 8:756 9:629 
1 1:213 2:255 3:162 4:210 5:247 6:159 7:630 8:756 9:629 
1 1:212 2:250 3:158 4:209 5:246 6:157 7:630 8:756 9:629 
1 1:213 2:255 3:162 4:211 5:248 6:159 7:630 8:756 9:629 
1 1:218 2:255 3:162 4:211 5:247 6:159 7:630 8:756 9:629 
1 1:212 2:255 3:162 4:210 5:247 6:158 7:630 8:756 9:629 
1 1:219 2:255 3:163 4:212 5:248 6:160 7:630 8:757 9:629 
1 1:213 2:248 3:158 4:208 5:246 6:157 7:630 8:757 9:629 
1 1:212 2:250 3:162 4:210 5:247 6:158 7:630 8:757 9:629 
1 1:216 2:255 3:162 4:211 5:248 6:160 7:630 8:757 9:629 
1 1:212 2:255 3:162 4:211 5:247 6:159 7:630 8:757 9:629 
1 1:212 2:250 3:162 4:210 5:246 6:158 7:630 8:757 9:629 
1 1:212 2:255 3:163 4:211 5:247 6:159 7:630 8:757 9:629 
1 1:212 2:255 3:162 4:211 5:247 6:159 7:630 8:757 9:629 
1 1:215 2:255 3:162 4:211 5:247 6:159 7:630 8:757 9:629 
1 1:212 2:251 3:163 4:210 5:247 6:159 7:630 8:756 9:629 
1 1:213 2:255 3:162 4:211 5:248 6:159 7:630 8:756 9:629 
1 1:212 2:250 3:162 4:210 5:247 6:158 7:630 8:756 9:629 
1 1:219 2:255 3:163 4:211 5:247 6:159 7:630 8:756 9:629 
1 1:212 2:255 3:162 4:210 5:247 6:159 7:630 8:757 9:629 
1 1:211 2:248 3:162 4:209 5:246 6:157 7:630 8:757 9:629 
-1 1:204 2:255 3:132 4:203 5:247 6:131 7:612 8:734 9:593 
-1 1:205 2:255 3:129 4:203 5:248 6:131 7:612 8:734 9:593 
-1 1:207 2:255 3:132 4:204 5:247 6:132 7:612 8:734 9:593 
-1 1:205 2:255 3:129 4:203 5:248 6:131 7:612 8:734 9:594 
1 1:205 2:255 3:133 4:205 5:249 6:133 7:612 8:734 9:594 
1 1:205 2:255 3:129 4:205 5:249 6:133 7:612 8:734 9:594 
1 1:207 2:255 3:134 4:207 5:250 6:135 7:612 8:734 9:594 
-1 1:197 2:245 3:127 4:197 5:241 6:126 7:612 8:734 9:594 
-1 1:207 2:255 3:132 4:204 5:248 6:132 7:612 8:734 9:594 
0.9780843089487864 1:207 2:255 3:132 4:205 5:249 6:133 7:612 8:734 9:593 
1 1:207 2:255 3:132 4:205 5:249 6:133 7:612 8:734 9:594 
-1 1:207 2:255 3:132 4:204 5:248 6:133 7:612 8:734 9:594 
1 1:205 2:255 3:129 4:205 5:249 6:133 7:612 8:734 9:594 
1 1:205 2:255 3:129 4:206 5:249 6:134 7:612 8:734 9:593 
1 1:207 2:255 3:132 4:205 5:249 6:134 7:612 8:734 9:593 
-1 1:205 2:255 3:129 4:202 5:246 6:130 7:612 8:734 9:594 
1 1:205 2:255 3:133 4:206 5:250 6:134 7:612 8:734 9:593 
1 1:207 2:255 3:132 4:206 5:249 6:134 7:612 8:734 9:594 
1 1:205 2:255 3:132 4:206 5:249 6:133 7:612 8:734 9:593 
-1 1:207 2:255 3:132 4:204 5:248 6:132 7:612 8:734 9:593 
1 1:207 2:255 3:132 4:205 5:249 6:133 7:612 8:734 9:594 
-1 1:205 2:255 3:129 4:204 5:247 6:131 7:612 8:734 9:594 
1 1:205 2:255 3:133 4:205 5:249 6:133 7:612 8:734 9:594 
-1 1:204 2:255 3:132 4:203 5:247 6:131 7:612 8:734 9:594 
1 1:207 2:255 3:132 4:205 5:249 6:133 7:612 8:734 9:594 
-1 1:207 2:255 3:132 4:204 5:248 6:132 7:612 8:734 9:594 
1 1:205 2:255 3:133 4:206 5:249 6:134 7:612 8:734 9:594 
1 1:205 2:255 3:129 4:206 5:250 6:134 7:612 8:734 9:594 
-1 1:207 2:255 3:132 4:205 5:248 6:133 7:612 8:734 9:593 
-1 1:207 2:255 3:132 4:204 5:248 6:132 7:612 8:734 9:593 
1 1:207 2:255 3:132 4:206 5:249 6:134 7:612 8:734 9:594 
1 1:207 2:255 3:132 4:206 5:249 6:133 7:612 8:734 9:594 
-1 1:207 2:255 3:132 4:204 5:248 6:132 7:612 8:734 9:594 
1 1:207 2:255 3:134 4:206 5:249 6:134 7:612 8:734 9:594 
-1 1:205 2:255 3:129 4:203 5:248 6:132 7:612 8:734 9:593 
1 1:205 2:255 3:133 4:205 5:249 6:133 7:612 8:734 9:594 
-1 1:205 2:255 3:129 4:203 5:248 6:131 7:612 8:734 9:593 
1 1:205 2:255 3:133 4:206 5:249 6:134 7:612 8:734 9:593 
-1 1:205 2:255 3:129 4:203 5:247 6:131 7:612 8:734 9:594 
0.5802510673959913 1:207 2:255 3:132 4:205 5:249 6:133 7:612 8:734 9:593 
1 1:205 2:255 3:133 4:205 5:249 6:133 7:612 8:734 9:593 
1 1:205 2:255 3:133 4:205 5:249 6:133 7:612 8:734 9:593 
-1 1:205 2:255 3:129 4:202 5:246 6:130 7:612 8:734 9:593 
1 1:205 2:255 3:133 4:205 5:249 6:133 7:612 8:734 9:593 
1 1:205 2:255 3:129 4:206 5:249 6:134 7:612 8:734 9:594 
1 1:209 2:255 3:133 4:205 5:249 6:133 7:612 8:734 9:594 
0.90154066988545434 1:207 2:255 3:132 4:205 5:249 6:133 7:612 8:734 9:593 
-1 1:207 2:255 3:132 4:204 5:248 6:132 7:612 8:734 9:593 
1 1:207 2:255 3:132 4:205 5:249 6:133 7:612 8:734 9:594 
1 1:205 2:255 3:133 4:205 5:249 6:133 7:612 8:734 9:594 
-1 1:205 2:255 3:129 4:203 5:247 6:131 7:612 8:734 9:594 
1 1:207 2:255 3:134 4:206 5:249 6:134 7:612 8:734 9:594 
1 1:205 2:255 3:129 4:205 5:249 6:133 7:612 8:734 9:594 
1 1:205 2:255 3:133 4:206 5:250 6:134 7:612 8:734 9:594 
-1 1:205 2:255 3:129 4:203 5:247 6:131 7:612 8:734 9:594 
-1 1:205 2:255 3:129 4:203 5:247 6:131 7:612 8:734 9:594 
1 1:205 2:255 3:133 4:205 5:249 6:133 7:612 8:734 9:594 
-1 1:207 2:255 3:132 4:204 5:248 6:132 7:612 8:734 9:594 
-1 1:205 2:255 3:129 4:202 5:246 6:130 7:612 8:734 9:593 
-1 1:207 2:255 3:132 4:204 5:248 6:132 7:612 8:734 9:593 
1 1:205 2:255 3:133 4:205 5:249 6:133 7:612 8:734 9:594 
1 1:207 2:255 3:132 4:205 5:249 6:133 7:612 8:734 9:594 
-1 1:207 2:255 3:132 4:204 5:248 6:132 7:612 8:734 9:594 
-1 1:207 2:255 3:132 4:203 5:248 6:131 7:612 8:734 9:594 
-1 1:200 2:250 3:125 4:199 5:243 6:128 7:612 8:734 9:594 
1 1:205 2:255 3:133 4:205 5:249 6:133 7:612 8:734 9:594 
1 1:207 2:255 3:132 4:205 5:249 6:133 7:612 8:734 9:594 
-1 1:207 2:255 3:132 4:204 5:248 6:132 7:612 8:734 9:594 
-1 1:207 2:255 3:132 4:204 5:248 6:132 7:612 8:734 9:594 
1 1:207 2:255 3:132 4:205 5:249 6:133 7:612 8:734 9:594 
-1 1:199 2:241 3:127 4:196 5:240 6:125 7:612 8:734 9:594 
-1 1:207 2:255 3:132 4:203 5:247 6:131 7:612 8:734 9:594 
-1 1:207 2:255 3:132 4:204 5:248 6:132 7:612 8:734 9:594 
-1 1:207 2:255 3:132 4:204 5:248 6:132 7:612 8:734 9:594 
-1 1:207 2:255 3:132 4:204 5:248 6:132 7:612 8:734 9:594 
-1 1:207 2:255 3:132 4:204 5:248 6:132 7:612 8:734 9:594 
-1 1:205 2:255 3:129 4:203 5:247 6:131 7:612 8:734 9:594 
-1 1:207 2:255 3:132 4:204 5:248 6:132 7:612 8:734 9:594 
1 1:205 2:255 3:132 4:205 5:249 6:133 7:612 8:734 9:594 
1 1:205 2:255 3:133 4:205 5:249 6:133 7:612 8:734 9:594 
1 1:207 2:255 3:132 4:205 5:249 6:133 7:612 8:734 9:594 
-1 1:207 2:255 3:132 4:204 5:247 6:131 7:612 8:734 9:594 
-1 1:205 2:255 3:129 4:203 5:247 6:130 7:612 8:734 9:594 
-1 1:207 2:255 3:132 4:204 5:248 6:132 7:612 8:734 9:594 
1 1:205 2:255 3:133 4:206 5:250 6:134 7:612 8:734 9:594 
-1 1:207 2:255 3:132 4:204 5:248 6:131 7:612 8:734 9:594 
-1 1:205 2:255 3:129 4:203 5:247 6:131 7:612 8:734 9:594 
1 1:192 2:243 3:100 4:193 5:244 6:106 7:599 8:718 9:567 
-1 1:191 2:255 3:101 4:194 5:244 6:107 7:599 8:718 9:567 
-1 1:192 2:245 3:100 4:192 5:242 6:105 7:598 8:718 9:567 
-1 1:191 2:255 3:101 4:194 5:244 6:107 7:599 8:718 9:567 
-1 1:192 2:242 3:100 4:191 5:242 6:104 7:599 8:718 9:567 
1 1:191 2:244 3:101 4:193 5:244 6:106 7:599 8:718 9:567 
-1 1:192 2:245 3:102 4:193 5:243 6:106 7:598 8:718 9:567 
-1 1:191 2:255 3:101 4:194 5:244 6:107 7:599 8:718 9:567 
1 1:192 2:245 3:100 4:194 5:244 6:106 7:599 8:718 9:567 
1 1:192 2:245 3:102 4:194 5:244 6:107 7:599 8:718 9:567 
-1 1:192 2:245 3:99 4:192 5:243 6:105 7:599 8:718 9:567 
-1 1:192 2:245 3:102 4:192 5:243 6:106 7:599 8:718 9:567 
1 1:192 2:255 3:102 4:195 5:246 6:108 7:599 8:718 9:567 
-1 1:192 2:243 3:100 4:192 5:242 6:105 7:599 8:718 9:567 
1 1:192 2:245 3:102 4:195 5:245 6:108 7:599 8:718 9:567 
1 1:192 2:245 3:102 4:194 5:244 6:106 7:599 8:718 9:567 
1 1:192 2:243 3:100 4:193 5:244 6:106 7:599 8:718 9:567 
1 1:191 2:244 3:101 4:193 5:244 6:106 7:599 8:718 9:567 
-1 1:192 2:243 3:100 4:192 5:243 6:106 7:599 8:718 9:567 
-1 1:186 2:238 3:99 4:187 5:238 6:101 7:599 8:718 9:567 
1 1:192 2:245 3:102 4:194 5:245 6:107 7:599 8:718 9:567 
-1 1:192 2:243 3:100 4:193 5:243 6:106 7:599 8:718 9:567 
1 1:192 2:245 3:102 4:194 5:244 6:107 7:599 8:718 9:567 
-1 1:191 2:242 3:101 4:192 5:243 6:105 7:599 8:718 9:567 
1 1:192 2:245 3:102 4:194 5:244 6:106 7:599 8:718 9:567 
1 1:192 2:245 3:102 4:194 5:244 6:107 7:599 8:718 9:567 
1 1:192 2:245 3:102 4:194 5:244 6:107 7:599 8:718 9:567 
-1 1:192 2:243 3:100 4:193 5:243 6:106 7:599 8:718 9:567 
1 1:192 2:245 3:102 4:195 5:245 6:107 7:599 8:718 9:567 
1 1:191 2:244 3:101 4:194 5:244 6:106 7:599 8:718 9:567 
1 1:191 2:242 3:101 4:193 5:244 6:106 7:599 8:718 9:567 
1 1:191 2:244 3:101 4:193 5:244 6:106 7:599 8:718 9:567 
1 1:191 2:244 3:101 4:193 5:244 6:106 7:599 8:718 9:567 
1 1:191 2:244 3:101 4:194 5:244 6:106 7:599 8:718 9:567 
1 1:191 2:244 3:101 4:193 5:244 6:106 7:599 8:718 9:567 
0.38975814727227198 1:192 2:245 3:100 4:193 5:244 6:106 7:599 8:718 9:567 
-1 1:192 2:243 3:100 4:192 5:243 6:106 7:599 8:718 9:567 
1 1:192 2:243 3:100 4:193 5:244 6:106 7:599 8:718 9:567 
-1 1:191 2:244 3:101 4:192 5:243 6:105 7:599 8:718 9:567 
-1 1:191 2:242 3:101 4:192 5:243 6:106 7:599 8:718 9:567 
1 1:192 2:245 3:102 4:194 5:244 6:106 7:599 8:718 9:567 
1 1:192 2:243 3:100 4:193 5:244 6:106 7:599 8:718 9:567 
1 1:192 2:245 3:102 4:195 5:245 6:107 7:599 8:718 9:567 
1 1:191 2:244 3:101 4:193 5:244 6:106 7:599 8:718 9:567 
1 1:191 2:242 3:101 4:193 5:244 6:106 7:599 8:718 9:567 
-1 1:192 2:243 3:100 4:192 5:243 6:105 7:599 8:718 9:567 
1 1:192 2:245 3:102 4:194 5:244 6:106 7:599 8:718 9:567 
-1 1:191 2:244 3:101 4:193 5:243 6:106 7:599 8:718 9:567 
1 1:191 2:244 3:101 4:193 5:244 6:106 7:599 8:718 9:567 
1 1:191 2:242 3:101 4:193 5:244 6:106 7:599 8:718 9:567 
1 1:191 2:244 3:101 4:194 5:244 6:106 7:599 8:718 9:567 
1 1:192 2:245 3:102 4:194 5:244 6:107 7:599 8:718 9:567 
1 1:192 2:243 3:102 4:193 5:244 6:106 7:599 8:718 9:567 
-1 1:192 2:245 3:102 4:193 5:243 6:106 7:599 8:718 9:567 
1 1:191 2:242 3:101 4:193 5:244 6:106 7:599 8:718 9:567 
-1 1:192 2:243 3:100 4:192 5:243 6:105 7:599 8:718 9:567 
1 1:192 2:245 3:102 4:194 5:244 6:107 7:599 8:718 9:567 
1 1:192 2:243 3:100 4:193 5:244 6:106 7:599 8:718 9:567 
-1 1:188 2:240 3:97 4:187 5:238 6:101 7:599 8:718 9:567 
1 1:192 2:245 3:102 4:194 5:245 6:107 7:599 8:718 9:567 
1 1:192 2:245 3:102 4:195 5:245 6:107 7:599 8:718 9:567 
1 1:192 2:245 3:102 4:194 5:245 6:107 7:599 8:718 9:567 
1 1:191 2:244 3:101 4:193 5:244 6:106 7:599 8:718 9:567 
1 1:191 2:242 3:101 4:193 5:244 6:106 7:599 8:718 9:567 
-1 1:191 2:244 3:101 4:193 5:243 6:106 7:599 8:718 9:567 
-1 1:192 2:245 3:100 4:193 5:243 6:106 7:599 8:718 9:567 
1 1:191 2:244 3:101 4:193 5:244 6:106 7:599 8:718 9:567 
1 1:192 2:255 3:102 4:195 5:246 6:108 7:599 8:718 9:567 
1 1:192 2:245 3:102 4:194 5:245 6:107 7:599 8:718 9:567 
1 1:192 2:245 3:102 4:194 5:245 6:107 7:599 8:718 9:567 
1 1:192 2:245 3:102 4:194 5:245 6:107 7:599 8:718 9:567 
1 1:191 2:244 3:101 4:193 5:244 6:106 7:599 8:718 9:567 
1 1:191 2:242 3:101 4:193 5:244 6:106 7:599 8:718 9:567 
1 1:192 2:245 3:102 4:194 5:244 6:106 7:599 8:718 9:567 
-1 1:192 2:243 3:100 4:193 5:243 6:106 7:599 8:718 9:567 
-1 1:190 2:243 3:100 4:192 5:242 6:105 7:599 8:718 9:567 
1 1:192 2:245 3:102 4:194 5:245 6:107 7:599 8:718 9:567 
-1 1:191 2:242 3:101 4:193 5:243 6:105 7:599 8:718 9:567 
-1 1:192 2:245 3:102 4:192 5:243 6:106 7:599 8:718 9:567 
0.022249858442117711 1:192 2:245 3:100 4:193 5:244 6:106 7:599 8:718 9:567 
1 1:192 2:245 3:102 4:194 5:244 6:106 7:599 8:718 9:567 
-1 1:192 2:242 3:99 4:191 5:242 6:104 7:599 8:718 9:567 
1 1:192 2:245 3:100 4:194 5:245 6:106 7:599 8:718 9:567 
0.64811568474180181 1:191 2:244 3:101 4:192 5:244 6:105 7:599 8:718 9:567 
-1 1:192 2:245 3:100 4:192 5:243 6:104 7:599 8:718 9:567 
-1 1:174 2:236 3:74 4:176 5:232 6:77 7:588 8:706 9:546 
-1 1:178 2:239 3:81 4:181 5:238 6:81 7:588 8:706 9:546 
-1 1:178 2:232 3:74 4:177 5:234 6:78 7:588 8:706 9:546 
-1 1:174 2:232 3:74 4:176 5:233 6:77 7:588 8:706 9:546 
-1 1:178 2:237 3:74 4:178 5:235 6:78 7:588 8:706 9:546 
-1 1:174 2:232 3:74 4:176 5:233 6:78 7:588 8:706 9:546 
-1 1:178 2:237 3:74 4:178 5:235 6:78 7:588 8:706 9:546 
-1 1:176 2:237 3:75 4:178 5:235 6:79 7:588 8:706 9:546 
-1 1:177 2:239 3:74 4:178 5:235 6:79 7:588 8:706 9:546 
-1 1:178 2:235 3:81 4:180 5:237 6:80 7:588 8:706 9:546 
-1 1:179 2:237 3:76 4:179 5:236 6:79 7:588 8:706 9:546 
-1 1:178 2:237 3:76 4:179 5:236 6:79 7:588 8:706 9:546 
-1 1:179 2:237 3:75 4:178 5:235 6:79 7:588 8:706 9:546 
-1 1:178 2:237 3:74 4:178 5:235 6:78 7:588 8:706 9:546 
-1 1:179 2:237 3:75 4:178 5:235 6:79 7:588 8:706 9:546 
-1 1:179 2:237 3:81 4:179 5:236 6:79 7:588 8:706 9:546 
-1 1:174 2:232 3:74 4:176 5:233 6:77 7:588 8:706 9:546 
-1 1:176 2:237 3:75 4:177 5:234 6:78 7:588 8:706 9:546 
-1 1:178 2:235 3:76 4:177 5:234 6:78 7:588 8:706 9:546 
-1 1:178 2:236 3:74 4:178 5:235 6:78 7:588 8:706 9:546 
-1 1:178 2:236 3:76 4:178 5:235 6:78 7:588 8:706 9:546 
-1 1:179 2:237 3:75 4:179 5:236 6:79 7:588 8:706 9:546 
-1 1:178 2:236 3:76 4:178 5:235 6:78 7:588 8:706 9:546 
-1 1:178 2:237 3:74 4:177 5:234 6:78 7:588 8:706 9:546 
-1 1:178 2:235 3:76 4:178 5:235 6:78 7:588 8:705 9:546 
-1 1:178 2:239 3:81 4:179 5:236 6:79 7:588 8:706 9:546 
-1 1:178 2:237 3:74 4:178 5:235 6:78 7:588 8:705 9:546 
-1 1:178 2:235 3:81 4:179 5:236 6:79 7:588 8:706 9:546 
-1 1:179 2:237 3:75 4:178 5:235 6:79 7:588 8:706 9:546 
-1 1:179 2:237 3:75 4:178 5:235 6:79 7:588 8:706 9:546 
-1 1:176 2:237 3:75 4:177 5:234 6:79 7:588 8:706 9:546 
-1 1:178 2:235 3:76 4:179 5:236 6:79 7:588 8:706 9:546 
-1 1:178 2:237 3:76 4:178 5:235 6:79 7:588 8:706 9:546 
-1 1:170 2:225 3:72 4:169 5:225 6:74 7:588 8:706 9:546 
-1 1:174 2:232 3:74 4:176 5:232 6:77 7:588 8:706 9:546 
-1 1:178 2:235 3:76 4:178 5:235 6:78 7:588 8:706 9:546 
-1 1:176 2:232 3:75 4:177 5:234 6:78 7:588 8:706 9:546 
-1 1:178 2:237 3:74 4:177 5:234 6:78 7:588 8:706 9:546 
-1 1:178 2:237 3:74 4:178 5:235 6:78 7:588 8:706 9:546 
-1 1:176 2:239 3:74 4:178 5:234 6:78 7:588 8:706 9:546 
-1 1:176 2:239 3:74 4:178 5:234 6:78 7:588 8:706 9:546 
-1 1:174 2:237 3:74 4:177 5:234 6:78 7:588 8:706 9:546 
-1 1:174 2:230 3:74 4:175 5:232 6:76 7:588 8:706 9:546 
-1 1:178 2:237 3:74 4:178 5:235 6:78 7:588 8:706 9:546 
-1 1:178 2:236 3:74 4:178 5:235 6:78 7:588 8:706 9:546 
-1 1:178 2:239 3:81 4:179 5:236 6:79 7:588 8:706 9:546 
-1 1:174 2:237 3:74 4:177 5:234 6:78 7:588 8:706 9:546 
-1 1:178 2:236 3:76 4:178 5:235 6:78 7:588 8:706 9:546 
-1 1:176 2:237 3:74 4:178 5:235 6:78 7:588 8:706 9:546 
-1 1:176 2:232 3:75 4:176 5:232 6:78 7:588 8:706 9:546 
-1 1:171 2:225 3:74 4:170 5:226 6:74 7:588 8:706 9:546 
-1 1:179 2:237 3:75 4:179 5:235 6:79 7:588 8:706 9:546 
-1 1:179 2:237 3:75 4:178 5:235 6:79 7:588 8:706 9:546 
-1 1:178 2:235 3:76 4:178 5:235 6:78 7:588 8:706 9:546 
-1 1:178 2:235 3:76 4:178 5:235 6:78 7:588 8:706 9:546 
-1 1:176 2:239 3:74 4:178 5:235 6:78 7:588 8:706 9:546 
-1 1:178 2:237 3:76 4:178 5:235 6:78 7:588 8:706 9:546 
-1 1:178 2:239 3:81 4:179 5:236 6:79 7:588 8:706 9:546 
-1 1:168 2:223 3:72 4:169 5:225 6:74 7:588 8:706 9:546 
-1 1:178 2:237 3:74 4:177 5:234 6:78 7:588 8:706 9:546 
-1 1:178 2:235 3:81 4:179 5:236 6:79 7:588 8:706 9:546 
-1 1:178 2:239 3:81 4:179 5:236 6:79 7:588 8:706 9:546 
-1 1:178 2:235 3:76 4:178 5:235 6:79 7:588 8:706 9:546 
-1 1:178 2:236 3:76 4:178 5:235 6:79 7:588 8:706 9:546 
-1 1:178 2:235 3:76 4:178 5:235 6:79 7:588 8:706 9:546 
-1 1:176 2:232 3:74 4:177 5:234 6:78 7:588 8:706 9:546 
-1 1:176 2:232 3:74 4:176 5:233 6:78 7:588 8:706 9:546 
-1 1:178 2:239 3:81 4:179 5:236 6:79 7:588 8:706 9:546 
-1 1:178 2:235 3:76 4:178 5:235 6:79 7:588 8:706 9:546 
-1 1:178 2:239 3:81 4:178 5:235 6:79 7:588 8:706 9:546 
-1 1:178 2:235 3:76 4:178 5:234 6:78 7:588 8:706 9:546 
-1 1:178 2:237 3:74 4:178 5:235 6:78 7:588 8:706 9:546 
-1 1:179 2:237 3:75 4:178 5:235 6:79 7:588 8:706 9:546 
-1 1:178 2:239 3:81 4:179 5:236 6:79 7:588 8:706 9:546 
-1 1:175 2:230 3:75 4:174 5:230 6:77 7:588 8:706 9:546 
-1 1:178 2:236 3:76 4:177 5:234 6:78 7:588 8:706 9:546 
-1 1:178 2:235 3:76 4:178 5:235 6:78 7:588 8:706 9:546 
-1 1:176 2:237 3:74 4:179 5:236 6:79 7:588 8:706 9:546 
-1 1:178 2:237 3:74 4:177 5:234 6:78 7:588 8:706 9:546 
-1 1:178 2:236 3:76 4:178 5:235 6:78 7:588 8:706 9:546 
-1 1:178 2:237 3:74 4:178 5:235 6:78 7:588 8:706 9:546 
-1 1:178 2:237 3:74 4:178 5:235 6:78 7:588 8:706 9:546 
-1 1:175 2:232 3:75 4:177 5:233 6:78 7:588 8:706 9:546 
-1 1:178 2:237 3:74 4:178 5:235 6:78 7:588 8:706 9:546 
-1 1:174 2:237 3:74 4:177 5:234 6:78 7:588 8:706 9:546 
-1 1:178 2:235 3:76 4:178 5:235 6:78 7:588 8:706 9:546 
-1 1:174 2:237 3:74 4:177 5:234 6:78 7:588 8:706 9:547 
-1 1:178 2:236 3:76 4:178 5:235 6:79 7:588 8:706 9:547 
-1 1:174 2:232 3:74 4:176 5:233 6:77 7:588 8:706 9:547 
-1 1:174 2:232 3:74 4:176 5:232 6:77 7:588 8:706 9:547 
-1 1:174 2:236 3:74 4:177 5:234 6:78 7:588 8:706 9:547 
-1 1:176 2:237 3:74 4:177 5:234 6:78 7:589 8:706 9:547 
-1 1:178 2:236 3:76 4:178 5:235 6:78 7:588 8:706 9:547 
-1 1:174 2:232 3:74 4:176 5:232 6:77 7:588 8:706 9:547 
-1 1:174 2:237 3:74 4:177 5:234 6:77 7:588 8:706 9:547 
-1 1:178 2:237 3:74 4:178 5:235 6:78 7:588 8:706 9:547 
-1 1:178 2:239 3:75 4:179 5:236 6:79 7:588 8:706 9:547 
-1 1:178 2:237 3:76 4:178 5:235 6:78 7:589 8:706 9:547 
-1 1:142 2:227 3:72 4:145 5:230 6:79 7:579 8:695 9:526 
-1 1:145 2:229 3:73 4:145 5:231 6:79 7:579 8:695 9:526 
1 1:142 2:229 3:73 4:145 5:232 6:78 7:579 8:695 9:526 
1 1:144 2:229 3:73 4:146 5:233 6:79 7:579 8:695 9:526 
-1 1:138 2:225 3:72 4:142 5:228 6:77 7:579 8:695 9:526 
1 1:142 2:227 3:72 4:146 5:232 6:79 7:579 8:695 9:526 
1 1:142 2:229 3:73 4:145 5:232 6:78 7:579 8:695 9:526 
-1 1:141 2:227 3:72 4:143 5:229 6:77 7:579 8:695 9:526 
-1 1:142 2:229 3:73 4:144 5:230 6:77 7:579 8:695 9:526 
-1 1:147 2:230 3:73 4:146 5:231 6:79 7:579 8:695 9:526 
-1 1:142 2:229 3:73 4:144 5:231 6:78 7:579 8:695 9:526 
1 1:142 2:229 3:73 4:145 5:232 6:78 7:579 8:695 9:526 
-1 1:142 2:229 3:73 4:144 5:230 6:78 7:579 8:695 9:526 
-1 1:143 2:225 3:72 4:144 5:229 6:78 7:579 8:695 9:526 
-1 1:142 2:227 3:72 4:144 5:230 6:78 7:579 8:695 9:527 
1 1:142 2:227 3:72 4:145 5:231 6:78 7:579 8:695 9:527 
1 1:145 2:229 3:72 4:146 5:232 6:79 7:579 8:695 9:526 
1 1:142 2:229 3:72 4:146 5:232 6:79 7:579 8:695 9:526 
1 1:145 2:229 3:73 4:146 5:232 6:79 7:579 8:695 9:526 
-1 1:142 2:229 3:73 4:144 5:230 6:78 7:579 8:695 9:526 
-1 1:142 2:229 3:73 4:144 5:230 6:78 7:579 8:695 9:526 
-1 1:142 2:229 3:73 4:144 5:230 6:78 7:579 8:695 9:526 
-1 1:142 2:227 3:72 4:144 5:230 6:78 7:579 8:695 9:526 
-1 1:141 2:230 3:73 4:144 5:230 6:78 7:579 8:695 9:526 
1 1:142 2:229 3:73 4:145 5:232 6:79 7:579 8:695 9:526 
1 1:143 2:230 3:73 4:146 5:232 6:79 7:579 8:695 9:526 
-1 1:142 2:227 3:72 4:144 5:230 6:78 7:579 8:695 9:526 
-1 1:142 2:229 3:73 4:144 5:230 6:78 7:579 8:695 9:526 
-1 1:141 2:227 3:72 4:143 5:229 6:78 7:579 8:695 9:526 
1 1:142 2:229 3:73 4:145 5:232 6:78 7:579 8:695 9:526 
1 1:142 2:229 3:73 4:145 5:231 6:78 7:579 8:695 9:527 
1 1:142 2:229 3:73 4:146 5:232 6:78 7:579 8:695 9:526 
-1 1:142 2:227 3:72 4:145 5:230 6:79 7:579 8:695 9:526 
-1 1:141 2:225 3:73 4:145 5:230 6:79 7:579 8:695 9:526 
-1 1:142 2:229 3:73 4:145 5:230 6:78 7:579 8:695 9:526 
1 1:145 2:227 3:72 4:145 5:231 6:79 7:579 8:695 9:527 
1 1:142 2:229 3:73 4:145 5:231 6:78 7:579 8:695 9:527 
-1 1:142 2:225 3:71 4:143 5:229 6:78 7:579 8:695 9:526 
1 1:142 2:229 3:73 4:145 5:231 6:78 7:579 8:695 9:527 
-1 1:141 2:225 3:71 4:144 5:229 6:78 7:579 8:695 9:526 
-1 1:142 2:225 3:72 4:144 5:230 6:78 7:579 8:695 9:526 
1 1:142 2:229 3:73 4:145 5:231 6:78 7:579 8:695 9:527 
-0.30833466934460135 1:144 2:229 3:73 4:146 5:231 6:79 7:579 8:695 9:526 
1 1:144 2:231 3:74 4:147 5:232 6:80 7:579 8:695 9:527 
-1 1:142 2:229 3:73 4:145 5:230 6:78 7:579 8:695 9:527 
-1 1:142 2:225 3:72 4:144 5:229 6:78 7:579 8:695 9:527 
-1 1:142 2:225 3:72 4:144 5:229 6:78 7:579 8:695 9:527 
-1 1:142 2:225 3:72 4:144 5:229 6:78 7:579 8:695 9:527 
-1 1:142 2:229 3:73 4:144 5:230 6:78 7:579 8:695 9:527 
1 1:142 2:227 3:72 4:145 5:231 6:79 7:579 8:695 9:527 
-1 1:142 2:229 3:73 4:145 5:230 6:78 7:579 8:695 9:527 
-1 1:142 2:229 3:73 4:144 5:230 6:78 7:579 8:695 9:527 
-1 1:138 2:225 3:71 4:141 5:226 6:76 7:579 8:695 9:527 
-1 1:142 2:229 3:73 4:144 5:230 6:78 7:579 8:695 9:527 
1 1:145 2:227 3:72 4:145 5:231 6:79 7:579 8:695 9:527 
-1 1:142 2:229 3:73 4:145 5:230 6:78 7:579 8:695 9:527 
-1 1:142 2:229 3:73 4:145 5:230 6:78 7:579 8:695 9:527 
1 1:142 2:229 3:73 4:145 5:231 6:78 7:579 8:695 9:527 
-1 1:142 2:229 3:73 4:144 5:230 6:78 7:579 8:695 9:527 
1 1:142 2:229 3:73 4:145 5:231 6:78 7:579 8:695 9:527 
-1 1:141 2:227 3:73 4:144 5:229 6:78 7:579 8:695 9:527 
-1 1:142 2:229 3:73 4:145 5:230 6:78 7:579 8:695 9:527 
-1 1:142 2:229 3:73 4:144 5:229 6:78 7:579 8:695 9:527 
-1 1:141 2:227 3:72 4:143 5:229 6:77 7:579 8:695 9:527 
-1 1:142 2:229 3:71 4:143 5:228 6:77 7:579 8:695 9:527 
-1 1:138 2:225 3:71 4:142 5:227 6:77 7:579 8:695 9:527 
-1 1:142 2:229 3:73 4:145 5:230 6:78 7:579 8:695 9:527 
-1 1:142 2:229 3:73 4:144 5:230 6:78 7:579 8:695 9:527 
-1 1:141 2:225 3:72 4:143 5:229 6:78 7:579 8:695 9:527 
-1 1:142 2:229 3:73 4:145 5:230 6:78 7:579 8:695 9:527 
-1 1:142 2:225 3:71 4:143 5:228 6:78 7:579 8:695 9:527 
1 1:142 2:227 3:72 4:145 5:231 6:78 7:579 8:695 9:527 
1 1:142 2:227 3:72 4:145 5:231 6:78 7:579 8:695 9:527 
-1 1:142 2:229 3:73 4:144 5:230 6:78 7:579 8:695 9:527 
1 1:145 2:234 3:73 4:148 5:234 6:80 7:579 8:695 9:527 
1 1:135 2:227 3:59 4:138 5:227 6:67 7:568 8:683 9:509 
-1 1:134 2:216 3:59 4:134 5:222 6:65 7:568 8:683 9:509 
-1 1:135 2:220 3:59 4:135 5:222 6:65 7:568 8:683 9:509 
-1 1:135 2:220 3:59 4:135 5:223 6:65 7:568 8:683 9:509 
-1 1:135 2:220 3:59 4:135 5:223 6:66 7:568 8:683 9:509 
1 1:137 2:222 3:61 4:137 5:225 6:66 7:568 8:683 9:509 
1 1:135 2:222 3:59 4:137 5:225 6:66 7:568 8:683 9:509 
-1 1:135 2:222 3:60 4:137 5:224 6:67 7:568 8:683 9:509 
-1 1:134 2:220 3:59 4:135 5:223 6:65 7:568 8:683 9:509 
-1 1:137 2:222 3:59 4:136 5:224 6:66 7:568 8:683 9:509 
-1 1:134 2:220 3:59 4:136 5:223 6:65 7:568 8:683 9:509 
-1 1:132 2:218 3:59 4:136 5:223 6:65 7:568 8:683 9:509 
-1 1:132 2:218 3:59 4:136 5:223 6:65 7:568 8:683 9:509 
-1 1:134 2:220 3:59 4:135 5:222 6:65 7:568 8:683 9:509 
-1 1:135 2:220 3:59 4:135 5:222 6:66 7:568 8:683 9:509 
-1 1:134 2:216 3:59 4:134 5:222 6:65 7:568 8:683 9:509 
-1 1:132 2:216 3:59 4:134 5:221 6:64 7:568 8:683 9:509 
-1 1:137 2:222 3:59 4:136 5:224 6:66 7:568 8:683 9:509 
-1 1:132 2:218 3:59 4:135 5:223 6:65 7:568 8:683 9:509 
-1 1:132 2:218 3:61 4:136 5:223 6:65 7:568 8:683 9:509 
-1 1:135 2:227 3:59 4:136 5:224 6:66 7:568 8:683 9:509 
-1 1:135 2:227 3:59 4:137 5:224 6:66 7:568 8:683 9:509 
-1 1:135 2:222 3:59 4:136 5:224 6:66 7:568 8:683 9:509 
-1 1:132 2:227 3:59 4:136 5:223 6:66 7:568 8:683 9:509 
-1 1:135 2:216 3:59 4:134 5:222 6:65 7:568 8:683 9:509 
-1 1:137 2:218 3:59 4:136 5:223 6:66 7:568 8:683 9:509 
-1 1:135 2:222 3:59 4:136 5:224 6:66 7:568 8:683 9:509 
-1 1:132 2:218 3:61 4:135 5:223 6:65 7:568 8:683 9:509 
-1 1:132 2:218 3:59 4:135 5:223 6:65 7:568 8:683 9:509 
-1 1:132 2:218 3:59 4:136 5:223 6:65 7:568 8:683 9:509 
-1 1:126 2:213 3:56 4:131 5:217 6:63 7:568 8:683 9:509 
-1 1:137 2:222 3:59 4:136 5:223 6:65 7:568 8:683 9:509 
1 1:132 2:218 3:60 4:136 5:224 6:65 7:568 8:683 9:509 
-1 1:132 2:218 3:59 4:136 5:223 6:65 7:568 8:683 9:509 
-1 1:132 2:218 3:59 4:135 5:223 6:65 7:568 8:683 9:509 
1 1:135 2:220 3:59 4:135 5:222 6:65 7:569 8:683 9:510 
1 1:133 2:220 3:60 4:135 5:223 6:66 7:569 8:683 9:510 
-1 1:135 2:222 3:59 4:137 5:224 6:66 7:568 8:683 9:509 
1 1:134 2:218 3:64 4:137 5:224 6:67 7:569 8:683 9:510 
1 1:132 2:218 3:59 4:135 5:223 6:65 7:569 8:683 9:510 
-1 1:135 2:220 3:59 4:135 5:223 6:66 7:568 8:683 9:509 
-1 1:129 2:216 3:59 4:134 5:221 6:65 7:568 8:683 9:510 
-1 1:135 2:220 3:59 4:135 5:223 6:66 7:568 8:683 9:509 
-1 1:129 2:216 3:59 4:134 5:222 6:65 7:568 8:683 9:509 
-1 1:137 2:225 3:61 4:136 5:224 6:66 7:568 8:683 9:509 
-1 1:127 2:209 3:53 4:127 5:213 6:60 7:568 8:683 9:510 
1 1:135 2:220 3:59 4:136 5:224 6:66 7:569 8:683 9:510 
1 1:134 2:220 3:60 4:137 5:224 6:67 7:568 8:683 9:510 
-1 1:129 2:216 3:59 4:134 5:221 6:65 7:568 8:683 9:509 
1 1:132 2:218 3:61 4:136 5:224 6:65 7:568 8:683 9:509 
-1 1:133 2:218 3:60 4:135 5:222 6:66 7:568 8:683 9:509 
1 1:132 2:222 3:61 4:136 5:224 6:66 7:568 8:683 9:510 
1 1:135 2:220 3:59 4:137 5:224 6:66 7:569 8:683 9:509 
-1 1:135 2:220 3:59 4:135 5:222 6:65 7:568 8:683 9:510 
1 1:137 2:218 3:61 4:136 5:223 6:65 7:569 8:683 9:510 
1 1:133 2:218 3:63 4:136 5:224 6:66 7:569 8:683 9:510 
1 1:135 2:220 3:59 4:136 5:224 6:66 7:568 8:683 9:510 
-1 1:135 2:220 3:59 4:135 5:222 6:65 7:568 8:683 9:509 
-1 1:133 2:220 3:60 4:136 5:223 6:66 7:568 8:683 9:509 
-1 1:137 2:218 3:59 4:136 5:223 6:65 7:568 8:683 9:509 
-1 1:135 2:220 3:59 4:136 5:223 6:66 7:568 8:683 9:509 
-1 1:133 2:220 3:60 4:136 5:223 6:66 7:568 8:683 9:510 
-1 1:132 2:218 3:59 4:135 5:222 6:65 7:568 8:683 9:510 
1 1:132 2:218 3:59 4:136 5:224 6:65 7:568 8:683 9:510 
1 1:134 2:220 3:60 4:137 5:224 6:66 7:569 8:683 9:510 
1 1:134 2:220 3:60 4:137 5:224 6:66 7:569 8:683 9:510 
1 1:133 2:220 3:60 4:136 5:223 6:66 7:569 8:683 9:510 
1 1:135 2:222 3:59 4:137 5:225 6:66 7:569 8:683 9:510 
1 1:135 2:220 3:59 4:137 5:225 6:66 7:569 8:683 9:510 
1 1:135 2:220 3:59 4:135 5:222 6:65 7:569 8:683 9:510 
1 1:132 2:218 3:59 4:136 5:224 6:65 7:568 8:683 9:510 
-1 1:135 2:220 3:59 4:136 5:223 6:66 7:568 8:683 9:510 
1 1:135 2:220 3:59 4:136 5:224 6:66 7:569 8:683 9:510 
-1 1:133 2:220 3:60 4:136 5:223 6:66 7:568 8:683 9:510 
-1 1:133 2:220 3:60 4:136 5:223 6:66 7:568 8:683 9:510 
1 1:137 2:218 3:60 4:136 5:224 6:66 7:569 8:683 9:510 
1 1:133 2:220 3:60 4:136 5:223 6:66 7:569 8:683 9:510 
1 1:133 2:220 3:60 4:137 5:224 6:66 7:569 8:683 9:510 
1 1:135 2:220 3:59 4:136 5:223 6:66 7:569 8:683 9:510 
1 1:134 2:220 3:60 4:137 5:225 6:67 7:569 8:683 9:510 
1 1:135 2:220 3:59 4:136 5:223 6:66 7:569 8:683 9:510 
1 1:132 2:218 3:59 4:135 5:223 6:65 7:569 8:683 9:510 
1 1:127 2:217 3:46 4:127 5:219 6:55 7:558 8:671 9:490 
1 1:127 2:217 3:46 4:127 5:219 6:55 7:558 8:671 9:490 
1 1:126 2:215 3:46 4:126 5:217 6:54 7:558 8:671 9:490 
1 1:122 2:215 3:46 4:125 5:217 6:54 7:558 8:671 9:490 
1 1:127 2:216 3:47 4:126 5:218 6:55 7:558 8:671 9:490 
1 1:127 2:217 3:46 4:126 5:218 6:55 7:558 8:671 9:490 
-1 1:120 2:219 3:46 4:124 5:216 6:53 7:558 8:671 9:490 
-1 1:120 2:219 3:46 4:124 5:215 6:53 7:558 8:671 9:490 
1 1:126 2:215 3:46 4:125 5:217 6:54 7:558 8:671 9:490 
1 1:126 2:215 3:46 4:125 5:217 6:54 7:558 8:671 9:490 
-1 1:120 2:217 3:46 4:124 5:215 6:53 7:558 8:671 9:490 
1 1:120 2:217 3:46 4:125 5:216 6:53 7:558 8:671 9:490 
-1 1:123 2:219 3:45 4:125 5:216 6:54 7:558 8:671 9:490 
-1 1:126 2:217 3:46 4:125 5:216 6:54 7:558 8:671 9:490 
1 1:126 2:215 3:46 4:127 5:219 6:55 7:558 8:671 9:490 
1 1:127 2:217 3:48 4:128 5:220 6:56 7:558 8:671 9:490 
-1 1:123 2:219 3:45 4:125 5:216 6:54 7:558 8:671 9:490 
1 1:122 2:215 3:46 4:125 5:217 6:53 7:558 8:671 9:490 
1 1:123 2:217 3:46 4:125 5:217 6:54 7:558 8:671 9:490 
1 1:123 2:217 3:46 4:125 5:217 6:54 7:558 8:671 9:490 
1 1:125 2:221 3:47 4:127 5:218 6:55 7:558 8:671 9:490 
1 1:122 2:215 3:46 4:125 5:217 6:53 7:558 8:671 9:491 
1 1:122 2:215 3:46 4:125 5:217 6:54 7:558 8:671 9:490 
1 1:122 2:215 3:46 4:125 5:217 6:54 7:558 8:671 9:490 
1 1:122 2:215 3:46 4:125 5:217 6:53 7:558 8:671 9:490 
1 1:122 2:215 3:46 4:125 5:217 6:54 7:558 8:671 9:490 
1 1:122 2:217 3:46 4:125 5:217 6:54 7:558 8:671 9:490 
1 1:127 2:217 3:46 4:126 5:218 6:55 7:558 8:671 9:490 
1 1:122 2:215 3:46 4:126 5:217 6:54 7:558 8:671 9:490 
1 1:127 2:217 3:46 4:126 5:218 6:55 7:558 8:671 9:491 
1 1:122 2:217 3:46 4:125 5:216 6:53 7:558 8:671 9:491 
-1 1:115 2:206 3:46 4:118 5:208 6:50 7:558 8:671 9:490 
-1 1:120 2:217 3:46 4:124 5:215 6:53 7:558 8:671 9:490 
1 1:127 2:217 3:46 4:126 5:218 6:55 7:558 8:671 9:490 
-1 1:120 2:213 3:46 4:124 5:215 6:53 7:558 8:671 9:490 
1 1:122 2:217 3:46 4:125 5:217 6:54 7:558 8:671 9:490 
1 1:126 2:215 3:46 4:125 5:217 6:54 7:558 8:671 9:490 
1 1:126 2:219 3:46 4:125 5:217 6:54 7:558 8:671 9:491 
1 1:122 2:215 3:46 4:125 5:217 6:54 7:558 8:671 9:491 
1 1:120 2:219 3:46 4:124 5:216 6:53 7:558 8:671 9:491 
1 1:123 2:217 3:46 4:125 5:217 6:54 7:558 8:671 9:491 
1 1:126 2:215 3:46 4:125 5:217 6:54 7:558 8:671 9:491 
-1 1:120 2:219 3:46 4:123 5:215 6:53 7:558 8:671 9:491 
1 1:126 2:215 3:46 4:126 5:218 6:54 7:558 8:671 9:491 
1 1:123 2:217 3:46 4:125 5:217 6:54 7:558 8:671 9:491 
1 1:126 2:215 3:46 4:125 5:217 6:54 7:558 8:671 9:491 
-1 1:115 2:207 3:46 4:117 5:207 6:50 7:559 8:671 9:491 
1 1:126 2:215 3:46 4:125 5:218 6:54 7:558 8:671 9:491 
-1 1:120 2:217 3:46 4:124 5:215 6:53 7:558 8:671 9:491 
1 1:122 2:217 3:45 4:124 5:216 6:53 7:558 8:671 9:491 
1 1:123 2:217 3:46 4:125 5:217 6:54 7:558 8:671 9:491 
1 1:123 2:217 3:46 4:125 5:216 6:54 7:558 8:671 9:491 
1 1:122 2:215 3:46 4:125 5:217 6:53 7:558 8:671 9:491 
-1 1:118 2:210 3:46 4:120 5:210 6:51 7:558 8:671 9:491 
1 1:123 2:217 3:46 4:125 5:216 6:54 7:558 8:671 9:491 
1 1:123 2:217 3:46 4:125 5:216 6:54 7:558 8:671 9:491 
1 1:126 2:215 3:46 4:126 5:218 6:54 7:558 8:671 9:490 
1 1:123 2:216 3:47 4:125 5:217 6:54 7:558 8:671 9:490 
1 1:120 2:217 3:46 4:125 5:216 6:54 7:558 8:671 9:491 
-1 1:120 2:219 3:46 4:123 5:215 6:53 7:558 8:671 9:491 
-1 1:120 2:206 3:44 4:120 5:210 6:51 7:559 8:671 9:491 
1 1:122 2:215 3:45 4:124 5:216 6:53 7:559 8:671 9:491 
1 1:122 2:215 3:46 4:125 5:217 6:53 7:559 8:671 9:491 
1 1:122 2:215 3:46 4:125 5:217 6:53 7:558 8:671 9:491 
1 1:122 2:215 3:46 4:125 5:217 6:54 7:558 8:671 9:491 
1 1:123 2:217 3:46 4:125 5:216 6:54 7:558 8:671 9:491 
1 1:123 2:219 3:47 4:126 5:217 6:54 7:558 8:671 9:491 
1 1:126 2:215 3:46 4:127 5:219 6:55 7:558 8:671 9:491 
1 1:123 2:217 3:46 4:125 5:217 6:54 7:558 8:671 9:491 
-1 1:120 2:217 3:46 4:124 5:215 6:53 7:558 8:671 9:491 
1 1:122 2:215 3:46 4:125 5:217 6:53 7:558 8:671 9:491 
1 1:126 2:215 3:46 4:126 5:218 6:55 7:558 8:671 9:491 
-1 1:120 2:219 3:46 4:123 5:215 6:53 7:558 8:671 9:491 
1 1:123 2:217 3:46 4:126 5:217 6:54 7:559 8:671 9:491 
1 1:120 2:217 3:46 4:124 5:216 6:54 7:558 8:671 9:491 
-1 1:123 2:217 3:46 4:124 5:215 6:54 7:558 8:671 9:491 
1 1:127 2:217 3:46 4:126 5:218 6:55 7:558 8:671 9:491 
1 1:123 2:217 3:46 4:125 5:216 6:54 7:559 8:671 9:491 
1 1:126 2:215 3:46 4:125 5:217 6:54 7:559 8:671 9:491 
-1 1:112 2:207 3:38 4:115 5:208 6:44 7:545 8:656 9:473 
-1 1:113 2:201 3:36 4:115 5:207 6:44 7:545 8:656 9:473 
-1 1:108 2:196 3:36 4:109 5:199 6:41 7:545 8:656 9:473 
-1 1:112 2:202 3:38 4:115 5:208 6:44 7:545 8:656 9:473 
1 1:112 2:208 3:39 4:117 5:210 6:45 7:545 8:656 9:473 
1 1:112 2:208 3:40 4:117 5:210 6:45 7:545 8:656 9:473 
1 1:113 2:208 3:39 4:117 5:210 6:45 7:545 8:656 9:473 
-1 1:112 2:208 3:39 4:116 5:208 6:45 7:545 8:656 9:473 
-1 1:112 2:207 3:39 4:116 5:208 6:44 7:545 8:656 9:473 
-1 1:112 2:208 3:39 4:116 5:208 6:44 7:545 8:656 9:473 
-1 1:112 2:208 3:39 4:115 5:208 6:44 7:545 8:656 9:473 
-1 1:112 2:208 3:39 4:115 5:208 6:44 7:545 8:656 9:473 
-1 1:109 2:196 3:38 4:111 5:202 6:42 7:545 8:656 9:473 
-1 1:113 2:208 3:39 4:115 5:208 6:44 7:545 8:656 9:473 
1 1:112 2:208 3:40 4:117 5:210 6:45 7:545 8:656 9:473 
1 1:112 2:208 3:40 4:117 5:210 6:45 7:545 8:656 9:473 
-1 1:112 2:208 3:39 4:115 5:208 6:44 7:545 8:656 9:473 
-1 1:113 2:207 3:39 4:115 5:208 6:44 7:545 8:656 9:473 
-1 1:113 2:208 3:39 4:115 5:208 6:43 7:545 8:656 9:473 
-1 1:112 2:207 3:39 4:115 5:208 6:44 7:545 8:656 9:473 
-1 1:112 2:208 3:39 4:115 5:208 6:44 7:545 8:656 9:473 
-1 1:113 2:207 3:39 4:115 5:208 6:44 7:545 8:656 9:473 
-1 1:112 2:208 3:39 4:115 5:208 6:44 7:545 8:656 9:473 
-1 1:112 2:208 3:39 4:116 5:208 6:44 7:545 8:656 9:473 
-1 1:112 2:203 3:39 4:115 5:207 6:44 7:545 8:656 9:473 
-1 1:112 2:202 3:38 4:115 5:207 6:44 7:545 8:656 9:473 
-1 1:112 2:203 3:39 4:115 5:207 6:44 7:545 8:656 9:473 
1 1:113 2:208 3:39 4:117 5:210 6:45 7:545 8:656 9:473 
1 1:112 2:208 3:39 4:116 5:209 6:44 7:545 8:656 9:474 
-1 1:112 2:208 3:39 4:116 5:208 6:44 7:545 8:656 9:474 
-1 1:113 2:208 3:39 4:115 5:208 6:44 7:545 8:656 9:474 
1 1:112 2:207 3:39 4:116 5:209 6:44 7:546 8:657 9:474 
0.038177124474540532 1:112 2:208 3:39 4:115 5:208 6:44 7:546 8:657 9:474 
1 1:113 2:208 3:39 4:117 5:210 6:44 7:546 8:656 9:474 
1 1:112 2:207 3:39 4:116 5:209 6:44 7:545 8:656 9:474 
-1 1:107 2:201 3:36 4:111 5:203 6:42 7:545 8:656 9:474 
-1 1:112 2:208 3:39 4:116 5:208 6:44 7:545 8:656 9:474 
1 1:113 2:207 3:39 4:116 5:209 6:44 7:545 8:656 9:474 
-1 1:112 2:208 3:39 4:115 5:208 6:44 7:545 8:656 9:474 
-1 1:112 2:208 3:39 4:115 5:208 6:44 7:545 8:656 9:474 
0.76535133522176091 1:112 2:208 3:39 4:115 5:208 6:44 7:546 8:657 9:474 
0.97554404734999722 1:112 2:208 3:39 4:115 5:208 6:44 7:546 8:657 9:474 
1 1:113 2:208 3:38 4:117 5:210 6:45 7:546 8:657 9:474 
0.42827943925094575 1:112 2:208 3:39 4:115 5:208 6:44 7:546 8:657 9:474 
1 1:112 2:207 3:39 4:116 5:209 6:44 7:546 8:657 9:474 
0.99857707661528583 1:112 2:208 3:39 4:115 5:208 6:44 7:546 8:657 9:474 
1 1:113 2:208 3:39 4:116 5:209 6:44 7:546 8:657 9:474 
1 1:112 2:208 3:39 4:116 5:208 6:44 7:546 8:657 9:474 
-1 1:112 2:208 3:39 4:115 5:207 6:44 7:546 8:657 9:474 
1 1:112 2:208 3:40 4:116 5:209 6:45 7:546 8:657 9:474 
1 1:112 2:208 3:40 4:116 5:209 6:44 7:546 8:657 9:474 
1 1:112 2:208 3:39 4:116 5:209 6:44 7:546 8:657 9:474 
1 1:112 2:208 3:39 4:116 5:208 6:44 7:546 8:657 9:474 
-1 1:108 2:203 3:35 4:111 5:202 6:42 7:546 8:656 9:474 
1 1:112 2:208 3:40 4:117 5:211 6:45 7:545 8:656 9:474 
-1 1:112 2:207 3:39 4:115 5:208 6:44 7:545 8:656 9:473 
1 1:113 2:207 3:39 4:116 5:209 6:45 7:545 8:656 9:474 
1 1:113 2:207 3:39 4:116 5:209 6:44 7:545 8:656 9:474 
-1 1:113 2:203 3:36 4:114 5:207 6:43 7:546 8:657 9:474 
1 1:113 2:208 3:39 4:116 5:209 6:44 7:546 8:656 9:474 
1 1:112 2:208 3:40 4:117 5:210 6:45 7:545 8:656 9:474 
1 1:112 2:207 3:38 4:116 5:209 6:44 7:545 8:656 9:474 
-1 1:113 2:208 3:39 4:116 5:208 6:44 7:545 8:656 9:474 
-1 1:112 2:202 3:38 4:114 5:207 6:43 7:545 8:656 9:473 
1 1:113 2:208 3:39 4:116 5:209 6:44 7:545 8:656 9:474 
-1 1:113 2:207 3:39 4:115 5:208 6:44 7:545 8:656 9:474 
-1 1:112 2:207 3:38 4:115 5:207 6:44 7:545 8:656 9:474 
-1 1:112 2:208 3:39 4:115 5:208 6:44 7:545 8:656 9:474 
1 1:128 2:193 3:22 4:129 5:201 6:30 7:533 8:644 9:460 
1 1:128 2:193 3:22 4:130 5:202 6:30 7:533 8:644 9:460 
-1 1:122 2:189 3:21 4:126 5:196 6:29 7:533 8:644 9:460 
-1 1:128 2:193 3:22 4:129 5:200 6:30 7:533 8:644 9:460 
1 1:121 2:193 3:21 4:128 5:200 6:29 7:533 8:644 9:460 
-1 1:128 2:195 3:21 4:129 5:200 6:29 7:533 8:644 9:460 
-1 1:129 2:193 3:21 4:129 5:200 6:30 7:533 8:644 9:460 
1 1:128 2:193 3:22 4:129 5:201 6:30 7:533 8:644 9:460 
-1 1:128 2:193 3:22 4:129 5:200 6:30 7:533 8:644 9:460 
-1 1:128 2:193 3:22 4:129 5:200 6:30 7:533 8:644 9:460 
1 1:128 2:193 3:22 4:128 5:200 6:29 7:534 8:644 9:460 
1 1:128 2:195 3:21 4:129 5:200 6:29 7:534 8:644 9:460 
1 1:128 2:193 3:22 4:130 5:201 6:30 7:534 8:645 9:460 
1 1:129 2:196 3:21 4:130 5:202 6:30 7:534 8:645 9:460 
1 1:128 2:195 3:22 4:131 5:202 6:31 7:534 8:645 9:460 
1 1:128 2:193 3:24 4:128 5:199 6:29 7:534 8:644 9:460 
-1 1:129 2:193 3:20 4:128 5:199 6:29 7:533 8:644 9:460 
1 1:128 2:200 3:22 4:130 5:202 6:30 7:533 8:643 9:460 
-1 1:128 2:193 3:22 4:129 5:200 6:30 7:533 8:644 9:460 
1 1:128 2:195 3:21 4:128 5:200 6:29 7:534 8:644 9:460 
1 1:128 2:195 3:21 4:128 5:199 6:29 7:534 8:644 9:460 
1 1:123 2:202 3:21 4:129 5:200 6:30 7:534 8:644 9:460 
-1 1:121 2:193 3:27 4:128 5:199 6:29 7:533 8:644 9:460 
1 1:128 2:193 3:21 4:129 5:200 6:30 7:534 8:644 9:460 
1 1:128 2:195 3:21 4:129 5:200 6:29 7:534 8:644 9:460 
1 1:128 2:198 3:22 4:130 5:201 6:30 7:534 8:644 9:460 
1 1:128 2:195 3:27 4:129 5:201 6:30 7:534 8:644 9:460 
1 1:128 2:195 3:21 4:129 5:201 6:30 7:534 8:644 9:460 
1 1:128 2:195 3:21 4:128 5:200 6:29 7:534 8:644 9:460 
1 1:121 2:193 3:27 4:128 5:200 6:30 7:534 8:644 9:460 
1 1:128 2:195 3:21 4:129 5:200 6:29 7:534 8:644 9:460 
-1 1:128 2:193 3:21 4:128 5:199 6:29 7:533 8:644 9:460 
-1 1:121 2:191 3:21 4:124 5:193 6:27 7:533 8:644 9:460 
-1 1:129 2:193 3:24 4:129 5:200 6:30 7:533 8:644 9:460 
-1 1:129 2:193 3:20 4:129 5:200 6:30 7:533 8:644 9:460 
-1 1:123 2:193 3:27 4:128 5:200 6:29 7:533 8:644 9:460 
-1 1:128 2:195 3:27 4:129 5:200 6:29 7:533 8:644 9:460 
1 1:128 2:195 3:27 4:129 5:200 6:30 7:534 8:644 9:460 
0.97346171806676862 1:129 2:196 3:24 4:128 5:199 6:30 7:534 8:644 9:460 
1 1:128 2:193 3:22 4:129 5:200 6:30 7:534 8:644 9:460 
1 1:128 2:195 3:21 4:129 5:200 6:29 7:534 8:644 9:460 
1 1:128 2:193 3:21 4:128 5:200 6:30 7:534 8:644 9:460 
1 1:128 2:202 3:21 4:128 5:200 6:29 7:534 8:644 9:460 
1 1:128 2:193 3:21 4:128 5:199 6:29 7:534 8:644 9:460 
1 1:128 2:200 3:22 4:130 5:202 6:30 7:534 8:644 9:460 
1 1:121 2:193 3:22 4:128 5:199 6:29 7:534 8:644 9:460 
-1 1:121 2:193 3:24 4:123 5:192 6:26 7:534 8:645 9:460 
1 1:128 2:195 3:21 4:129 5:200 6:29 7:534 8:644 9:460 
1 1:128 2:193 3:22 4:129 5:201 6:30 7:534 8:645 9:460 
0.46116206351982914 1:121 2:193 3:21 4:128 5:199 6:29 7:534 8:645 9:460 
1 1:129 2:193 3:20 4:129 5:200 6:30 7:534 8:645 9:460 
1 1:129 2:193 3:24 4:128 5:200 6:30 7:534 8:644 9:460 
-1 1:121 2:193 3:21 4:127 5:198 6:29 7:534 8:645 9:460 
-1 1:121 2:184 3:25 4:123 5:192 6:27 7:534 8:645 9:460 
-1 1:128 2:193 3:22 4:128 5:199 6:30 7:534 8:645 9:460 
1 1:128 2:193 3:22 4:130 5:201 6:30 7:534 8:645 9:460 
1 1:121 2:193 3:20 4:128 5:200 6:30 7:534 8:645 9:460 
1 1:123 2:195 3:27 4:129 5:200 6:29 7:534 8:645 9:460 
-1 1:121 2:193 3:21 4:127 5:198 6:29 7:534 8:645 9:460 
-1 1:121 2:189 3:20 4:124 5:195 6:27 7:534 8:645 9:460 
1 1:128 2:193 3:22 4:129 5:200 6:30 7:534 8:645 9:460 
1 1:121 2:193 3:21 4:128 5:199 6:29 7:534 8:645 9:461 
-1 1:128 2:193 3:21 4:128 5:199 6:29 7:534 8:645 9:460 
1 1:121 2:193 3:21 4:128 5:199 6:29 7:534 8:645 9:461 
1 1:121 2:193 3:21 4:128 5:199 6:29 7:534 8:645 9:461 
1 1:128 2:193 3:22 4:129 5:201 6:30 7:534 8:645 9:461 
1 1:128 2:195 3:21 4:129 5:200 6:29 7:534 8:645 9:461 
1 1:129 2:193 3:20 4:129 5:200 6:30 7:534 8:645 9:461 
-1 1:128 2:193 3:21 4:128 5:199 6:29 7:534 8:645 9:461 
1 1:128 2:195 3:21 4:129 5:201 6:30 7:534 8:645 9:461 
1 1:128 2:193 3:22 4:130 5:201 6:30 7:534 8:645 9:461 
-1 1:128 2:193 3:21 4:128 5:199 6:29 7:534 8:645 9:461 
-1 1:128 2:202 3:21 4:129 5:200 6:30 7:534 8:645 9:461 
1 1:128 2:195 3:21 4:128 5:200 6:29 7:534 8:645 9:461 
1 1:128 2:193 3:21 4:128 5:200 6:29 7:534 8:645 9:461 
-1 1:128 2:193 3:21 4:128 5:199 6:29 7:534 8:645 9:461 
-1 1:128 2:195 3:21 4:128 5:199 6:29 7:534 8:645 9:461 
1 1:128 2:193 3:22 4:128 5:200 6:29 7:534 8:645 9:461 
1 1:128 2:193 3:21 4:129 5:200 6:29 7:534 8:645 9:461 
1 1:128 2:195 3:21 4:129 5:200 6:30 7:534 8:645 9:461 
1 1:128 2:195 3:21 4:129 5:200 6:29 7:534 8:645 9:461 
1 1:128 2:195 3:21 4:129 5:200 6:29 7:534 8:645 9:461 
1 1:128 2:193 3:22 4:128 5:200 6:30 7:534 8:645 9:461 
