svm_type epsilon_svr
kernel_type linear
nr_class 2
total_sv 1013
rho -42.346620366387839
SV
-1 1:242 2:255 3:255 4:236 5:254 6:254 7:646 8:775 9:677 
1 1:237 2:255 3:255 4:236 5:254 6:254 7:646 8:775 9:677 
-1 1:242 2:255 3:255 4:237 5:254 6:254 7:646 8:775 9:677 
1 1:237 2:255 3:255 4:235 5:254 6:254 7:646 8:775 9:677 
-1 1:242 2:255 3:255 4:235 5:254 6:254 7:646 8:775 9:677 
-1 1:242 2:255 3:255 4:235 5:254 6:254 7:646 8:775 9:677 
1 1:237 2:255 3:255 4:232 5:254 6:254 7:646 8:775 9:677 
-1 1:240 2:255 3:255 4:238 5:254 6:254 7:646 8:775 9:677 
1 1:237 2:255 3:255 4:235 5:254 6:254 7:646 8:775 9:677 
1 1:237 2:255 3:255 4:234 5:254 6:254 7:646 8:775 9:677 
-1 1:242 2:255 3:255 4:239 5:254 6:254 7:646 8:775 9:677 
1 1:237 2:255 3:255 4:234 5:254 6:254 7:646 8:775 9:677 
-1 1:242 2:255 3:255 4:238 5:254 6:254 7:646 8:775 9:677 
1 1:237 2:255 3:255 4:235 5:254 6:254 7:646 8:775 9:677 
-1 1:240 2:255 3:255 4:236 5:254 6:254 7:646 8:775 9:677 
1 1:236 2:255 3:255 4:233 5:254 6:254 7:646 8:775 9:677 
1 1:237 2:255 3:255 4:235 5:254 6:254 7:646 8:775 9:677 
1 1:237 2:255 3:255 4:234 5:254 6:254 7:646 8:775 9:677 
-1 1:239 2:255 3:255 4:236 5:254 6:254 7:646 8:775 9:677 
1 1:237 2:255 3:255 4:235 5:254 6:254 7:646 8:775 9:677 
1 1:237 2:255 3:255 4:235 5:254 6:254 7:646 8:775 9:677 
1 1:237 2:255 3:255 4:235 5:254 6:254 7:646 8:775 9:677 
1 1:237 2:255 3:255 4:234 5:254 6:254 7:646 8:775 9:677 
1 1:237 2:255 3:255 4:234 5:254 6:254 7:646 8:775 9:677 
1 1:237 2:255 3:255 4:235 5:254 6:254 7:646 8:775 9:677 
1 1:237 2:255 3:255 4:235 5:254 6:254 7:646 8:775 9:677 
-1 1:239 2:255 3:255 4:236 5:254 6:254 7:646 8:775 9:677 
-1 1:242 2:255 3:255 4:238 5:254 6:254 7:646 8:775 9:677 
-1 1:239 2:255 3:255 4:236 5:254 6:254 7:646 8:775 9:677 
1 1:237 2:255 3:255 4:235 5:254 6:254 7:646 8:775 9:677 
1 1:237 2:255 3:255 4:234 5:254 6:254 7:646 8:775 9:677 
-1 1:239 2:255 3:255 4:235 5:254 6:254 7:647 8:775 9:677 
1 1:237 2:255 3:255 4:235 5:254 6:254 7:646 8:775 9:677 
1 1:229 2:255 3:255 4:230 5:254 6:254 7:646 8:775 9:677 
1 1:237 2:255 3:255 4:235 5:254 6:254 7:646 8:775 9:677 
1 1:237 2:255 3:255 4:235 5:254 6:254 7:646 8:775 9:677 
1 1:237 2:255 3:255 4:235 5:254 6:254 7:646 8:775 9:677 
1 1:237 2:255 3:255 4:234 5:254 6:254 7:646 8:775 9:677 
1 1:237 2:255 3:255 4:234 5:254 6:254 7:646 8:775 9:677 
1 1:237 2:255 3:255 4:235 5:254 6:254 7:646 8:775 9:677 
-1 1:240 2:255 3:255 4:236 5:254 6:254 7:646 8:775 9:677 
1 1:223 2:255 3:255 4:226 5:253 6:254 7:646 8:775 9:677 
1 1:237 2:255 3:255 4:233 5:254 6:254 7:647 8:775 9:677 
0.45959479086453231 1:237 2:255 3:255 4:235 5:254 6:254 7:647 8:775 9:677 
1 1:236 2:255 3:255 4:234 5:254 6:254 7:647 8:775 9:677 
1 1:237 2:255 3:255 4:234 5:254 6:254 7:647 8:775 9:677 
1 1:237 2:255 3:255 4:234 5:254 6:254 7:647 8:775 9:677 
-1 1:239 2:255 3:255 4:235 5:254 6:254 7:647 8:775 9:677 
-1 1:242 2:255 3:255 4:236 5:254 6:254 7:646 8:775 9:677 
1 1:237 2:255 3:255 4:233 5:254 6:254 7:646 8:775 9:677 
-1 1:239 2:255 3:255 4:236 5:254 6:254 7:647 8:775 9:677 
-1 1:239 2:255 3:255 4:234 5:254 6:254 7:647 8:775 9:677 
-1 1:239 2:255 3:255 4:236 5:254 6:254 7:646 8:775 9:677 
-1 1:239 2:255 3:255 4:235 5:254 6:254 7:647 8:775 9:677 
0.062648721575610924 1:237 2:255 3:255 4:235 5:254 6:254 7:647 8:775 9:677 
0.97379171276710375 1:237 2:255 3:255 4:235 5:254 6:254 7:647 8:775 9:677 
1 1:239 2:255 3:255 4:233 5:254 6:254 7:646 8:775 9:677 
-1 1:240 2:255 3:255 4:235 5:254 6:254 7:647 8:775 9:677 
-1 1:239 2:255 3:255 4:237 5:254 6:254 7:647 8:775 9:677 
-1 1:239 2:255 3:255 4:234 5:254 6:254 7:647 8:775 9:677 
1 1:237 2:255 3:255 4:234 5:254 6:254 7:647 8:775 9:677 
-1 1:242 2:255 3:255 4:236 5:254 6:254 7:647 8:775 9:677 
0.99717300971863043 1:237 2:255 3:255 4:235 5:254 6:254 7:647 8:775 9:677 
1 1:237 2:255 3:255 4:234 5:254 6:254 7:647 8:775 9:677 
1 1:237 2:255 3:255 4:233 5:254 6:254 7:647 8:775 9:677 
1 1:233 2:255 3:255 4:232 5:254 6:254 7:647 8:775 9:677 
-1 1:240 2:255 3:255 4:236 5:254 6:254 7:647 8:775 9:677 
-1 1:240 2:255 3:255 4:235 5:254 6:254 7:647 8:775 9:677 
-1 1:239 2:255 3:255 4:236 5:254 6:254 7:647 8:775 9:677 
-1 1:242 2:255 3:255 4:236 5:254 6:254 7:647 8:775 9:677 
-1 1:239 2:255 3:255 4:235 5:254 6:254 7:647 8:775 9:677 
1 1:236 2:255 3:255 4:234 5:254 6:254 7:647 8:775 9:677 
1 1:237 2:255 3:255 4:234 5:254 6:254 7:647 8:775 9:677 
-1 1:239 2:255 3:255 4:233 5:254 6:254 7:647 8:775 9:677 
-1 1:239 2:255 3:255 4:233 5:254 6:254 7:647 8:775 9:677 
1 1:237 2:255 3:255 4:234 5:254 6:254 7:647 8:775 9:677 
1 1:237 2:255 3:255 4:234 5:254 6:254 7:646 8:775 9:677 
1 1:237 2:255 3:255 4:234 5:254 6:254 7:647 8:775 9:677 
0.97772091927074356 1:237 2:255 3:255 4:235 5:254 6:254 7:647 8:775 9:677 
0.99998434260299218 1:237 2:255 3:255 4:235 5:254 6:254 7:647 8:775 9:677 
-1 1:239 2:255 3:255 4:235 5:254 6:254 7:647 8:775 9:677 
-1 1:239 2:255 3:255 4:234 5:254 6:254 7:647 8:775 9:677 
1 1:237 2:255 3:255 4:234 5:254 6:254 7:647 8:775 9:677 
0.96261468857851273 1:237 2:255 3:255 4:235 5:254 6:254 7:647 8:775 9:677 
-1 1:242 2:255 3:255 4:235 5:254 6:254 7:647 8:775 9:677 
1 1:236 2:255 3:255 4:233 5:254 6:254 7:647 8:775 9:677 
-1 1:239 2:255 3:255 4:234 5:254 6:254 7:647 8:775 9:677 
0.56277211454224352 1:237 2:255 3:255 4:235 5:254 6:254 7:647 8:775 9:677 
0.16762499215139756 1:237 2:255 3:255 4:235 5:254 6:254 7:647 8:775 9:677 
1 1:237 2:255 3:255 4:234 5:254 6:254 7:647 8:775 9:677 
1 1:255 2:255 3:255 4:251 5:254 6:251 7:641 8:767 9:666 
1 1:255 2:255 3:255 4:251 5:254 6:251 7:641 8:767 9:666 
-1 1:255 2:255 3:255 4:250 5:254 6:250 7:641 8:767 9:666 
1 1:255 2:255 3:255 4:251 5:254 6:251 7:641 8:767 9:666 
1 1:255 2:255 3:255 4:251 5:254 6:251 7:641 8:767 9:666 
1 1:255 2:255 3:255 4:251 5:254 6:251 7:641 8:767 9:666 
1 1:255 2:255 3:255 4:251 5:254 6:251 7:641 8:767 9:666 
1 1:255 2:255 3:255 4:251 5:254 6:251 7:641 8:767 9:666 
1 1:255 2:255 3:255 4:251 5:254 6:251 7:641 8:767 9:666 
1 1:255 2:255 3:255 4:251 5:254 6:251 7:641 8:767 9:666 
-1 1:255 2:255 3:255 4:246 5:253 6:246 7:641 8:767 9:666 
1 1:255 2:255 3:255 4:251 5:254 6:251 7:641 8:767 9:666 
1 1:255 2:255 3:255 4:253 5:254 6:253 7:641 8:767 9:666 
1 1:255 2:255 3:255 4:252 5:254 6:252 7:641 8:767 9:666 
1 1:255 2:255 3:255 4:251 5:254 6:251 7:641 8:767 9:666 
1 1:255 2:255 3:255 4:251 5:254 6:251 7:641 8:767 9:666 
-1 1:255 2:255 3:255 4:250 5:254 6:250 7:641 8:767 9:666 
-1 1:255 2:255 3:255 4:249 5:254 6:249 7:641 8:767 9:666 
1 1:255 2:255 3:255 4:251 5:254 6:251 7:641 8:767 9:666 
1 1:255 2:255 3:255 4:251 5:254 6:251 7:641 8:767 9:666 
-1 1:255 2:255 3:255 4:251 5:254 6:250 7:641 8:767 9:666 
-1 1:255 2:255 3:255 4:250 5:254 6:250 7:641 8:767 9:666 
1 1:255 2:255 3:255 4:251 5:254 6:251 7:641 8:767 9:666 
1 1:255 2:255 3:255 4:252 5:254 6:252 7:641 8:767 9:666 
1 1:255 2:255 3:255 4:251 5:254 6:251 7:641 8:767 9:666 
1 1:255 2:255 3:255 4:251 5:254 6:251 7:641 8:767 9:666 
-1 1:255 2:255 3:255 4:250 5:254 6:250 7:641 8:767 9:666 
1 1:255 2:255 3:255 4:251 5:254 6:251 7:641 8:767 9:666 
1 1:255 2:255 3:255 4:251 5:254 6:251 7:641 8:767 9:666 
1 1:255 2:255 3:255 4:251 5:254 6:251 7:641 8:767 9:666 
1 1:255 2:255 3:255 4:251 5:254 6:251 7:641 8:767 9:666 
1 1:255 2:255 3:255 4:251 5:254 6:251 7:641 8:767 9:666 
-1 1:255 2:255 3:255 4:250 5:254 6:250 7:641 8:767 9:666 
1 1:255 2:255 3:255 4:251 5:254 6:251 7:641 8:767 9:666 
1 1:255 2:255 3:255 4:251 5:254 6:251 7:641 8:767 9:666 
1 1:255 2:255 3:255 4:251 5:254 6:251 7:641 8:767 9:666 
1 1:255 2:255 3:255 4:251 5:254 6:251 7:641 8:767 9:666 
-1 1:255 2:255 3:255 4:250 5:254 6:250 7:641 8:767 9:666 
-1 1:255 2:255 3:255 4:250 5:254 6:250 7:641 8:767 9:666 
-1 1:255 2:255 3:255 4:249 5:254 6:249 7:641 8:767 9:666 
1 1:255 2:255 3:255 4:251 5:254 6:251 7:641 8:767 9:666 
1 1:255 2:255 3:255 4:251 5:254 6:251 7:641 8:767 9:666 
1 1:255 2:255 3:255 4:251 5:254 6:251 7:641 8:767 9:666 
-1 1:255 2:255 3:255 4:250 5:254 6:250 7:641 8:767 9:666 
-0.60369657693826917 1:255 2:255 3:255 4:251 5:254 6:251 7:642 8:767 9:666 
1 1:255 2:255 3:255 4:252 5:254 6:252 7:642 8:767 9:666 
-0.87014245750957142 1:255 2:255 3:255 4:251 5:254 6:251 7:642 8:767 9:666 
1 1:255 2:255 3:255 4:251 5:254 6:251 7:641 8:767 9:666 
-0.63560037770112254 1:255 2:255 3:255 4:251 5:254 6:251 7:642 8:767 9:666 
-1 1:255 2:255 3:255 4:250 5:254 6:250 7:642 8:767 9:666 
1 1:255 2:255 3:255 4:251 5:254 6:251 7:642 8:768 9:666 
-1 1:255 2:255 3:255 4:250 5:254 6:250 7:642 8:767 9:666 
-1 1:255 2:255 3:255 4:250 5:254 6:250 7:642 8:767 9:666 
-0.65697175052916801 1:255 2:255 3:255 4:251 5:254 6:251 7:642 8:767 9:666 
-1 1:255 2:255 3:255 4:250 5:254 6:250 7:641 8:767 9:666 
-1 1:255 2:255 3:255 4:251 5:254 6:250 7:642 8:767 9:666 
-0.057700214226045293 1:255 2:255 3:255 4:251 5:254 6:251 7:642 8:767 9:666 
1 1:255 2:255 3:255 4:251 5:254 6:251 7:642 8:768 9:666 
1 1:255 2:255 3:255 4:252 5:254 6:251 7:642 8:768 9:666 
1 1:255 2:255 3:255 4:251 5:254 6:251 7:642 8:768 9:666 
-0.39095742596891181 1:255 2:255 3:255 4:250 5:254 6:250 7:642 8:768 9:666 
-1 1:255 2:255 3:255 4:251 5:254 6:250 7:642 8:768 9:666 
-1 1:255 2:255 3:255 4:250 5:254 6:250 7:642 8:768 9:666 
1 1:255 2:255 3:255 4:251 5:254 6:251 7:642 8:768 9:666 
-1 1:255 2:255 3:255 4:249 5:254 6:249 7:642 8:768 9:666 
1 1:255 2:255 3:255 4:251 5:254 6:251 7:642 8:768 9:666 
1 1:255 2:255 3:255 4:251 5:254 6:251 7:642 8:768 9:666 
-1 1:255 2:255 3:255 4:250 5:254 6:250 7:642 8:768 9:666 
-1 1:255 2:255 3:255 4:250 5:254 6:250 7:642 8:768 9:666 
1 1:255 2:255 3:255 4:251 5:254 6:251 7:642 8:768 9:666 
-1 1:249 2:255 3:247 4:247 5:253 6:246 7:642 8:768 9:666 
1 1:255 2:255 3:255 4:251 5:254 6:251 7:642 8:768 9:666 
1 1:255 2:255 3:255 4:252 5:254 6:252 7:642 8:768 9:666 
-1 1:255 2:255 3:255 4:250 5:254 6:250 7:642 8:768 9:666 
-1 1:255 2:255 3:255 4:251 5:254 6:250 7:642 8:768 9:666 
1 1:255 2:255 3:255 4:251 5:254 6:251 7:642 8:768 9:666 
1 1:255 2:255 3:255 4:251 5:254 6:251 7:642 8:768 9:666 
1 1:255 2:255 3:255 4:251 5:254 6:251 7:642 8:768 9:666 
1 1:255 2:255 3:255 4:251 5:254 6:251 7:642 8:768 9:666 
1 1:255 2:255 3:255 4:251 5:254 6:251 7:642 8:768 9:666 
1 1:255 2:255 3:255 4:251 5:254 6:251 7:642 8:768 9:666 
1 1:255 2:255 3:255 4:251 5:254 6:251 7:642 8:768 9:666 
1 1:255 2:255 3:255 4:252 5:254 6:252 7:642 8:768 9:666 
-0.92752920122232896 1:255 2:255 3:255 4:250 5:254 6:250 7:642 8:768 9:666 
-0.79414494807433789 1:255 2:255 3:255 4:250 5:254 6:250 7:642 8:768 9:666 
-0.99865424886805665 1:255 2:255 3:255 4:250 5:254 6:250 7:642 8:768 9:666 
-1 1:255 2:255 3:255 4:250 5:254 6:250 7:642 8:767 9:666 
1 1:255 2:255 3:255 4:251 5:254 6:251 7:642 8:768 9:666 
1 1:255 2:255 3:255 4:251 5:254 6:251 7:642 8:768 9:666 
1 1:255 2:255 3:255 4:251 5:254 6:251 7:642 8:768 9:666 
1 1:255 2:255 3:255 4:251 5:254 6:251 7:642 8:768 9:666 
1 1:255 2:255 3:255 4:251 5:254 6:251 7:642 8:768 9:666 
-0.032668904104843098 1:235 2:255 3:233 4:239 5:249 6:236 7:641 8:766 9:664 
-1 1:242 2:255 3:240 4:241 5:250 6:238 7:641 8:766 9:664 
-1 1:244 2:255 3:233 4:240 5:250 6:237 7:641 8:766 9:664 
1 1:243 2:255 3:240 4:243 5:251 6:240 7:641 8:766 9:664 
-1 1:240 2:255 3:240 4:241 5:250 6:238 7:641 8:766 9:664 
-1 1:240 2:255 3:240 4:240 5:250 6:237 7:641 8:766 9:664 
1 1:243 2:255 3:240 4:243 5:251 6:240 7:641 8:766 9:664 
-1 1:240 2:255 3:240 4:240 5:249 6:237 7:641 8:766 9:664 
-1 1:240 2:255 3:240 4:241 5:250 6:238 7:641 8:766 9:664 
-1 1:243 2:255 3:240 4:242 5:251 6:239 7:641 8:766 9:664 
-1 1:242 2:255 3:233 4:240 5:249 6:237 7:641 8:766 9:664 
-1 1:240 2:255 3:236 4:240 5:249 6:237 7:641 8:766 9:664 
-1 1:240 2:255 3:236 4:239 5:249 6:236 7:641 8:766 9:664 
-1 1:243 2:255 3:240 4:241 5:250 6:238 7:641 8:766 9:664 
-1 1:240 2:255 3:236 4:239 5:249 6:236 7:641 8:766 9:664 
-1 1:243 2:255 3:240 4:242 5:251 6:239 7:641 8:766 9:664 
1 1:243 2:255 3:240 4:242 5:251 6:240 7:641 8:766 9:664 
-1 1:240 2:255 3:236 4:240 5:249 6:236 7:641 8:766 9:664 
-1 1:241 2:255 3:233 4:239 5:249 6:236 7:641 8:766 9:664 
-1 1:237 2:255 3:234 4:238 5:248 6:235 7:641 8:766 9:664 
-1 1:241 2:255 3:233 4:240 5:249 6:237 7:641 8:766 9:664 
-1 1:240 2:255 3:236 4:240 5:249 6:236 7:641 8:766 9:664 
-1 1:243 2:255 3:240 4:241 5:250 6:238 7:641 8:766 9:664 
1 1:235 2:255 3:233 4:239 5:248 6:236 7:641 8:766 9:664 
-1 1:236 2:255 3:238 4:239 5:248 6:235 7:641 8:766 9:664 
1 1:235 2:255 3:233 4:239 5:248 6:236 7:641 8:766 9:664 
-1 1:244 2:255 3:241 4:242 5:251 6:239 7:641 8:766 9:664 
-1 1:236 2:255 3:238 4:239 5:248 6:235 7:641 8:766 9:664 
-1 1:240 2:255 3:233 4:239 5:249 6:236 7:641 8:766 9:664 
-1 1:239 2:255 3:233 4:240 5:249 6:236 7:641 8:766 9:664 
-1 1:241 2:255 3:233 4:240 5:249 6:237 7:641 8:766 9:664 
-1 1:242 2:255 3:240 4:240 5:249 6:237 7:641 8:766 9:664 
-1 1:240 2:255 3:236 4:239 5:249 6:236 7:641 8:766 9:664 
-1 1:240 2:255 3:240 4:240 5:249 6:237 7:641 8:766 9:664 
-1 1:236 2:255 3:236 4:239 5:249 6:236 7:641 8:766 9:664 
-1 1:244 2:255 3:241 4:242 5:251 6:239 7:641 8:766 9:664 
-1 1:242 2:255 3:240 4:241 5:250 6:238 7:641 8:766 9:664 
-1 1:236 2:255 3:238 4:239 5:249 6:236 7:641 8:766 9:664 
-1 1:240 2:255 3:236 4:240 5:249 6:237 7:641 8:766 9:664 
-1 1:235 2:255 3:233 4:239 5:248 6:235 7:641 8:766 9:664 
-1 1:240 2:255 3:236 4:239 5:248 6:236 7:641 8:766 9:664 
-1 1:240 2:255 3:236 4:239 5:248 6:235 7:641 8:766 9:664 
-1 1:235 2:255 3:233 4:239 5:248 6:235 7:641 8:766 9:664 
-1 1:240 2:255 3:236 4:239 5:249 6:236 7:641 8:766 9:664 
-1 1:240 2:255 3:236 4:239 5:249 6:236 7:641 8:766 9:664 
-1 1:244 2:255 3:233 4:240 5:250 6:237 7:641 8:766 9:664 
-1 1:244 2:255 3:241 4:241 5:250 6:238 7:641 8:766 9:664 
-1 1:242 2:255 3:233 4:240 5:249 6:236 7:641 8:766 9:664 
-1 1:244 2:255 3:233 4:240 5:250 6:237 7:641 8:766 9:664 
-1 1:236 2:255 3:238 4:238 5:248 6:235 7:641 8:766 9:664 
-1 1:239 2:255 3:233 4:239 5:249 6:236 7:641 8:766 9:664 
-1 1:239 2:255 3:233 4:239 5:249 6:236 7:641 8:766 9:664 
-1 1:241 2:255 3:233 4:240 5:249 6:237 7:641 8:766 9:664 
-1 1:243 2:255 3:240 4:240 5:249 6:237 7:641 8:766 9:664 
1 1:235 2:255 3:233 4:239 5:248 6:236 7:641 8:766 9:664 
-1 1:240 2:255 3:236 4:239 5:249 6:236 7:641 8:766 9:664 
-0.22443233663297024 1:235 2:255 3:233 4:239 5:249 6:236 7:641 8:766 9:664 
1 1:235 2:255 3:233 4:239 5:248 6:236 7:641 8:766 9:664 
1 1:235 2:255 3:233 4:239 5:248 6:236 7:641 8:766 9:664 
1 1:235 2:255 3:233 4:239 5:248 6:236 7:641 8:766 9:664 
-1 1:242 2:255 3:238 4:240 5:250 6:237 7:641 8:766 9:664 
1 1:239 2:255 3:233 4:240 5:249 6:237 7:641 8:766 9:664 
-1 1:239 2:255 3:240 4:240 5:250 6:237 7:641 8:766 9:664 
-1 1:235 2:255 3:233 4:238 5:247 6:234 7:641 8:766 9:664 
-1 1:235 2:255 3:233 4:238 5:248 6:235 7:641 8:766 9:664 
-1 1:242 2:255 3:240 4:240 5:249 6:237 7:641 8:766 9:664 
-1 1:235 2:255 3:233 4:238 5:248 6:235 7:641 8:766 9:664 
-1 1:235 2:255 3:233 4:238 5:248 6:235 7:641 8:766 9:664 
-1 1:242 2:255 3:240 4:241 5:250 6:238 7:641 8:766 9:664 
-1 1:235 2:255 3:233 4:238 5:248 6:235 7:641 8:766 9:664 
-1 1:240 2:255 3:236 4:240 5:249 6:237 7:641 8:766 9:664 
-1 1:240 2:255 3:236 4:240 5:249 6:237 7:641 8:766 9:664 
-1 1:239 2:255 3:233 4:239 5:249 6:236 7:641 8:766 9:664 
-1 1:235 2:255 3:233 4:239 5:248 6:235 7:641 8:766 9:664 
-1 1:239 2:255 3:233 4:239 5:249 6:236 7:641 8:766 9:664 
-1 1:235 2:255 3:233 4:238 5:248 6:235 7:641 8:766 9:664 
-0.15868011995094122 1:235 2:255 3:233 4:239 5:249 6:236 7:641 8:766 9:664 
-1 1:242 2:255 3:238 4:240 5:250 6:237 7:641 8:766 9:664 
-1 1:240 2:255 3:236 4:240 5:249 6:237 7:641 8:766 9:664 
-1 1:239 2:255 3:233 4:239 5:249 6:236 7:641 8:766 9:664 
-1 1:244 2:255 3:241 4:241 5:250 6:237 7:641 8:766 9:664 
-1 1:240 2:255 3:233 4:238 5:248 6:235 7:641 8:766 9:664 
-1 1:235 2:255 3:233 4:238 5:248 6:235 7:641 8:766 9:664 
-1 1:239 2:255 3:233 4:240 5:249 6:236 7:641 8:766 9:664 
-1 1:243 2:255 3:240 4:241 5:250 6:238 7:641 8:766 9:664 
-1 1:240 2:255 3:236 4:240 5:249 6:236 7:641 8:766 9:664 
-1 1:242 2:255 3:240 4:240 5:250 6:237 7:641 8:766 9:664 
-1 1:244 2:255 3:241 4:241 5:250 6:238 7:641 8:766 9:664 
-1 1:240 2:255 3:236 4:240 5:249 6:237 7:641 8:766 9:664 
-0.38423445669093603 1:235 2:255 3:233 4:239 5:249 6:236 7:641 8:766 9:664 
-1 1:241 2:255 3:233 4:239 5:249 6:236 7:641 8:766 9:664 
-1 1:240 2:255 3:240 4:240 5:250 6:237 7:641 8:766 9:664 
-1 1:242 2:255 3:236 4:240 5:249 6:237 7:641 8:766 9:664 
-1 1:240 2:255 3:236 4:240 5:249 6:237 7:641 8:766 9:664 
-1 1:232 2:243 3:222 4:230 5:241 6:225 7:641 8:766 9:667 
-1 1:232 2:240 3:222 4:230 5:240 6:225 7:641 8:766 9:667 
-1 1:226 2:240 3:222 4:229 5:239 6:224 7:641 8:766 9:667 
-1 1:232 2:240 3:222 4:229 5:239 6:224 7:641 8:766 9:667 
-1 1:233 2:241 3:224 4:231 5:241 6:226 7:641 8:766 9:667 
-1 1:229 2:241 3:224 4:230 5:241 6:225 7:641 8:766 9:667 
-1 1:233 2:241 3:224 4:232 5:242 6:227 7:641 8:766 9:667 
-1 1:226 2:234 3:222 4:227 5:238 6:222 7:641 8:766 9:667 
-1 1:226 2:238 3:222 4:228 5:239 6:223 7:641 8:766 9:667 
-1 1:232 2:240 3:222 4:229 5:239 6:224 7:641 8:766 9:667 
-1 1:229 2:238 3:222 4:230 5:240 6:225 7:641 8:766 9:667 
-1 1:228 2:241 3:225 4:230 5:241 6:225 7:641 8:766 9:667 
-1 1:229 2:240 3:222 4:229 5:239 6:224 7:641 8:767 9:667 
-1 1:226 2:238 3:222 4:229 5:239 6:223 7:641 8:767 9:667 
-1 1:228 2:241 3:225 4:229 5:239 6:224 7:641 8:767 9:667 
-1 1:228 2:241 3:225 4:230 5:240 6:225 7:641 8:767 9:667 
1 1:226 2:240 3:222 4:229 5:239 6:224 7:641 8:767 9:667 
-1 1:232 2:240 3:222 4:229 5:239 6:224 7:641 8:767 9:667 
-1 1:228 2:241 3:225 4:229 5:239 6:224 7:641 8:767 9:667 
-1 1:228 2:241 3:225 4:230 5:240 6:225 7:641 8:767 9:667 
-1 1:229 2:238 3:224 4:229 5:239 6:224 7:641 8:767 9:667 
-1 1:228 2:241 3:225 4:230 5:240 6:224 7:641 8:767 9:667 
-1 1:232 2:240 3:222 4:229 5:239 6:224 7:642 8:767 9:667 
1 1:229 2:243 3:224 4:231 5:241 6:226 7:641 8:767 9:667 
-1 1:229 2:240 3:222 4:229 5:239 6:224 7:641 8:767 9:667 
-1 1:228 2:241 3:225 4:229 5:239 6:224 7:641 8:767 9:667 
-1 1:228 2:241 3:225 4:229 5:240 6:224 7:641 8:767 9:667 
-1 1:232 2:240 3:222 4:230 5:240 6:225 7:641 8:767 9:667 
-1 1:232 2:240 3:222 4:230 5:241 6:225 7:641 8:767 9:667 
-1 1:232 2:243 3:222 4:230 5:241 6:225 7:642 8:767 9:667 
-1 1:228 2:241 3:225 4:230 5:240 6:225 7:642 8:767 9:667 
-1 1:228 2:241 3:225 4:230 5:240 6:225 7:642 8:767 9:667 
-1 1:228 2:241 3:225 4:229 5:239 6:224 7:642 8:767 9:667 
-1 1:229 2:236 3:224 4:228 5:239 6:223 7:642 8:767 9:667 
-1 1:228 2:241 3:225 4:230 5:240 6:224 7:641 8:767 9:667 
-1 1:228 2:241 3:225 4:229 5:239 6:224 7:642 8:767 9:667 
-1 1:228 2:241 3:225 4:229 5:239 6:224 7:642 8:767 9:667 
-1 1:228 2:241 3:225 4:229 5:239 6:224 7:641 8:767 9:667 
-1 1:226 2:238 3:222 4:228 5:238 6:223 7:641 8:767 9:667 
-1 1:228 2:241 3:225 4:229 5:239 6:224 7:641 8:767 9:667 
-1 1:221 2:233 3:214 4:221 5:232 6:215 7:642 8:767 9:667 
-1 1:226 2:234 3:222 4:227 5:238 6:222 7:642 8:767 9:667 
-1 1:233 2:241 3:224 4:231 5:241 6:226 7:641 8:767 9:667 
-1 1:228 2:241 3:225 4:229 5:239 6:224 7:641 8:767 9:667 
-1 1:229 2:238 3:222 4:229 5:239 6:224 7:641 8:767 9:667 
-1 1:228 2:241 3:225 4:230 5:240 6:225 7:642 8:767 9:667 
-1 1:229 2:238 3:222 4:229 5:239 6:224 7:642 8:767 9:667 
-1 1:232 2:238 3:222 4:230 5:240 6:225 7:642 8:767 9:667 
-1 1:226 2:238 3:222 4:228 5:238 6:223 7:642 8:767 9:667 
-1 1:229 2:238 3:222 4:229 5:239 6:224 7:642 8:767 9:667 
-1 1:229 2:238 3:222 4:229 5:239 6:224 7:642 8:767 9:667 
-1 1:226 2:238 3:222 4:229 5:238 6:223 7:642 8:767 9:667 
-1 1:229 2:236 3:222 4:229 5:239 6:224 7:642 8:767 9:667 
-1 1:229 2:241 3:222 4:229 5:239 6:224 7:642 8:767 9:667 
-1 1:228 2:241 3:225 4:230 5:239 6:224 7:642 8:767 9:667 
-1 1:229 2:236 3:222 4:229 5:239 6:224 7:642 8:767 9:667 
-1 1:228 2:241 3:225 4:229 5:239 6:224 7:642 8:767 9:667 
-1 1:232 2:238 3:222 4:229 5:239 6:224 7:642 8:767 9:667 
-1 1:233 2:241 3:222 4:230 5:240 6:225 7:642 8:767 9:667 
-1 1:226 2:234 3:222 4:228 5:238 6:223 7:642 8:767 9:667 
-1 1:229 2:236 3:222 4:228 5:239 6:223 7:642 8:767 9:667 
-1 1:228 2:241 3:225 4:230 5:239 6:224 7:642 8:767 9:667 
-1 1:229 2:238 3:222 4:229 5:239 6:224 7:642 8:767 9:667 
-1 1:226 2:238 3:222 4:229 5:239 6:224 7:642 8:767 9:667 
-1 1:229 2:240 3:222 4:230 5:240 6:225 7:642 8:767 9:667 
-1 1:228 2:241 3:225 4:230 5:239 6:224 7:642 8:767 9:667 
-1 1:232 2:243 3:222 4:231 5:241 6:225 7:642 8:767 9:667 
-1 1:228 2:241 3:225 4:230 5:240 6:225 7:642 8:767 9:667 
-1 1:228 2:241 3:225 4:229 5:239 6:224 7:642 8:767 9:667 
-1 1:226 2:238 3:222 4:229 5:239 6:224 7:642 8:767 9:667 
-1 1:228 2:241 3:225 4:230 5:240 6:225 7:642 8:767 9:667 
-1 1:228 2:241 3:225 4:230 5:240 6:225 7:642 8:767 9:667 
-1 1:225 2:236 3:224 4:225 5:236 6:220 7:642 8:767 9:667 
-1 1:232 2:243 3:222 4:231 5:241 6:226 7:642 8:767 9:667 
-1 1:232 2:243 3:222 4:231 5:241 6:226 7:642 8:767 9:667 
-1 1:228 2:241 3:225 4:230 5:239 6:224 7:642 8:767 9:667 
-1 1:232 2:243 3:224 4:231 5:241 6:226 7:642 8:767 9:667 
-1 1:229 2:236 3:224 4:229 5:238 6:224 7:642 8:767 9:667 
-1 1:228 2:241 3:225 4:229 5:239 6:224 7:642 8:767 9:667 
-1 1:229 2:238 3:222 4:229 5:239 6:223 7:642 8:767 9:667 
-1 1:221 2:231 3:214 4:222 5:233 6:216 7:642 8:767 9:667 
-1 1:228 2:241 3:225 4:229 5:239 6:224 7:642 8:767 9:667 
-1 1:228 2:241 3:225 4:229 5:239 6:224 7:642 8:767 9:667 
-1 1:226 2:234 3:222 4:228 5:238 6:223 7:642 8:767 9:667 
-1 1:229 2:236 3:224 4:228 5:238 6:223 7:642 8:767 9:667 
-1 1:228 2:241 3:225 4:230 5:240 6:225 7:642 8:767 9:667 
-1 1:226 2:238 3:222 4:229 5:239 6:224 7:642 8:767 9:667 
-1 1:228 2:238 3:225 4:228 5:238 6:223 7:642 8:767 9:667 
-1 1:220 2:229 3:213 4:222 5:232 6:216 7:642 8:767 9:667 
-1 1:229 2:238 3:222 4:230 5:240 6:224 7:642 8:767 9:667 
-1 1:233 2:241 3:225 4:232 5:242 6:227 7:642 8:767 9:667 
-1 1:228 2:241 3:225 4:230 5:240 6:224 7:642 8:767 9:667 
-1 1:232 2:243 3:222 4:230 5:240 6:225 7:642 8:767 9:667 
-1 1:226 2:238 3:222 4:229 5:239 6:223 7:642 8:767 9:667 
-1 1:232 2:243 3:222 4:231 5:241 6:225 7:642 8:767 9:667 
-1 1:228 2:241 3:225 4:230 5:240 6:225 7:642 8:767 9:667 
-1 1:226 2:240 3:222 4:229 5:239 6:224 7:642 8:767 9:667 
-1 1:220 2:229 3:213 4:220 5:230 6:214 7:642 8:767 9:667 
1 1:235 2:245 3:224 4:234 5:243 6:226 7:641 8:765 9:665 
1 1:235 2:245 3:224 4:234 5:243 6:226 7:641 8:765 9:665 
1 1:235 2:243 3:227 4:234 5:243 6:225 7:641 8:765 9:665 
-1 1:235 2:241 3:224 4:232 5:241 6:223 7:641 8:765 9:665 
-1 1:235 2:245 3:224 4:233 5:243 6:224 7:641 8:765 9:665 
1 1:234 2:243 3:227 4:233 5:242 6:225 7:641 8:765 9:665 
1 1:237 2:245 3:228 4:235 5:244 6:227 7:641 8:765 9:665 
1 1:235 2:245 3:224 4:234 5:243 6:225 7:641 8:765 9:665 
1 1:234 2:243 3:227 4:234 5:242 6:225 7:641 8:765 9:665 
1 1:235 2:245 3:224 4:232 5:241 6:223 7:641 8:765 9:665 
-1 1:235 2:243 3:227 4:234 5:243 6:225 7:641 8:765 9:666 
-1 1:237 2:243 3:227 4:234 5:243 6:225 7:641 8:765 9:666 
-1 1:235 2:241 3:224 4:233 5:242 6:224 7:641 8:765 9:666 
-1 1:237 2:245 3:228 4:234 5:243 6:225 7:641 8:765 9:666 
1 1:232 2:241 3:224 4:232 5:241 6:223 7:641 8:765 9:665 
-1 1:235 2:241 3:224 4:232 5:241 6:223 7:641 8:765 9:665 
-1 1:235 2:241 3:224 4:233 5:241 6:223 7:641 8:765 9:666 
-1 1:235 2:241 3:224 4:234 5:243 6:225 7:641 8:765 9:666 
1 1:237 2:245 3:228 4:235 5:243 6:226 7:641 8:765 9:665 
1 1:237 2:245 3:228 4:235 5:243 6:226 7:641 8:765 9:665 
1 1:234 2:243 3:227 4:234 5:242 6:225 7:641 8:765 9:665 
1 1:235 2:245 3:224 4:233 5:242 6:225 7:641 8:765 9:665 
1 1:234 2:243 3:227 4:233 5:242 6:225 7:641 8:765 9:665 
-1 1:235 2:241 3:224 4:232 5:241 6:223 7:641 8:765 9:665 
1 1:235 2:245 3:224 4:233 5:242 6:224 7:641 8:765 9:665 
1 1:235 2:245 3:224 4:234 5:243 6:225 7:641 8:765 9:665 
1 1:235 2:245 3:228 4:234 5:243 6:226 7:641 8:765 9:665 
-1 1:235 2:241 3:224 4:233 5:242 6:223 7:641 8:765 9:665 
1 1:235 2:245 3:228 4:235 5:244 6:226 7:641 8:765 9:665 
1 1:228 2:238 3:220 4:227 5:236 6:218 7:641 8:765 9:665 
1 1:235 2:245 3:224 4:234 5:243 6:225 7:641 8:765 9:665 
-1 1:235 2:241 3:224 4:232 5:242 6:223 7:641 8:765 9:665 
-1 1:232 2:241 3:224 4:231 5:241 6:222 7:641 8:765 9:665 
-1 1:235 2:241 3:224 4:233 5:242 6:224 7:641 8:765 9:665 
1 1:235 2:245 3:228 4:235 5:244 6:226 7:641 8:765 9:665 
1 1:234 2:243 3:224 4:233 5:242 6:224 7:641 8:765 9:665 
1 1:234 2:243 3:227 4:234 5:243 6:225 7:641 8:765 9:665 
-1 1:237 2:243 3:227 4:234 5:243 6:225 7:641 8:765 9:665 
-1 1:234 2:241 3:227 4:232 5:241 6:223 7:641 8:765 9:665 
1 1:235 2:245 3:224 4:233 5:242 6:224 7:641 8:765 9:665 
-1 1:235 2:241 3:224 4:233 5:242 6:224 7:641 8:765 9:665 
1 1:232 2:241 3:224 4:231 5:240 6:222 7:641 8:765 9:665 
1 1:234 2:243 3:227 4:233 5:242 6:224 7:641 8:765 9:665 
-1 1:234 2:243 3:224 4:233 5:242 6:224 7:641 8:765 9:666 
-1 1:235 2:243 3:225 4:231 5:241 6:222 7:641 8:765 9:665 
-1 1:235 2:241 3:224 4:232 5:241 6:223 7:641 8:765 9:666 
1 1:234 2:241 3:224 4:233 5:241 6:224 7:641 8:765 9:665 
-1 1:235 2:241 3:224 4:232 5:241 6:223 7:641 8:765 9:665 
1 1:235 2:245 3:224 4:233 5:242 6:224 7:641 8:765 9:665 
-1 1:235 2:241 3:224 4:232 5:241 6:223 7:641 8:765 9:665 
-1 1:234 2:241 3:227 4:234 5:243 6:225 7:641 8:765 9:665 
1 1:235 2:245 3:229 4:235 5:244 6:227 7:641 8:765 9:665 
-1 1:235 2:241 3:228 4:234 5:243 6:225 7:641 8:765 9:665 
1 1:235 2:243 3:227 4:234 5:242 6:225 7:641 8:765 9:666 
-1 1:234 2:241 3:227 4:233 5:242 6:224 7:641 8:765 9:666 
1 1:235 2:243 3:224 4:233 5:242 6:224 7:641 8:765 9:665 
-1 1:234 2:241 3:227 4:234 5:243 6:225 7:641 8:765 9:665 
-1 1:234 2:243 3:227 4:233 5:242 6:224 7:641 8:765 9:666 
1 1:234 2:241 3:224 4:233 5:241 6:224 7:641 8:765 9:665 
1 1:237 2:245 3:228 4:234 5:243 6:226 7:641 8:765 9:665 
-1 1:234 2:241 3:224 4:233 5:242 6:223 7:641 8:765 9:665 
-1 1:234 2:241 3:227 4:233 5:242 6:224 7:641 8:765 9:666 
-1 1:235 2:241 3:224 4:232 5:241 6:223 7:641 8:765 9:665 
-1 1:235 2:245 3:224 4:233 5:242 6:224 7:641 8:765 9:666 
-1 1:235 2:245 3:224 4:233 5:242 6:224 7:641 8:765 9:666 
-1 1:235 2:241 3:224 4:233 5:242 6:224 7:641 8:765 9:665 
-1 1:227 2:234 3:215 4:224 5:234 6:215 7:641 8:765 9:665 
1 1:234 2:241 3:227 4:233 5:243 6:225 7:641 8:766 9:666 
1 1:237 2:245 3:228 4:234 5:243 6:226 7:641 8:766 9:666 
1 1:234 2:243 3:224 4:233 5:242 6:224 7:641 8:766 9:666 
-1 1:235 2:241 3:224 4:233 5:242 6:224 7:641 8:766 9:666 
1 1:235 2:243 3:227 4:233 5:242 6:224 7:641 8:766 9:666 
1 1:237 2:245 3:224 4:234 5:243 6:225 7:641 8:766 9:666 
1 1:234 2:241 3:227 4:234 5:242 6:225 7:641 8:766 9:666 
-1 1:235 2:243 3:227 4:233 5:242 6:224 7:641 8:765 9:666 
-1 1:235 2:241 3:224 4:232 5:241 6:223 7:641 8:766 9:666 
1 1:234 2:243 3:224 4:233 5:242 6:224 7:641 8:766 9:666 
1 1:235 2:245 3:224 4:232 5:241 6:223 7:641 8:766 9:666 
1 1:234 2:243 3:227 4:233 5:242 6:224 7:641 8:766 9:666 
-1 1:226 2:234 3:218 4:224 5:234 6:214 7:641 8:766 9:666 
-1 1:235 2:241 3:224 4:232 5:241 6:223 7:641 8:766 9:666 
1 1:234 2:243 3:224 4:233 5:242 6:224 7:641 8:766 9:666 
1 1:234 2:241 3:224 4:232 5:241 6:223 7:641 8:766 9:666 
1 1:235 2:243 3:227 4:233 5:242 6:224 7:641 8:766 9:666 
-1 1:235 2:245 3:224 4:232 5:242 6:223 7:641 8:766 9:666 
1 1:234 2:241 3:224 4:232 5:241 6:223 7:641 8:766 9:666 
-1 1:235 2:241 3:224 4:232 5:241 6:223 7:641 8:766 9:666 
1 1:232 2:238 3:218 4:229 5:239 6:217 7:637 8:760 9:659 
1 1:230 2:238 3:220 4:230 5:239 6:217 7:637 8:760 9:659 
1 1:232 2:239 3:222 4:232 5:241 6:220 7:637 8:760 9:659 
1 1:234 2:245 3:221 4:233 5:242 6:220 7:637 8:760 9:659 
1 1:232 2:240 3:220 4:231 5:240 6:219 7:637 8:760 9:659 
1 1:232 2:241 3:218 4:230 5:239 6:218 7:637 8:760 9:659 
1 1:232 2:241 3:220 4:230 5:239 6:218 7:637 8:760 9:659 
1 1:228 2:238 3:218 4:229 5:239 6:217 7:637 8:760 9:659 
1 1:232 2:245 3:222 4:231 5:241 6:219 7:637 8:760 9:659 
1 1:233 2:243 3:220 4:231 5:241 6:219 7:637 8:760 9:659 
1 1:230 2:238 3:221 4:230 5:239 6:217 7:637 8:760 9:659 
1 1:230 2:236 3:215 4:228 5:238 6:215 7:637 8:760 9:659 
1 1:233 2:241 3:222 4:231 5:241 6:219 7:637 8:760 9:659 
1 1:232 2:236 3:218 4:229 5:239 6:217 7:637 8:760 9:659 
1 1:230 2:238 3:221 4:230 5:239 6:218 7:637 8:760 9:659 
1 1:232 2:243 3:220 4:230 5:240 6:218 7:637 8:760 9:659 
1 1:232 2:243 3:220 4:231 5:240 6:219 7:637 8:760 9:659 
1 1:232 2:238 3:218 4:230 5:239 6:217 7:637 8:760 9:659 
1 1:232 2:239 3:222 4:231 5:241 6:219 7:637 8:760 9:659 
1 1:232 2:241 3:218 4:229 5:239 6:217 7:637 8:760 9:660 
1 1:233 2:241 3:220 4:231 5:240 6:218 7:637 8:760 9:659 
1 1:232 2:241 3:218 4:230 5:239 6:217 7:637 8:760 9:659 
1 1:230 2:238 3:221 4:230 5:240 6:218 7:637 8:760 9:659 
1 1:234 2:239 3:221 4:232 5:241 6:220 7:637 8:760 9:659 
1 1:233 2:243 3:222 4:232 5:241 6:219 7:637 8:760 9:659 
1 1:232 2:241 3:218 4:230 5:239 6:218 7:637 8:760 9:659 
1 1:230 2:238 3:215 4:229 5:238 6:216 7:637 8:760 9:659 
1 1:228 2:241 3:218 4:229 5:238 6:216 7:637 8:760 9:659 
1 1:225 2:233 3:213 4:225 5:234 6:212 7:637 8:760 9:659 
1 1:232 2:241 3:218 4:230 5:239 6:218 7:637 8:760 9:659 
1 1:232 2:241 3:218 4:230 5:239 6:218 7:637 8:760 9:659 
1 1:230 2:238 3:215 4:229 5:238 6:216 7:637 8:760 9:659 
1 1:232 2:245 3:220 4:230 5:240 6:218 7:637 8:760 9:659 
1 1:230 2:238 3:218 4:230 5:239 6:217 7:637 8:760 9:659 
1 1:230 2:241 3:218 4:228 5:238 6:216 7:637 8:760 9:659 
1 1:230 2:238 3:221 4:229 5:238 6:217 7:637 8:760 9:659 
1 1:230 2:238 3:218 4:229 5:238 6:217 7:637 8:760 9:659 
1 1:232 2:241 3:218 4:230 5:239 6:218 7:637 8:760 9:659 
1 1:230 2:238 3:218 4:229 5:239 6:217 7:637 8:760 9:659 
1 1:232 2:241 3:218 4:230 5:239 6:218 7:637 8:760 9:660 
1 1:232 2:243 3:220 4:231 5:240 6:218 7:637 8:760 9:660 
1 1:232 2:238 3:218 4:230 5:239 6:217 7:637 8:760 9:659 
1 1:230 2:238 3:218 4:230 5:239 6:217 7:637 8:760 9:660 
1 1:232 2:243 3:220 4:231 5:240 6:219 7:637 8:760 9:660 
1 1:232 2:238 3:218 4:229 5:239 6:217 7:637 8:760 9:659 
1 1:230 2:243 3:218 4:229 5:239 6:217 7:637 8:760 9:659 
1 1:230 2:238 3:218 4:228 5:238 6:216 7:637 8:760 9:659 
1 1:232 2:241 3:218 4:230 5:240 6:218 7:637 8:760 9:660 
1 1:232 2:238 3:218 4:230 5:239 6:217 7:637 8:760 9:660 
1 1:232 2:241 3:218 4:230 5:239 6:218 7:637 8:760 9:660 
1 1:230 2:238 3:218 4:228 5:238 6:216 7:637 8:760 9:660 
1 1:230 2:238 3:218 4:229 5:238 6:216 7:637 8:760 9:660 
1 1:232 2:238 3:220 4:230 5:240 6:218 7:638 8:760 9:660 
1 1:230 2:238 3:218 4:229 5:239 6:217 7:638 8:760 9:660 
1 1:230 2:236 3:218 4:229 5:238 6:216 7:638 8:760 9:660 
1 1:230 2:243 3:220 4:230 5:240 6:218 7:638 8:760 9:660 
1 1:232 2:241 3:218 4:230 5:239 6:217 7:638 8:760 9:660 
1 1:232 2:236 3:218 4:229 5:239 6:217 7:638 8:760 9:660 
1 1:228 2:238 3:213 4:228 5:237 6:215 7:638 8:760 9:660 
1 1:230 2:236 3:218 4:229 5:238 6:216 7:638 8:760 9:660 
1 1:221 2:229 3:210 4:223 5:233 6:210 7:638 8:760 9:660 
1 1:233 2:243 3:220 4:231 5:240 6:218 7:638 8:760 9:660 
1 1:230 2:238 3:218 4:229 5:239 6:217 7:638 8:760 9:660 
1 1:233 2:243 3:220 4:231 5:240 6:219 7:638 8:760 9:660 
1 1:232 2:239 3:222 4:231 5:240 6:218 7:638 8:760 9:660 
1 1:232 2:241 3:218 4:230 5:239 6:218 7:638 8:760 9:660 
1 1:232 2:241 3:218 4:229 5:239 6:217 7:638 8:760 9:660 
1 1:230 2:238 3:218 4:229 5:239 6:217 7:638 8:760 9:660 
0.85214320214329942 1:225 2:233 3:211 4:223 5:233 6:210 7:638 8:760 9:660 
1 1:230 2:238 3:218 4:229 5:239 6:217 7:638 8:760 9:660 
1 1:232 2:243 3:220 4:231 5:240 6:219 7:638 8:760 9:660 
1 1:232 2:238 3:218 4:229 5:238 6:216 7:638 8:760 9:660 
1 1:230 2:238 3:218 4:229 5:239 6:217 7:638 8:760 9:660 
1 1:232 2:239 3:218 4:230 5:240 6:218 7:638 8:760 9:660 
1 1:232 2:241 3:218 4:230 5:240 6:218 7:638 8:760 9:660 
-1 1:230 2:238 3:218 4:229 5:239 6:216 7:638 8:760 9:660 
1 1:232 2:241 3:218 4:229 5:239 6:217 7:638 8:760 9:660 
1 1:234 2:245 3:221 4:231 5:240 6:219 7:638 8:760 9:660 
1 1:232 2:241 3:218 4:230 5:239 6:218 7:638 8:760 9:660 
1 1:232 2:241 3:218 4:230 5:239 6:218 7:638 8:760 9:660 
1 1:232 2:241 3:220 4:230 5:239 6:218 7:638 8:760 9:660 
-1 1:230 2:238 3:218 4:229 5:239 6:216 7:638 8:760 9:660 
1 1:232 2:238 3:220 4:230 5:240 6:218 7:638 8:760 9:660 
1 1:232 2:241 3:218 4:229 5:239 6:217 7:638 8:760 9:660 
1 1:230 2:238 3:218 4:229 5:238 6:216 7:638 8:760 9:660 
1 1:232 2:241 3:220 4:230 5:239 6:218 7:638 8:760 9:660 
1 1:230 2:238 3:218 4:229 5:239 6:217 7:638 8:760 9:660 
1 1:232 2:238 3:220 4:230 5:239 6:217 7:638 8:760 9:660 
1 1:232 2:236 3:218 4:229 5:238 6:216 7:638 8:760 9:660 
1 1:230 2:238 3:213 4:228 5:237 6:215 7:638 8:760 9:660 
1 1:230 2:236 3:218 4:228 5:238 6:216 7:638 8:760 9:660 
1 1:232 2:238 3:220 4:230 5:239 6:218 7:638 8:760 9:660 
1 1:232 2:241 3:218 4:229 5:239 6:217 7:638 8:760 9:660 
1 1:232 2:241 3:220 4:230 5:239 6:218 7:638 8:760 9:660 
1 1:232 2:241 3:218 4:230 5:239 6:218 7:638 8:760 9:660 
1 1:230 2:238 3:218 4:228 5:238 6:216 7:638 8:760 9:660 
1 1:230 2:238 3:215 4:228 5:237 6:215 7:638 8:760 9:660 
1 1:232 2:241 3:218 4:230 5:239 6:218 7:638 8:760 9:660 
1 1:232 2:239 3:207 4:227 5:236 6:207 7:632 8:752 9:650 
-1 1:232 2:241 3:210 4:227 5:236 6:207 7:633 8:752 9:651 
1 1:232 2:239 3:210 4:226 5:235 6:207 7:632 8:752 9:651 
1 1:232 2:239 3:211 4:226 5:235 6:207 7:632 8:752 9:651 
1 1:230 2:239 3:211 4:226 5:235 6:206 7:632 8:752 9:650 
1 1:230 2:239 3:214 4:227 5:236 6:208 7:632 8:752 9:651 
1 1:232 2:241 3:206 4:227 5:236 6:207 7:632 8:752 9:650 
1 1:230 2:239 3:214 4:227 5:236 6:208 7:632 8:752 9:651 
1 1:225 2:239 3:207 4:226 5:235 6:206 7:632 8:752 9:651 
1 1:232 2:239 3:215 4:229 5:238 6:210 7:632 8:752 9:650 
-1 1:230 2:239 3:210 4:227 5:236 6:207 7:633 8:752 9:651 
1 1:232 2:239 3:210 4:227 5:236 6:207 7:632 8:752 9:650 
1 1:232 2:239 3:207 4:227 5:236 6:208 7:633 8:752 9:650 
1 1:232 2:239 3:207 4:226 5:235 6:207 7:632 8:752 9:651 
1 1:230 2:239 3:214 4:227 5:236 6:208 7:633 8:752 9:650 
1 1:232 2:241 3:210 4:227 5:236 6:208 7:633 8:752 9:651 
1 1:232 2:241 3:210 4:228 5:236 6:208 7:633 8:752 9:651 
1 1:225 2:239 3:207 4:225 5:234 6:205 7:632 8:752 9:651 
-1 1:232 2:241 3:206 4:227 5:236 6:207 7:633 8:752 9:651 
1 1:232 2:241 3:206 4:227 5:236 6:208 7:632 8:752 9:651 
1 1:230 2:239 3:211 4:227 5:235 6:207 7:632 8:752 9:650 
1 1:232 2:241 3:206 4:227 5:236 6:208 7:632 8:752 9:650 
1 1:230 2:236 3:211 4:227 5:236 6:207 7:632 8:752 9:650 
1 1:232 2:236 3:206 4:226 5:235 6:207 7:632 8:752 9:651 
-1 1:232 2:241 3:206 4:227 5:236 6:207 7:633 8:752 9:651 
-1 1:232 2:241 3:210 4:227 5:236 6:207 7:632 8:752 9:651 
1 1:232 2:241 3:210 4:228 5:237 6:208 7:632 8:752 9:650 
0.72170547703297627 1:225 2:236 3:207 4:225 5:234 6:205 7:633 8:752 9:651 
1 1:232 2:241 3:210 4:228 5:236 6:208 7:633 8:752 9:651 
1 1:221 2:233 3:202 4:221 5:230 6:201 7:633 8:752 9:651 
-1 1:232 2:241 3:206 4:227 5:236 6:207 7:633 8:752 9:651 
1 1:230 2:239 3:210 4:227 5:235 6:207 7:633 8:752 9:650 
1 1:230 2:239 3:207 4:226 5:235 6:206 7:632 8:752 9:650 
-1 1:232 2:236 3:206 4:227 5:235 6:207 7:633 8:752 9:651 
1 1:232 2:241 3:210 4:228 5:237 6:209 7:633 8:752 9:651 
1 1:225 2:239 3:210 4:226 5:235 6:206 7:633 8:752 9:651 
1 1:230 2:239 3:214 4:229 5:238 6:210 7:633 8:752 9:651 
1 1:228 2:238 3:209 4:225 5:234 6:206 7:633 8:752 9:651 
-1 1:229 2:238 3:209 4:227 5:236 6:207 7:632 8:752 9:651 
1 1:232 2:239 3:210 4:227 5:236 6:208 7:632 8:752 9:651 
1 1:232 2:241 3:206 4:227 5:236 6:208 7:633 8:752 9:651 
1 1:230 2:239 3:210 4:226 5:235 6:207 7:633 8:752 9:651 
-1 1:230 2:239 3:210 4:227 5:236 6:207 7:633 8:752 9:651 
1 1:230 2:239 3:211 4:226 5:235 6:207 7:633 8:752 9:651 
-1 1:230 2:232 3:211 4:226 5:235 6:206 7:633 8:752 9:651 
-1 1:232 2:236 3:206 4:226 5:235 6:206 7:633 8:752 9:651 
1 1:230 2:241 3:208 4:227 5:236 6:208 7:633 8:752 9:651 
1 1:230 2:239 3:214 4:227 5:236 6:208 7:633 8:753 9:651 
1 1:230 2:239 3:211 4:226 5:235 6:207 7:633 8:752 9:651 
1 1:230 2:239 3:211 4:226 5:235 6:207 7:633 8:753 9:651 
1 1:232 2:239 3:211 4:228 5:237 6:209 7:633 8:752 9:651 
1 1:232 2:241 3:210 4:228 5:237 6:209 7:633 8:752 9:651 
1 1:232 2:241 3:206 4:227 5:236 6:208 7:633 8:752 9:651 
1 1:230 2:239 3:211 4:226 5:235 6:207 7:632 8:752 9:651 
-1 1:231 2:238 3:211 4:228 5:237 6:208 7:633 8:752 9:651 
-1 1:229 2:238 3:209 4:227 5:236 6:207 7:633 8:752 9:651 
1 1:232 2:241 3:210 4:227 5:236 6:208 7:633 8:752 9:651 
1 1:229 2:238 3:209 4:226 5:235 6:207 7:633 8:752 9:651 
1 1:230 2:239 3:211 4:226 5:235 6:207 7:632 8:752 9:651 
-1 1:232 2:236 3:206 4:227 5:236 6:207 7:633 8:752 9:651 
-1 1:232 2:236 3:206 4:226 5:234 6:206 7:633 8:752 9:651 
1 1:232 2:241 3:210 4:227 5:235 6:207 7:632 8:752 9:651 
-1 1:225 2:234 3:209 4:224 5:233 6:204 7:633 8:752 9:651 
-1 1:232 2:236 3:206 4:226 5:235 6:206 7:633 8:752 9:651 
1 1:230 2:239 3:210 4:227 5:235 6:207 7:633 8:752 9:651 
-1 1:230 2:232 3:211 4:226 5:235 6:206 7:633 8:752 9:651 
1 1:229 2:238 3:209 4:227 5:236 6:208 7:633 8:752 9:651 
1 1:232 2:239 3:211 4:228 5:237 6:208 7:633 8:753 9:651 
-1 1:232 2:239 3:210 4:227 5:236 6:207 7:633 8:752 9:651 
1 1:232 2:241 3:206 4:227 5:236 6:208 7:633 8:752 9:651 
-1 1:230 2:232 3:211 4:226 5:235 6:206 7:633 8:752 9:651 
1 1:225 2:239 3:207 4:226 5:235 6:206 7:633 8:752 9:651 
1 1:232 2:241 3:210 4:227 5:236 6:208 7:633 8:752 9:651 
1 1:229 2:238 3:209 4:226 5:235 6:207 7:633 8:753 9:651 
1 1:225 2:239 3:207 4:226 5:235 6:206 7:633 8:753 9:651 
1 1:232 2:239 3:206 4:227 5:236 6:207 7:633 8:753 9:651 
1 1:228 2:239 3:207 4:226 5:235 6:207 7:633 8:752 9:651 
-1 1:232 2:236 3:206 4:226 5:235 6:206 7:633 8:752 9:651 
-1 1:232 2:236 3:206 4:225 5:234 6:206 7:633 8:752 9:651 
1 1:232 2:241 3:206 4:227 5:235 6:207 7:633 8:752 9:651 
1 1:230 2:239 3:211 4:226 5:235 6:207 7:633 8:752 9:651 
1 1:230 2:239 3:210 4:227 5:236 6:208 7:633 8:752 9:651 
1 1:228 2:239 3:211 4:226 5:235 6:207 7:633 8:752 9:651 
1 1:232 2:238 3:209 4:227 5:236 6:208 7:633 8:752 9:651 
1 1:232 2:241 3:210 4:228 5:237 6:209 7:633 8:752 9:651 
-1 1:225 2:234 3:207 4:221 5:230 6:201 7:633 8:752 9:651 
1 1:225 2:236 3:207 4:225 5:234 6:206 7:633 8:752 9:651 
1 1:230 2:239 3:211 4:226 5:235 6:207 7:633 8:752 9:651 
-1 1:232 2:236 3:206 4:227 5:236 6:208 7:633 8:752 9:651 
1 1:232 2:239 3:210 4:227 5:235 6:207 7:633 8:753 9:651 
1 1:232 2:239 3:207 4:227 5:236 6:208 7:633 8:752 9:651 
1 1:225 2:239 3:207 4:226 5:235 6:207 7:632 8:752 9:651 
1 1:232 2:239 3:210 4:227 5:235 6:207 7:632 8:752 9:651 
1 1:232 2:241 3:210 4:228 5:236 6:209 7:632 8:752 9:651 
1 1:228 2:238 3:209 4:227 5:236 6:207 7:632 8:752 9:650 
1 1:232 2:241 3:206 4:227 5:236 6:208 7:633 8:752 9:651 
1 1:213 2:224 3:184 4:211 5:219 6:186 7:627 8:745 9:645 
1 1:213 2:224 3:184 4:211 5:219 6:186 7:627 8:745 9:645 
-1 1:213 2:224 3:184 4:211 5:219 6:185 7:627 8:745 9:645 
1 1:214 2:226 3:185 4:213 5:221 6:188 7:627 8:745 9:645 
1 1:213 2:220 3:184 4:211 5:219 6:186 7:627 8:745 9:645 
1 1:214 2:222 3:185 4:210 5:218 6:185 7:627 8:745 9:645 
1 1:213 2:224 3:184 4:211 5:219 6:186 7:627 8:745 9:645 
-1 1:213 2:221 3:184 4:211 5:219 6:185 7:627 8:745 9:645 
-1 1:213 2:217 3:184 4:210 5:218 6:185 7:627 8:745 9:645 
-1 1:214 2:222 3:185 4:211 5:219 6:185 7:627 8:745 9:645 
1 1:213 2:226 3:184 4:212 5:220 6:186 7:627 8:745 9:645 
1 1:214 2:222 3:185 4:212 5:220 6:187 7:627 8:745 9:645 
1 1:213 2:226 3:187 4:213 5:221 6:188 7:627 8:745 9:645 
-1 1:218 2:222 3:184 4:213 5:221 6:187 7:627 8:745 9:645 
-1 1:214 2:222 3:185 4:210 5:218 6:184 7:627 8:745 9:645 
1 1:214 2:222 3:185 4:211 5:219 6:185 7:627 8:746 9:645 
1 1:214 2:222 3:185 4:211 5:219 6:185 7:627 8:746 9:645 
-1 1:214 2:222 3:185 4:211 5:219 6:185 7:627 8:745 9:645 
1 1:201 2:215 3:177 4:202 5:210 6:177 7:627 8:745 9:645 
1 1:214 2:222 3:185 4:209 5:217 6:183 7:627 8:746 9:645 
1 1:213 2:221 3:184 4:210 5:218 6:184 7:627 8:746 9:645 
1 1:214 2:222 3:185 4:211 5:219 6:185 7:627 8:746 9:645 
-1 1:214 2:222 3:185 4:211 5:219 6:185 7:627 8:745 9:645 
1 1:214 2:222 3:185 4:210 5:218 6:184 7:627 8:746 9:645 
-1 1:214 2:224 3:185 4:212 5:220 6:185 7:627 8:745 9:645 
-1 1:214 2:222 3:185 4:209 5:217 6:183 7:627 8:745 9:645 
-1 1:210 2:217 3:185 4:211 5:219 6:185 7:627 8:745 9:645 
-1 1:212 2:222 3:185 4:211 5:219 6:185 7:627 8:745 9:645 
1 1:208 2:215 3:185 4:211 5:218 6:185 7:627 8:746 9:645 
1 1:214 2:222 3:184 4:211 5:219 6:185 7:627 8:746 9:645 
1 1:213 2:220 3:184 4:210 5:218 6:184 7:627 8:746 9:645 
1 1:213 2:220 3:184 4:210 5:218 6:184 7:627 8:746 9:645 
1 1:214 2:222 3:185 4:211 5:219 6:185 7:627 8:746 9:645 
1 1:213 2:220 3:184 4:210 5:218 6:184 7:627 8:746 9:645 
1 1:214 2:222 3:185 4:211 5:219 6:185 7:627 8:746 9:645 
-1 1:213 2:220 3:184 4:211 5:219 6:185 7:627 8:745 9:645 
-1 1:213 2:213 3:184 4:209 5:217 6:183 7:627 8:746 9:645 
1 1:208 2:215 3:185 4:209 5:217 6:184 7:627 8:746 9:645 
1 1:211 2:221 3:184 4:209 5:217 6:183 7:627 8:746 9:645 
1 1:213 2:220 3:184 4:211 5:219 6:185 7:627 8:746 9:645 
-1 1:214 2:222 3:184 4:213 5:221 6:186 7:627 8:746 9:645 
1 1:214 2:222 3:184 4:210 5:218 6:184 7:627 8:746 9:645 
1 1:214 2:222 3:185 4:213 5:221 6:187 7:627 8:746 9:645 
-1 1:214 2:222 3:185 4:212 5:221 6:186 7:627 8:746 9:645 
-1 1:218 2:222 3:193 4:215 5:223 6:189 7:627 8:746 9:645 
-1 1:218 2:222 3:193 4:217 5:225 6:190 7:627 8:746 9:645 
1 1:216 2:224 3:186 4:215 5:223 6:189 7:627 8:746 9:645 
-1 1:218 2:222 3:193 4:217 5:225 6:191 7:627 8:746 9:645 
-1 1:218 2:222 3:192 4:215 5:223 6:188 7:627 8:746 9:645 
-1 1:218 2:222 3:193 4:216 5:224 6:189 7:627 8:746 9:645 
-1 1:215 2:222 3:192 4:215 5:223 6:188 7:627 8:746 9:645 
-1 1:218 2:222 3:193 4:216 5:224 6:189 7:627 8:746 9:645 
-1 1:218 2:222 3:184 4:215 5:222 6:188 7:627 8:746 9:645 
-1 1:218 2:222 3:193 4:216 5:224 6:189 7:627 8:746 9:645 
1 1:217 2:226 3:187 4:215 5:223 6:189 7:627 8:746 9:645 
-1 1:215 2:222 3:191 4:215 5:223 6:189 7:628 8:746 9:645 
1 1:216 2:224 3:189 4:216 5:224 6:190 7:627 8:746 9:645 
-0.16321955888862383 1:217 2:224 3:189 4:216 5:224 6:190 7:627 8:746 9:645 
1 1:216 2:226 3:187 4:216 5:224 6:190 7:627 8:746 9:645 
-1 1:218 2:222 3:184 4:214 5:222 6:188 7:628 8:746 9:645 
-1 1:218 2:222 3:193 4:216 5:224 6:190 7:627 8:746 9:645 
-1 1:216 2:224 3:186 4:214 5:222 6:188 7:628 8:746 9:645 
-0.26817871027058204 1:217 2:224 3:189 4:216 5:224 6:190 7:627 8:746 9:645 
-1 1:216 2:224 3:186 4:214 5:223 6:188 7:627 8:746 9:645 
-1 1:218 2:222 3:193 4:217 5:225 6:190 7:627 8:746 9:645 
-1 1:215 2:222 3:191 4:215 5:223 6:188 7:627 8:746 9:645 
-1 1:217 2:224 3:189 4:216 5:224 6:189 7:627 8:746 9:645 
-1 1:218 2:222 3:193 4:216 5:224 6:190 7:627 8:746 9:645 
0.80912712221768091 1:216 2:224 3:193 4:215 5:224 6:190 7:627 8:746 9:645 
-1 1:211 2:220 3:182 4:212 5:220 6:185 7:627 8:746 9:645 
-1 1:213 2:222 3:184 4:214 5:222 6:187 7:627 8:746 9:645 
-1 1:218 2:222 3:193 4:216 5:224 6:189 7:627 8:746 9:645 
-1 1:217 2:224 3:193 4:217 5:225 6:191 7:627 8:746 9:645 
-1 1:216 2:224 3:189 4:216 5:224 6:189 7:627 8:746 9:645 
-1 1:215 2:222 3:184 4:214 5:222 6:187 7:627 8:746 9:645 
-0.85547279805599585 1:217 2:224 3:189 4:216 5:224 6:190 7:627 8:746 9:645 
-1 1:218 2:222 3:184 4:214 5:222 6:188 7:627 8:746 9:645 
-1 1:218 2:222 3:193 4:216 5:224 6:189 7:627 8:746 9:645 
-1 1:218 2:222 3:193 4:216 5:224 6:190 7:627 8:746 9:645 
-1 1:217 2:224 3:189 4:216 5:224 6:190 7:628 8:746 9:645 
1 1:216 2:224 3:186 4:215 5:223 6:189 7:627 8:746 9:645 
1 1:213 2:222 3:184 4:213 5:221 6:187 7:628 8:746 9:645 
-0.37499608513147176 1:217 2:224 3:189 4:216 5:224 6:190 7:627 8:746 9:645 
-1 1:218 2:222 3:192 4:215 5:223 6:189 7:627 8:746 9:645 
-1 1:216 2:224 3:189 4:216 5:224 6:190 7:628 8:746 9:645 
1 1:215 2:224 3:189 4:214 5:222 6:188 7:627 8:746 9:645 
-1 1:216 2:224 3:186 4:214 5:222 6:188 7:628 8:746 9:645 
-1 1:218 2:222 3:193 4:217 5:225 6:191 7:627 8:746 9:645 
-1 1:217 2:226 3:187 4:216 5:224 6:189 7:627 8:746 9:645 
-1 1:216 2:224 3:189 4:216 5:224 6:189 7:627 8:746 9:645 
-1 1:218 2:222 3:193 4:216 5:224 6:190 7:627 8:746 9:645 
1 1:216 2:224 3:189 4:216 5:224 6:190 7:627 8:746 9:645 
-1 1:217 2:224 3:189 4:216 5:224 6:190 7:628 8:746 9:645 
-1 1:216 2:224 3:186 4:215 5:223 6:188 7:627 8:746 9:645 
1 1:222 2:231 3:192 4:218 5:225 6:186 7:616 8:730 9:629 
1 1:222 2:231 3:189 4:217 5:224 6:185 7:616 8:730 9:629 
1 1:224 2:234 3:194 4:219 5:226 6:188 7:616 8:730 9:629 
1 1:221 2:229 3:180 4:216 5:223 6:184 7:616 8:730 9:629 
-1 1:222 2:229 3:192 4:218 5:225 6:186 7:616 8:730 9:629 
1 1:221 2:229 3:180 4:216 5:223 6:184 7:616 8:730 9:629 
1 1:224 2:234 3:192 4:219 5:226 6:187 7:616 8:730 9:629 
1 1:222 2:234 3:194 4:219 5:226 6:187 7:616 8:730 9:629 
1 1:222 2:231 3:189 4:217 5:224 6:186 7:616 8:730 9:629 
1 1:221 2:229 3:180 4:217 5:224 6:186 7:616 8:730 9:629 
-0.31433392075658395 1:222 2:231 3:189 4:217 5:224 6:185 7:617 8:730 9:629 
-1 1:222 2:231 3:192 4:218 5:225 6:186 7:617 8:730 9:629 
1 1:216 2:226 3:183 4:213 5:220 6:181 7:617 8:730 9:629 
1 1:222 2:234 3:194 4:220 5:227 6:188 7:617 8:730 9:629 
1 1:222 2:229 3:194 4:218 5:225 6:187 7:617 8:730 9:629 
-1 1:224 2:234 3:194 4:220 5:227 6:188 7:617 8:730 9:630 
-1 1:222 2:231 3:189 4:217 5:224 6:185 7:617 8:730 9:630 
-1 1:224 2:234 3:194 4:219 5:226 6:187 7:617 8:730 9:630 
-1 1:222 2:229 3:192 4:218 5:225 6:187 7:617 8:730 9:630 
-1 1:223 2:227 3:181 4:216 5:223 6:184 7:617 8:730 9:630 
-1 1:222 2:229 3:192 4:218 5:225 6:186 7:617 8:730 9:629 
-1 1:221 2:229 3:190 4:217 5:224 6:185 7:617 8:730 9:629 
-1 1:222 2:229 3:192 4:218 5:225 6:186 7:617 8:730 9:630 
-1 1:224 2:229 3:194 4:219 5:226 6:187 7:617 8:730 9:630 
-1 1:222 2:231 3:189 4:218 5:225 6:186 7:617 8:730 9:630 
1 1:221 2:229 3:180 4:217 5:224 6:185 7:617 8:730 9:629 
-1 1:222 2:229 3:192 4:218 5:224 6:185 7:617 8:730 9:630 
1 1:211 2:224 3:181 4:211 5:218 6:179 7:617 8:730 9:629 
-1 1:222 2:231 3:189 4:216 5:223 6:184 7:617 8:730 9:629 
1 1:222 2:231 3:192 4:218 5:225 6:187 7:617 8:730 9:630 
1 1:222 2:229 3:180 4:218 5:225 6:187 7:617 8:730 9:629 
-1 1:222 2:229 3:192 4:218 5:225 6:186 7:617 8:730 9:630 
-1 1:222 2:229 3:180 4:218 5:225 6:186 7:617 8:730 9:630 
-1 1:221 2:231 3:192 4:217 5:224 6:185 7:617 8:730 9:630 
-1 1:222 2:232 3:192 4:219 5:226 6:187 7:617 8:730 9:630 
-1 1:222 2:229 3:192 4:217 5:224 6:185 7:617 8:730 9:629 
-1 1:222 2:229 3:192 4:217 5:225 6:186 7:617 8:730 9:629 
-1 1:222 2:231 3:189 4:217 5:224 6:185 7:617 8:730 9:630 
-1 1:222 2:231 3:189 4:217 5:224 6:185 7:617 8:730 9:630 
-1 1:221 2:231 3:190 4:217 5:224 6:185 7:617 8:730 9:630 
-1 1:224 2:232 3:192 4:219 5:225 6:186 7:617 8:730 9:630 
-1 1:222 2:229 3:192 4:218 5:225 6:186 7:617 8:730 9:630 
-1 1:221 2:229 3:180 4:217 5:224 6:185 7:617 8:730 9:630 
-1 1:222 2:231 3:189 4:218 5:225 6:186 7:617 8:730 9:630 
-1 1:222 2:229 3:180 4:217 5:224 6:185 7:617 8:730 9:630 
-1 1:222 2:229 3:192 4:218 5:225 6:187 7:617 8:730 9:630 
-1 1:222 2:229 3:192 4:218 5:225 6:186 7:617 8:730 9:630 
-1 1:222 2:229 3:192 4:218 5:225 6:186 7:617 8:730 9:630 
-1 1:222 2:231 3:189 4:218 5:224 6:185 7:617 8:730 9:630 
-1 1:222 2:234 3:192 4:219 5:226 6:187 7:617 8:730 9:630 
-1 1:222 2:234 3:194 4:219 5:226 6:187 7:617 8:730 9:630 
-1 1:222 2:231 3:189 4:216 5:223 6:184 7:617 8:730 9:630 
-1 1:222 2:231 3:189 4:217 5:224 6:185 7:617 8:730 9:630 
-1 1:222 2:229 3:192 4:217 5:224 6:185 7:617 8:730 9:630 
-1 1:222 2:231 3:189 4:217 5:224 6:185 7:617 8:730 9:630 
-1 1:222 2:229 3:180 4:218 5:225 6:185 7:617 8:730 9:630 
-1 1:222 2:231 3:189 4:217 5:224 6:185 7:617 8:730 9:630 
-1 1:221 2:229 3:190 4:216 5:223 6:184 7:617 8:730 9:630 
-1 1:222 2:229 3:180 4:217 5:225 6:186 7:617 8:730 9:630 
-1 1:222 2:231 3:189 4:218 5:225 6:186 7:617 8:730 9:630 
-1 1:224 2:229 3:192 4:218 5:225 6:186 7:617 8:730 9:629 
-1 1:222 2:231 3:189 4:218 5:225 6:186 7:617 8:730 9:630 
-1 1:222 2:229 3:180 4:219 5:226 6:187 7:617 8:730 9:630 
-1 1:221 2:229 3:180 4:217 5:225 6:186 7:617 8:730 9:630 
1 1:222 2:231 3:189 4:217 5:224 6:185 7:617 8:731 9:630 
1 1:222 2:234 3:194 4:219 5:226 6:187 7:617 8:731 9:630 
-1 1:221 2:229 3:180 4:217 5:224 6:185 7:617 8:730 9:630 
1 1:222 2:231 3:189 4:217 5:224 6:185 7:617 8:731 9:630 
-1 1:222 2:229 3:192 4:217 5:225 6:186 7:617 8:731 9:630 
1 1:222 2:231 3:189 4:217 5:224 6:185 7:617 8:731 9:630 
-1 1:221 2:229 3:192 4:217 5:225 6:186 7:617 8:731 9:630 
1 1:222 2:229 3:180 4:218 5:225 6:186 7:617 8:731 9:630 
1 1:224 2:234 3:192 4:218 5:226 6:187 7:617 8:731 9:630 
-1 1:221 2:229 3:180 4:216 5:223 6:183 7:617 8:731 9:630 
-1 1:222 2:231 3:189 4:217 5:224 6:185 7:617 8:730 9:630 
-1 1:222 2:229 3:192 4:217 5:224 6:186 7:617 8:730 9:630 
-1 1:221 2:229 3:180 4:217 5:224 6:185 7:617 8:730 9:630 
1 1:222 2:231 3:189 4:218 5:225 6:186 7:617 8:731 9:630 
1 1:221 2:229 3:180 4:217 5:224 6:185 7:617 8:731 9:630 
-1 1:222 2:229 3:192 4:218 5:225 6:186 7:617 8:731 9:630 
-1 1:224 2:232 3:192 4:219 5:226 6:187 7:617 8:731 9:630 
1 1:222 2:234 3:191 4:219 5:226 6:187 7:617 8:731 9:630 
1 1:222 2:229 3:180 4:218 5:225 6:187 7:617 8:731 9:630 
1 1:222 2:234 3:192 4:219 5:226 6:187 7:617 8:731 9:630 
-1 1:222 2:229 3:192 4:218 5:226 6:186 7:617 8:731 9:630 
-1 1:224 2:229 3:192 4:218 5:225 6:186 7:617 8:731 9:630 
1 1:222 2:231 3:189 4:216 5:223 6:184 7:617 8:731 9:630 
-1 1:222 2:229 3:192 4:218 5:225 6:186 7:617 8:731 9:630 
-1 1:222 2:229 3:192 4:218 5:225 6:186 7:617 8:731 9:630 
-1 1:222 2:229 3:192 4:218 5:225 6:186 7:617 8:731 9:630 
1 1:222 2:231 3:189 4:216 5:223 6:184 7:617 8:731 9:630 
1 1:222 2:231 3:189 4:217 5:224 6:185 7:617 8:731 9:630 
1 1:208 2:215 3:166 4:206 5:213 6:169 7:611 8:722 9:620 
-1 1:208 2:215 3:166 4:207 5:214 6:169 7:611 8:721 9:619 
1 1:208 2:215 3:167 4:206 5:213 6:169 7:611 8:722 9:620 
1 1:208 2:217 3:166 4:207 5:213 6:168 7:611 8:722 9:620 
1 1:208 2:215 3:166 4:205 5:212 6:168 7:611 8:722 9:620 
1 1:208 2:215 3:167 4:206 5:212 6:168 7:611 8:722 9:620 
1 1:208 2:215 3:167 4:206 5:212 6:168 7:611 8:722 9:620 
1 1:208 2:215 3:166 4:205 5:211 6:168 7:611 8:722 9:620 
1 1:208 2:215 3:166 4:206 5:212 6:168 7:611 8:722 9:620 
1 1:203 2:215 3:166 4:205 5:212 6:168 7:611 8:722 9:620 
1 1:208 2:215 3:166 4:206 5:213 6:169 7:611 8:722 9:620 
1 1:208 2:215 3:166 4:205 5:212 6:168 7:611 8:722 9:620 
1 1:208 2:215 3:166 4:205 5:212 6:168 7:611 8:722 9:620 
1 1:204 2:215 3:166 4:205 5:211 6:168 7:611 8:722 9:620 
1 1:203 2:215 3:166 4:205 5:212 6:168 7:611 8:722 9:620 
1 1:204 2:215 3:166 4:205 5:211 6:167 7:611 8:722 9:620 
1 1:203 2:210 3:166 4:204 5:211 6:167 7:611 8:722 9:620 
1 1:204 2:210 3:166 4:204 5:211 6:167 7:611 8:722 9:620 
1 1:208 2:210 3:166 4:205 5:211 6:168 7:611 8:722 9:620 
1 1:208 2:215 3:166 4:206 5:212 6:168 7:611 8:722 9:620 
1 1:208 2:212 3:166 4:206 5:212 6:168 7:611 8:722 9:620 
1 1:204 2:215 3:166 4:204 5:211 6:167 7:611 8:722 9:620 
1 1:208 2:215 3:166 4:206 5:212 6:168 7:611 8:722 9:620 
1 1:208 2:213 3:166 4:205 5:212 6:168 7:611 8:722 9:620 
1 1:203 2:215 3:166 4:205 5:211 6:167 7:611 8:722 9:620 
1 1:203 2:215 3:166 4:206 5:212 6:168 7:611 8:722 9:620 
1 1:208 2:215 3:167 4:206 5:213 6:169 7:611 8:722 9:620 
1 1:203 2:208 3:166 4:205 5:211 6:168 7:611 8:722 9:620 
1 1:208 2:215 3:166 4:207 5:213 6:169 7:611 8:722 9:620 
1 1:203 2:215 3:166 4:205 5:211 6:167 7:611 8:722 9:620 
1 1:204 2:213 3:167 4:205 5:211 6:168 7:611 8:722 9:620 
-1 1:208 2:213 3:166 4:205 5:212 6:167 7:611 8:722 9:620 
1 1:203 2:215 3:166 4:205 5:211 6:167 7:611 8:722 9:620 
1 1:213 2:215 3:171 4:209 5:215 6:172 7:611 8:722 9:620 
1 1:203 2:213 3:166 4:205 5:212 6:167 7:611 8:722 9:620 
1 1:203 2:213 3:166 4:205 5:211 6:168 7:611 8:722 9:620 
1 1:208 2:212 3:166 4:205 5:211 6:167 7:611 8:722 9:620 
1 1:203 2:215 3:167 4:206 5:212 6:168 7:611 8:722 9:620 
1 1:204 2:210 3:166 4:204 5:210 6:166 7:611 8:722 9:620 
1 1:208 2:215 3:167 4:206 5:212 6:168 7:611 8:722 9:620 
1 1:204 2:215 3:166 4:204 5:211 6:167 7:611 8:722 9:620 
1 1:197 2:201 3:159 4:199 5:205 6:161 7:611 8:722 9:620 
1 1:208 2:217 3:166 4:206 5:213 6:168 7:611 8:722 9:620 
-1 1:208 2:210 3:166 4:205 5:212 6:167 7:611 8:722 9:620 
1 1:203 2:212 3:166 4:204 5:210 6:166 7:611 8:722 9:620 
1 1:208 2:212 3:166 4:206 5:212 6:168 7:611 8:722 9:620 
1 1:204 2:208 3:166 4:203 5:210 6:166 7:611 8:722 9:620 
1 1:204 2:203 3:166 4:201 5:207 6:164 7:611 8:722 9:620 
1 1:208 2:212 3:166 4:205 5:211 6:168 7:611 8:722 9:620 
1 1:208 2:210 3:166 4:205 5:211 6:168 7:611 8:722 9:620 
1 1:203 2:210 3:167 4:205 5:211 6:168 7:611 8:722 9:620 
-1 1:208 2:215 3:167 4:206 5:213 6:168 7:611 8:722 9:620 
1 1:208 2:215 3:167 4:206 5:213 6:169 7:611 8:722 9:620 
1 1:208 2:212 3:166 4:205 5:211 6:167 7:611 8:722 9:620 
1 1:204 2:215 3:166 4:204 5:211 6:167 7:611 8:722 9:620 
1 1:203 2:210 3:167 4:204 5:210 6:166 7:611 8:722 9:620 
1 1:204 2:208 3:166 4:204 5:210 6:166 7:611 8:722 9:620 
1 1:208 2:215 3:166 4:205 5:212 6:168 7:611 8:722 9:620 
1 1:203 2:212 3:166 4:205 5:211 6:167 7:611 8:722 9:620 
1 1:208 2:215 3:167 4:206 5:213 6:169 7:611 8:722 9:620 
1 1:203 2:215 3:167 4:206 5:213 6:169 7:611 8:722 9:620 
1 1:208 2:215 3:167 4:206 5:213 6:169 7:611 8:722 9:620 
1 1:203 2:208 3:166 4:204 5:210 6:167 7:611 8:722 9:620 
1 1:203 2:208 3:166 4:204 5:211 6:167 7:611 8:722 9:620 
1 1:203 2:215 3:167 4:205 5:212 6:168 7:611 8:722 9:620 
1 1:208 2:210 3:166 4:205 5:211 6:168 7:611 8:722 9:620 
1 1:208 2:212 3:166 4:206 5:212 6:168 7:611 8:722 9:620 
1 1:208 2:215 3:167 4:206 5:212 6:169 7:611 8:722 9:620 
-1 1:208 2:215 3:166 4:206 5:213 6:168 7:611 8:722 9:620 
1 1:203 2:215 3:167 4:206 5:212 6:169 7:611 8:722 9:620 
1 1:203 2:208 3:166 4:204 5:211 6:167 7:611 8:722 9:620 
1 1:203 2:215 3:167 4:206 5:212 6:168 7:611 8:722 9:620 
1 1:208 2:215 3:167 4:206 5:213 6:169 7:611 8:722 9:620 
1 1:206 2:210 3:166 4:205 5:211 6:167 7:611 8:722 9:620 
1 1:203 2:212 3:166 4:204 5:211 6:167 7:611 8:722 9:620 
1 1:204 2:213 3:167 4:206 5:212 6:168 7:611 8:722 9:620 
1 1:203 2:212 3:166 4:204 5:211 6:167 7:611 8:722 9:620 
1 1:203 2:208 3:166 4:204 5:210 6:167 7:611 8:722 9:620 
1 1:203 2:210 3:166 4:205 5:211 6:168 7:611 8:722 9:620 
1 1:203 2:215 3:166 4:206 5:212 6:168 7:611 8:722 9:620 
1 1:208 2:210 3:166 4:205 5:211 6:168 7:611 8:722 9:620 
1 1:203 2:208 3:166 4:204 5:211 6:167 7:611 8:722 9:620 
1 1:197 2:203 3:158 4:197 5:203 6:160 7:611 8:722 9:620 
-1 1:203 2:208 3:160 4:200 5:206 6:155 7:601 8:706 9:603 
-1 1:204 2:206 3:153 4:200 5:205 6:155 7:601 8:706 9:603 
-1 1:203 2:210 3:166 4:202 5:208 6:157 7:600 8:706 9:603 
1 1:203 2:210 3:156 4:201 5:206 6:156 7:600 8:706 9:603 
-1 1:206 2:206 3:159 4:202 5:208 6:157 7:600 8:706 9:603 
1 1:203 2:208 3:160 4:201 5:206 6:156 7:600 8:706 9:603 
-1 1:204 2:206 3:159 4:201 5:206 6:156 7:601 8:706 9:603 
1 1:206 2:213 3:160 4:204 5:209 6:159 7:600 8:706 9:603 
1 1:204 2:206 3:153 4:199 5:204 6:154 7:600 8:706 9:603 
-1 1:204 2:206 3:160 4:202 5:207 6:157 7:601 8:706 9:603 
-1 1:204 2:206 3:153 4:202 5:207 6:156 7:601 8:706 9:603 
1 1:204 2:206 3:153 4:200 5:205 6:155 7:600 8:706 9:603 
-1 1:203 2:210 3:156 4:201 5:206 6:155 7:600 8:706 9:603 
-1 1:204 2:206 3:156 4:201 5:207 6:156 7:601 8:707 9:604 
-1 1:204 2:206 3:151 4:202 5:208 6:157 7:601 8:707 9:604 
-1 1:203 2:210 3:156 4:201 5:207 6:156 7:601 8:706 9:603 
-1 1:204 2:206 3:153 4:201 5:206 6:155 7:601 8:707 9:604 
-1 1:196 2:203 3:152 4:195 5:200 6:149 7:601 8:707 9:604 
-1 1:203 2:210 3:160 4:202 5:207 6:156 7:600 8:706 9:603 
-1 1:203 2:210 3:156 4:201 5:206 6:155 7:600 8:706 9:603 
1 1:203 2:210 3:156 4:201 5:206 6:156 7:600 8:706 9:603 
-1 1:203 2:208 3:151 4:201 5:206 6:155 7:600 8:706 9:604 
-1 1:204 2:206 3:153 4:201 5:206 6:155 7:601 8:707 9:604 
-1 1:203 2:210 3:156 4:200 5:205 6:154 7:601 8:707 9:604 
-1 1:204 2:206 3:160 4:201 5:206 6:156 7:601 8:707 9:604 
-1 1:203 2:205 3:156 4:199 5:204 6:153 7:601 8:707 9:604 
-1 1:203 2:210 3:156 4:201 5:206 6:155 7:601 8:707 9:604 
-1 1:203 2:210 3:156 4:201 5:206 6:155 7:601 8:707 9:604 
1 1:203 2:210 3:156 4:200 5:205 6:155 7:601 8:707 9:604 
-1 1:204 2:206 3:156 4:200 5:205 6:155 7:601 8:707 9:604 
-1 1:203 2:210 3:156 4:200 5:205 6:154 7:601 8:707 9:604 
-1 1:204 2:206 3:160 4:201 5:206 6:155 7:601 8:707 9:604 
-1 1:203 2:208 3:160 4:201 5:206 6:155 7:601 8:707 9:604 
0.16471299805502207 1:204 2:213 3:160 4:202 5:208 6:157 7:601 8:707 9:604 
1 1:203 2:208 3:160 4:200 5:205 6:155 7:601 8:707 9:604 
1 1:203 2:210 3:156 4:201 5:206 6:156 7:601 8:707 9:604 
1 1:203 2:210 3:156 4:201 5:206 6:156 7:601 8:707 9:604 
1 1:203 2:210 3:156 4:200 5:205 6:155 7:601 8:707 9:604 
1 1:203 2:210 3:156 4:200 5:205 6:155 7:601 8:707 9:604 
-1 1:204 2:206 3:153 4:201 5:206 6:155 7:601 8:707 9:604 
1 1:196 2:201 3:153 4:192 5:197 6:148 7:601 8:707 9:604 
1 1:203 2:210 3:156 4:201 5:206 6:156 7:601 8:707 9:604 
-1 1:203 2:205 3:156 4:200 5:205 6:155 7:601 8:707 9:604 
-1 1:204 2:206 3:153 4:199 5:204 6:154 7:601 8:707 9:604 
-1 1:203 2:206 3:151 4:202 5:207 6:156 7:601 8:707 9:604 
-1 1:204 2:206 3:156 4:200 5:205 6:155 7:601 8:707 9:604 
-1 1:204 2:206 3:151 4:202 5:207 6:156 7:601 8:707 9:604 
-1 1:203 2:203 3:156 4:200 5:206 6:155 7:601 8:707 9:604 
-1 1:204 2:206 3:156 4:201 5:206 6:155 7:601 8:707 9:604 
-1 1:204 2:206 3:156 4:200 5:205 6:155 7:601 8:707 9:604 
-1 1:203 2:210 3:156 4:200 5:205 6:154 7:601 8:707 9:604 
-1 1:203 2:210 3:156 4:201 5:206 6:155 7:600 8:706 9:603 
-1 1:203 2:203 3:156 4:200 5:205 6:155 7:601 8:707 9:604 
-1 1:203 2:203 3:156 4:200 5:205 6:155 7:601 8:707 9:604 
-1 1:203 2:210 3:156 4:201 5:206 6:155 7:601 8:707 9:604 
1 1:203 2:210 3:156 4:200 5:205 6:155 7:601 8:707 9:604 
-1 1:203 2:205 3:156 4:201 5:206 6:155 7:601 8:707 9:604 
-1 1:203 2:210 3:156 4:201 5:206 6:155 7:601 8:707 9:604 
1 1:203 2:210 3:156 4:200 5:205 6:155 7:601 8:707 9:604 
-1 1:203 2:205 3:156 4:200 5:205 6:154 7:601 8:707 9:604 
-1 1:203 2:205 3:156 4:200 5:205 6:154 7:601 8:707 9:604 
-1 1:203 2:205 3:156 4:199 5:204 6:154 7:601 8:707 9:604 
-1 1:204 2:206 3:152 4:199 5:204 6:153 7:601 8:707 9:604 
-1 1:204 2:206 3:153 4:201 5:206 6:155 7:601 8:707 9:604 
-1 1:204 2:206 3:153 4:200 5:205 6:153 7:601 8:707 9:604 
-1 1:203 2:210 3:156 4:200 5:205 6:154 7:601 8:707 9:604 
-1 1:203 2:210 3:156 4:200 5:205 6:154 7:601 8:707 9:604 
1 1:204 2:206 3:153 4:200 5:204 6:155 7:601 8:707 9:604 
-1 1:204 2:206 3:153 4:201 5:206 6:155 7:601 8:706 9:603 
-1 1:204 2:206 3:156 4:201 5:205 6:155 7:601 8:707 9:604 
-1 1:203 2:204 3:156 4:199 5:204 6:154 7:601 8:707 9:604 
-1 1:203 2:205 3:156 4:200 5:205 6:154 7:601 8:707 9:604 
-1 1:204 2:206 3:156 4:201 5:205 6:155 7:601 8:707 9:604 
1 1:203 2:206 3:153 4:200 5:205 6:155 7:601 8:707 9:604 
-1 1:203 2:204 3:156 4:200 5:204 6:154 7:601 8:707 9:604 
-1 1:204 2:206 3:156 4:200 5:205 6:155 7:601 8:707 9:604 
-1 1:203 2:204 3:156 4:200 5:205 6:154 7:601 8:707 9:604 
-1 1:204 2:206 3:153 4:200 5:204 6:154 7:601 8:707 9:604 
-1 1:204 2:206 3:156 4:199 5:204 6:153 7:601 8:707 9:604 
-1 1:204 2:206 3:153 4:201 5:206 6:155 7:601 8:707 9:604 
-1 1:203 2:206 3:160 4:201 5:206 6:155 7:601 8:707 9:604 
-1 1:203 2:210 3:156 4:200 5:205 6:154 7:601 8:707 9:604 
-1 1:204 2:206 3:156 4:200 5:204 6:154 7:601 8:707 9:604 
-1 1:203 2:210 3:156 4:201 5:206 6:155 7:601 8:707 9:604 
-1 1:203 2:205 3:156 4:200 5:205 6:154 7:601 8:707 9:604 
-1 1:204 2:206 3:153 4:200 5:204 6:154 7:601 8:707 9:604 
-1 1:203 2:205 3:156 4:201 5:205 6:154 7:601 8:707 9:604 
1 1:203 2:210 3:156 4:201 5:205 6:155 7:601 8:707 9:604 
1 1:203 2:210 3:156 4:199 5:204 6:154 7:601 8:707 9:604 
