svm_type c_svc
kernel_type linear
nr_class 2
total_sv 2
rho 20.262266956421811
label 0 1
nr_sv 1 1
SV
0.00022875443211711708 1:255 2:255 3:230 4:249 5:254 6:234 7:667 8:797 9:696 
-0.00022875443211711708 1:226 2:255 3:186 4:223 5:252 6:180 7:650 8:777 9:655 
