svm_type c_svc
kernel_type linear
nr_class 5
total_sv 37
rho 21.278059695281257 75.023495608105804 17.591179385530673 3.7554018136335201 48.310181291555182 38.86154497345678 22.348132458827934 -21.15949139439379 5.7940628846133624 21.047104247104038
label 0 1 2 3 4
nr_sv 3 8 14 9 3
SV
0.0002050230542262089 0 0 0 1:242 2:255 3:255 4:235 5:254 6:254 7:646 8:775 9:677 
0 0.0048183343003879277 0 0 1:242 2:255 3:255 4:239 5:254 6:254 7:646 8:775 9:677 
0.00031219546332809727 0 0.00024777006937562549 7.8173858661663523e-06 1:223 2:255 3:255 4:226 5:253 6:254 7:646 8:775 9:677 
-0.00051721851755430622 0 0.0027638477660940079 0 1:231 2:255 3:215 4:229 5:250 6:212 7:641 8:770 9:656 
-0 0 0.0013308619848334104 0 1:229 2:255 3:215 4:227 5:248 6:210 7:641 8:770 9:656 
-0 0.0016035015898068976 0 0 1:227 2:249 3:210 4:224 5:247 6:207 7:641 8:770 9:657 
-0 0 0.004134748197086092 0 1:224 2:247 3:207 4:223 5:246 6:206 7:641 8:770 9:656 
-0 0.0040420566290280107 0 0 1:233 2:255 3:216 4:228 5:249 6:211 7:641 8:770 9:656 
-0 0 0.0018791530050929982 0 1:108 2:196 3:36 4:109 5:199 6:41 7:545 8:656 9:473 
-0 0 0 6.0469936604039212e-05 1:121 2:191 3:21 4:124 5:193 6:27 7:533 8:644 9:460 
-0 -0 0.00058805500394378592 0.0002417988943120439 1:121 2:184 3:25 4:123 5:192 6:27 7:534 8:645 9:460 
-0.0020373744067653291 -0 0 0 1:255 2:255 3:255 4:249 5:254 6:249 7:642 8:768 9:666 
-0.001378861237310547 -0 0 0 1:249 2:255 3:247 4:247 5:253 6:246 7:642 8:768 9:666 
-0.00081721793725555579 -0 0 0 1:255 2:255 3:255 4:252 5:254 6:252 7:642 8:768 9:666 
-6.5586316192883418e-05 -0 0 0 1:255 2:255 3:255 4:251 5:254 6:251 7:642 8:768 9:666 
-0.00016992503376743489 -0 0 0 1:236 2:255 3:238 4:239 5:249 6:236 7:641 8:766 9:664 
-0 -0.00079443348079874185 0 0 1:235 2:255 3:233 4:238 5:248 6:235 7:641 8:766 9:664 
-0.00034936936909618112 -0 0 0 1:225 2:236 3:224 4:225 5:236 6:220 7:642 8:767 9:667 
-0 -0.002417668654805351 0 0 1:235 2:245 3:224 4:232 5:242 6:223 7:641 8:766 9:666 
-0 -0.0014715636482156189 0 0 1:232 2:241 3:206 4:227 5:236 6:207 7:633 8:752 9:651 
-0 -0.00096189243501519541 0 0 1:225 2:239 3:207 4:226 5:235 6:206 7:633 8:753 9:651 
-0 -0 0.00076428011903436493 0 1:197 2:203 3:158 4:197 5:203 6:160 7:611 8:722 9:620 
-0 -0 0.0026991121726693298 0 1:203 2:210 3:156 4:201 5:207 6:156 7:601 8:706 9:603 
-0 -0 0.0065579390156301062 0 1:196 2:203 3:152 4:195 5:200 6:149 7:601 8:707 9:604 
-0 -0 0 2.1038679612467523e-05 1:196 2:201 3:153 4:192 5:197 6:148 7:601 8:707 9:604 
-0.00024777006937562549 -0.0010124436202899184 -0.0064392129151006052 0 1:196 2:226 3:210 4:191 5:226 6:209 7:642 8:764 9:658 
-0 -0.0026838839345033473 -0 0 1:184 2:226 3:202 4:188 5:224 6:206 7:642 8:764 9:657 
-0 -8.4483476875810295e-05 -0 0 1:184 2:226 3:210 4:188 5:224 6:206 7:642 8:764 9:658 
-0 -0.0069158549253812204 -0 0 1:207 2:243 3:151 4:205 5:237 6:155 7:615 8:715 9:591 
-0 -0 -0.00037347053126508112 0 1:214 2:192 3:65 4:209 5:191 6:62 7:562 8:637 9:503 
-0 -0 -0.00039755936519435525 0 1:214 2:195 3:63 4:210 5:191 6:62 7:562 8:637 9:503 
-0 -0 -7.4288631507880064e-05 0 1:214 2:192 3:65 4:210 5:191 6:62 7:562 8:636 9:502 
-0 -0 -0.0027367998642658883 0 1:191 2:162 3:45 4:190 5:165 6:46 7:547 8:614 9:479 
-0 -0 -0 0.00038610038610038225 1:188 2:162 3:39 4:187 5:160 6:38 7:537 8:599 9:460 
-7.8173858661663523e-06 -0 -2.1038679612467523e-05 -0.00038610038610038225 1:152 2:146 3:28 4:153 5:146 6:25 7:517 8:580 9:425 
-0 -8.5703705438690348e-05 -0 -0 1:145 2:145 3:22 4:146 5:149 6:24 7:517 8:586 9:426 
-0 -0.0002165651254773928 -0 -0 1:109 2:177 4:108 5:173 6:15 7:499 8:600 9:412 
