svm_type epsilon_svr
kernel_type linear
nr_class 2
total_sv 88
rho -0.63536896100042017
SV
1 1:150 2:131 3:14 4:150 5:133 6:25 7:499 8:552 9:406 
-1 1:148 2:130 3:14 4:146 5:131 6:23 7:498 8:552 9:405 
-1 1:150 2:131 3:14 4:148 5:132 6:24 7:497 8:551 9:404 
-1 1:149 2:130 3:11 4:146 5:131 6:23 7:496 8:550 9:403 
-0.19799695668652975 1:150 2:132 3:11 4:148 5:133 6:23 7:503 8:559 9:412 
-0.077777715828844893 1:150 2:131 3:27 4:148 5:132 6:23 7:502 8:558 9:411 
-1 1:150 2:131 3:14 4:148 5:132 6:23 7:502 8:558 9:411 
-1 1:150 2:131 3:14 4:148 5:132 6:23 7:502 8:558 9:411 
1 1:150 2:131 3:27 4:149 5:132 6:23 7:502 8:556 9:410 
-1 1:145 2:131 3:14 4:146 5:131 6:23 7:507 8:563 9:414 
-1 1:150 2:131 3:14 4:147 5:132 6:23 7:506 8:562 9:413 
-1 1:151 2:142 3:10 4:151 5:144 6:24 7:513 8:577 9:422 
1 1:152 2:142 3:10 4:152 5:144 6:25 7:514 8:577 9:423 
-1 1:146 2:142 3:10 4:151 5:144 6:23 7:513 8:577 9:422 
0.65808126116939647 1:152 2:146 3:22 4:153 5:145 6:24 7:514 8:577 9:423 
1 1:146 2:142 3:10 4:151 5:143 6:24 7:516 8:579 9:425 
0.58274744221571861 1:146 2:141 3:10 4:150 5:143 6:23 7:516 8:579 9:425 
1 1:150 2:142 3:10 4:152 5:144 6:24 7:516 8:579 9:425 
1 1:150 2:141 3:23 4:152 5:145 6:24 7:516 8:579 9:425 
1 1:150 2:144 3:22 4:152 5:145 6:25 7:515 8:578 9:424 
-1 1:146 2:139 3:9 4:145 5:139 6:21 7:513 8:577 9:422 
1 1:144 2:143 3:22 4:144 5:147 6:22 7:516 8:585 9:426 
1 1:144 2:143 3:22 4:143 5:146 6:22 7:516 8:585 9:426 
-1 1:144 2:143 3:22 4:142 5:146 6:22 7:514 8:584 9:424 
1 1:144 2:143 3:22 4:143 5:146 6:22 7:514 8:582 9:423 
1 1:139 2:143 3:23 4:139 5:143 6:22 7:512 8:580 9:422 
-1 1:120 2:139 3:20 4:124 5:140 6:18 7:511 8:586 9:422 
-1 1:120 2:137 3:18 4:123 5:139 6:17 7:512 8:587 9:423 
-1 1:120 2:137 3:21 4:124 5:139 6:17 7:511 8:586 9:422 
-1 1:120 2:137 3:21 4:123 5:138 6:17 7:511 8:586 9:422 
-1 1:120 2:139 3:12 4:124 5:140 6:17 7:514 8:589 9:424 
-1 1:120 2:137 3:12 4:123 5:139 6:17 7:513 8:589 9:424 
-1 1:120 2:139 3:12 4:124 5:139 6:17 7:509 8:584 9:420 
-1 1:120 2:137 3:18 4:124 5:139 6:17 7:510 8:585 9:421 
0.98929960828275965 1:126 2:144 3:22 4:127 5:142 6:19 7:515 8:589 9:425 
-1 1:120 2:137 3:18 4:124 5:139 6:17 7:517 8:593 9:427 
-0.52327552324025217 1:120 2:137 3:12 4:124 5:139 6:18 7:516 8:592 9:427 
-0.10785812070498629 1:128 2:139 3:12 4:126 5:141 6:18 7:516 8:592 9:427 
-0.91649640023428625 1:128 2:139 3:12 4:126 5:141 6:18 7:516 8:592 9:427 
-1 1:120 2:137 3:18 4:123 5:138 6:17 7:516 8:592 9:427 
-1 1:120 2:137 3:12 4:124 5:139 6:17 7:515 8:591 9:426 
0.82443747527928424 1:120 2:137 3:18 4:122 5:137 6:16 7:512 8:585 9:422 
-1 1:120 2:137 3:18 4:123 5:138 6:17 7:513 8:588 9:423 
1 1:116 2:143 3:11 4:120 5:142 6:16 7:509 8:588 9:420 
1 1:117 2:143 3:14 4:121 5:143 6:16 7:506 8:585 9:418 
0.74913043414770708 1:117 2:141 3:14 4:121 5:143 6:16 7:506 8:585 9:418 
-0.1913890680932939 1:116 2:143 3:22 4:120 5:143 6:16 7:507 8:587 9:418 
1 1:117 2:141 3:14 4:121 5:143 6:16 7:506 8:585 9:418 
1 1:116 2:143 3:11 4:119 5:142 6:15 7:507 8:586 9:419 
1 1:119 2:143 3:11 4:120 5:142 6:16 7:505 8:583 9:416 
1 1:116 2:143 4:120 5:142 6:15 7:503 8:581 9:415 
1 1:119 2:143 3:22 4:121 5:144 6:16 7:503 8:581 9:415 
1 1:119 2:143 3:22 4:123 5:145 6:17 7:506 8:584 9:417 
-0.26394137498283615 1:125 2:147 3:21 4:124 5:156 6:18 7:497 8:579 9:405 
-0.037977918506892694 1:125 2:147 3:21 4:124 5:156 6:18 7:497 8:579 9:405 
-0.92633582948168025 1:119 2:147 3:3 4:123 5:155 6:18 7:497 8:579 9:405 
-0.10563550240732046 1:125 2:147 3:21 4:124 5:156 6:18 7:497 8:579 9:405 
1 1:119 2:152 3:4 4:123 5:154 6:18 7:498 8:579 9:406 
1 1:109 2:149 3:3 4:114 5:156 6:14 7:498 8:585 9:408 
1 1:109 2:149 4:116 5:158 6:15 7:498 8:585 9:408 
1 1:107 2:157 4:107 5:158 6:14 7:500 8:594 9:411 
1 1:107 2:157 4:107 5:158 6:14 7:500 8:594 9:411 
1 1:101 2:155 4:102 5:152 6:12 7:500 8:594 9:411 
1 1:107 2:157 4:107 5:158 6:14 7:500 8:594 9:411 
1 1:107 2:157 4:106 5:157 6:14 7:500 8:594 9:411 
1 1:107 2:157 4:106 5:157 6:14 7:500 8:594 9:411 
1 1:107 2:157 4:108 5:159 6:14 7:500 8:594 9:411 
1 1:107 2:157 4:107 5:158 6:14 7:500 8:594 9:411 
1 1:107 2:157 4:107 5:158 6:14 7:500 8:594 9:411 
1 1:107 2:157 4:107 5:158 6:14 7:500 8:594 9:411 
1 1:107 2:157 4:109 5:160 6:15 7:500 8:594 9:411 
1 1:107 2:157 4:107 5:158 6:14 7:500 8:594 9:411 
1 1:107 2:157 4:107 5:158 6:14 7:500 8:594 9:411 
0.54498864830613358 1:107 2:157 4:105 5:156 6:13 7:500 8:594 9:411 
-1 1:107 2:170 4:106 5:171 6:14 7:499 8:600 9:411 
-1 1:103 2:172 4:107 5:172 6:14 7:499 8:600 9:411 
-4.592340362331573e-07 1:103 2:172 4:107 5:171 6:14 7:499 8:600 9:411 
-1 1:103 2:166 4:105 5:168 6:13 7:499 8:600 9:411 
-1 1:103 2:170 4:105 5:169 6:13 7:499 8:600 9:411 
-1 1:107 2:170 4:106 5:170 6:14 7:499 8:600 9:411 
-1 1:103 2:166 4:105 5:169 6:13 7:499 8:600 9:411 
-1 1:103 2:170 4:106 5:170 6:14 7:499 8:600 9:411 
-1 1:103 2:170 4:105 5:169 6:13 7:499 8:600 9:411 
-1 1:103 2:170 4:106 5:170 6:14 7:499 8:600 9:411 
-1 1:103 2:170 4:105 5:169 6:13 7:499 8:600 9:411 
-1 1:103 2:166 4:105 5:168 6:13 7:499 8:600 9:411 
-1 1:103 2:170 4:106 5:170 6:14 7:499 8:600 9:411 
-1 1:103 2:166 4:104 5:168 6:13 7:499 8:600 9:411 
