svm_type epsilon_svr
kernel_type linear
nr_class 2
total_sv 937
rho -227.40717945703875
SV
-1 1:242 2:255 3:255 4:237 5:254 6:254 7:646 8:775 9:677 
1 1:237 2:255 3:255 4:232 5:254 6:254 7:646 8:775 9:677 
-1 1:240 2:255 3:255 4:238 5:254 6:254 7:646 8:775 9:677 
1 1:237 2:255 3:255 4:234 5:254 6:254 7:646 8:775 9:677 
-1 1:242 2:255 3:255 4:239 5:254 6:254 7:646 8:775 9:677 
1 1:237 2:255 3:255 4:234 5:254 6:254 7:646 8:775 9:677 
-1 1:242 2:255 3:255 4:238 5:254 6:254 7:646 8:775 9:677 
1 1:236 2:255 3:255 4:233 5:254 6:254 7:646 8:775 9:677 
1 1:237 2:255 3:255 4:234 5:254 6:254 7:646 8:775 9:677 
1 1:237 2:255 3:255 4:234 5:254 6:254 7:646 8:775 9:677 
1 1:237 2:255 3:255 4:234 5:254 6:254 7:646 8:775 9:677 
-1 1:242 2:255 3:255 4:238 5:254 6:254 7:646 8:775 9:677 
1 1:237 2:255 3:255 4:234 5:254 6:254 7:646 8:775 9:677 
1 1:229 2:255 3:255 4:230 5:254 6:254 7:646 8:775 9:677 
1 1:237 2:255 3:255 4:234 5:254 6:254 7:646 8:775 9:677 
1 1:237 2:255 3:255 4:234 5:254 6:254 7:646 8:775 9:677 
1 1:223 2:255 3:255 4:226 5:253 6:254 7:646 8:775 9:677 
1 1:237 2:255 3:255 4:233 5:254 6:254 7:647 8:775 9:677 
1 1:236 2:255 3:255 4:234 5:254 6:254 7:647 8:775 9:677 
0.77984045514902645 1:237 2:255 3:255 4:234 5:254 6:254 7:647 8:775 9:677 
1 1:237 2:255 3:255 4:234 5:254 6:254 7:647 8:775 9:677 
1 1:237 2:255 3:255 4:233 5:254 6:254 7:646 8:775 9:677 
1 1:239 2:255 3:255 4:233 5:254 6:254 7:646 8:775 9:677 
-1 1:239 2:255 3:255 4:237 5:254 6:254 7:647 8:775 9:677 
0.45447651465981487 1:237 2:255 3:255 4:234 5:254 6:254 7:647 8:775 9:677 
-1 1:242 2:255 3:255 4:236 5:254 6:254 7:647 8:775 9:677 
1 1:237 2:255 3:255 4:233 5:254 6:254 7:647 8:775 9:677 
1 1:233 2:255 3:255 4:232 5:254 6:254 7:647 8:775 9:677 
-1 1:242 2:255 3:255 4:236 5:254 6:254 7:647 8:775 9:677 
1 1:236 2:255 3:255 4:234 5:254 6:254 7:647 8:775 9:677 
0.24904182407889638 1:237 2:255 3:255 4:234 5:254 6:254 7:647 8:775 9:677 
1 1:239 2:255 3:255 4:233 5:254 6:254 7:647 8:775 9:677 
1 1:239 2:255 3:255 4:233 5:254 6:254 7:647 8:775 9:677 
0.066816581300054134 1:237 2:255 3:255 4:234 5:254 6:254 7:647 8:775 9:677 
1 1:237 2:255 3:255 4:234 5:254 6:254 7:646 8:775 9:677 
0.58345531095578662 1:237 2:255 3:255 4:234 5:254 6:254 7:647 8:775 9:677 
1 1:236 2:255 3:255 4:233 5:254 6:254 7:647 8:775 9:677 
0.0052770502283920025 1:237 2:255 3:255 4:234 5:254 6:254 7:647 8:775 9:677 
1 1:182 2:224 3:210 4:188 5:224 6:206 7:642 8:764 9:658 
1 1:182 2:224 3:204 4:189 5:225 6:207 7:642 8:764 9:658 
1 1:184 2:226 3:210 4:189 5:225 6:207 7:642 8:764 9:658 
1 1:185 2:224 3:207 4:190 5:226 6:209 7:642 8:764 9:658 
1 1:182 2:224 3:205 4:188 5:223 6:206 7:642 8:764 9:658 
1 1:184 2:226 3:210 4:190 5:226 6:208 7:642 8:764 9:658 
1 1:184 2:224 3:202 4:188 5:224 6:206 7:642 8:764 9:658 
1 1:186 2:224 3:205 4:190 5:226 6:209 7:642 8:764 9:658 
1 1:185 2:224 3:207 4:190 5:226 6:209 7:642 8:764 9:658 
1 1:184 2:224 3:210 4:189 5:224 6:206 7:642 8:764 9:658 
1 1:184 2:224 3:202 4:188 5:224 6:206 7:642 8:764 9:658 
1 1:185 2:224 3:204 4:189 5:225 6:208 7:642 8:764 9:658 
1 1:182 2:224 3:210 4:187 5:222 6:205 7:642 8:764 9:658 
1 1:183 2:224 3:204 4:189 5:225 6:208 7:642 8:764 9:658 
1 1:185 2:224 3:204 4:190 5:226 6:208 7:642 8:764 9:658 
1 1:184 2:226 3:210 4:189 5:224 6:207 7:642 8:764 9:658 
1 1:183 2:224 3:204 4:189 5:225 6:208 7:642 8:764 9:658 
1 1:183 2:224 3:204 4:190 5:226 6:208 7:642 8:764 9:658 
-0.23951150236229166 1:184 2:226 3:202 4:189 5:224 6:207 7:642 8:764 9:658 
1 1:184 2:226 3:210 4:189 5:225 6:207 7:642 8:764 9:658 
-1 1:184 2:224 3:202 4:189 5:225 6:207 7:642 8:764 9:658 
1 1:183 2:224 3:207 4:189 5:225 6:207 7:642 8:764 9:658 
1 1:184 2:226 3:202 4:188 5:224 6:206 7:642 8:764 9:658 
1 1:184 2:226 3:202 4:189 5:225 6:207 7:642 8:763 9:658 
1 1:183 2:224 3:207 4:190 5:225 6:208 7:642 8:764 9:658 
1 1:184 2:224 3:210 4:190 5:226 6:208 7:642 8:764 9:658 
1 1:183 2:224 3:204 4:189 5:225 6:207 7:642 8:764 9:658 
1 1:184 2:224 3:210 4:190 5:225 6:208 7:642 8:764 9:658 
1 1:182 2:224 3:210 4:189 5:224 6:207 7:642 8:764 9:658 
1 1:187 2:224 3:205 4:190 5:226 6:208 7:642 8:764 9:658 
1 1:183 2:224 3:204 4:189 5:225 6:208 7:642 8:764 9:658 
1 1:184 2:226 3:210 4:187 5:223 6:206 7:642 8:764 9:658 
1 1:183 2:224 3:204 4:190 5:225 6:208 7:642 8:764 9:658 
1 1:184 2:226 3:202 4:188 5:222 6:205 7:642 8:764 9:658 
1 1:187 2:224 3:205 4:190 5:226 6:208 7:642 8:764 9:658 
1 1:183 2:226 3:208 4:191 5:227 6:209 7:642 8:764 9:658 
1 1:182 2:224 3:210 4:189 5:225 6:207 7:642 8:764 9:658 
1 1:183 2:224 3:210 4:189 5:225 6:207 7:642 8:764 9:658 
1 1:184 2:226 3:210 4:191 5:226 6:209 7:642 8:764 9:657 
1 1:183 2:224 3:210 4:189 5:225 6:207 7:642 8:764 9:658 
1 1:184 2:224 3:210 4:189 5:224 6:207 7:642 8:764 9:658 
1 1:184 2:224 3:210 4:189 5:224 6:207 7:642 8:764 9:658 
1 1:196 2:226 3:210 4:191 5:226 6:209 7:642 8:764 9:658 
1 1:184 2:224 3:210 4:188 5:224 6:206 7:642 8:764 9:658 
-1 1:184 2:226 3:202 4:188 5:224 6:206 7:642 8:764 9:657 
-1 1:184 2:224 3:202 4:189 5:225 6:207 7:642 8:764 9:657 
1 1:183 2:224 3:210 4:190 5:226 6:208 7:642 8:764 9:658 
1 1:187 2:224 3:205 4:190 5:226 6:208 7:642 8:764 9:658 
1 1:183 2:224 3:207 4:190 5:226 6:208 7:642 8:764 9:658 
1 1:184 2:226 3:202 4:188 5:224 6:206 7:642 8:764 9:658 
1 1:183 2:227 3:205 4:189 5:224 6:207 7:642 8:764 9:658 
-1 1:183 2:224 3:204 4:189 5:225 6:207 7:642 8:764 9:657 
1 1:186 2:224 3:210 4:191 5:226 6:209 7:642 8:764 9:658 
1 1:183 2:224 3:204 4:190 5:225 6:208 7:642 8:764 9:658 
1 1:182 2:224 3:210 4:188 5:223 6:206 7:642 8:764 9:658 
1 1:183 2:224 3:204 4:190 5:225 6:208 7:642 8:764 9:658 
1 1:187 2:224 3:205 4:190 5:226 6:208 7:642 8:764 9:658 
-0.30011697237858825 1:184 2:226 3:202 4:189 5:224 6:207 7:642 8:764 9:658 
1 1:181 2:224 3:205 4:185 5:220 6:202 7:642 8:764 9:658 
1 1:183 2:224 3:204 4:190 5:226 6:208 7:642 8:764 9:658 
1 1:184 2:226 3:210 4:188 5:224 6:206 7:642 8:764 9:658 
1 1:184 2:224 3:210 4:188 5:224 6:206 7:642 8:764 9:658 
1 1:182 2:221 3:204 4:189 5:225 6:207 7:642 8:764 9:658 
1 1:186 2:224 3:205 4:190 5:225 6:208 7:642 8:764 9:658 
1 1:185 2:224 3:204 4:190 5:226 6:208 7:642 8:764 9:658 
1 1:183 2:224 3:204 4:189 5:225 6:207 7:642 8:764 9:658 
1 1:183 2:224 3:204 4:190 5:225 6:208 7:642 8:764 9:658 
1 1:184 2:224 3:210 4:189 5:224 6:206 7:642 8:764 9:658 
1 1:184 2:226 3:202 4:188 5:224 6:206 7:642 8:764 9:658 
1 1:187 2:224 3:207 4:190 5:226 6:208 7:642 8:764 9:658 
1 1:185 2:224 3:204 4:190 5:226 6:208 7:642 8:764 9:658 
1 1:185 2:224 3:204 4:190 5:226 6:208 7:642 8:764 9:658 
1 1:184 2:224 3:210 4:190 5:225 6:208 7:642 8:764 9:658 
1 1:184 2:224 3:210 4:188 5:223 6:206 7:642 8:764 9:658 
1 1:182 2:224 3:205 4:187 5:222 6:205 7:642 8:764 9:658 
1 1:187 2:224 3:205 4:190 5:225 6:208 7:642 8:764 9:658 
1 1:184 2:226 3:210 4:189 5:225 6:207 7:642 8:764 9:658 
1 1:186 2:224 3:205 4:190 5:226 6:208 7:642 8:764 9:658 
1 1:185 2:224 3:210 4:190 5:226 6:208 7:642 8:764 9:658 
1 1:182 2:224 3:210 4:189 5:225 6:207 7:642 8:764 9:658 
1 1:184 2:224 3:210 4:189 5:224 6:207 7:642 8:764 9:658 
1 1:183 2:224 3:210 4:190 5:225 6:208 7:642 8:764 9:658 
1 1:184 2:226 3:210 4:188 5:224 6:207 7:642 8:764 9:658 
1 1:184 2:224 3:210 4:190 5:226 6:209 7:642 8:764 9:658 
1 1:185 2:224 3:210 4:189 5:224 6:207 7:642 8:764 9:658 
1 1:185 2:224 3:210 4:189 5:225 6:207 7:642 8:764 9:658 
1 1:183 2:224 3:210 4:189 5:225 6:208 7:642 8:764 9:658 
1 1:183 2:224 3:204 4:190 5:225 6:208 7:642 8:764 9:658 
1 1:183 2:224 3:210 4:189 5:224 6:207 7:642 8:764 9:658 
1 1:182 2:224 3:210 4:189 5:224 6:207 7:642 8:764 9:658 
1 1:183 2:224 3:204 4:190 5:225 6:208 7:642 8:764 9:658 
1 1:184 2:224 3:202 4:188 5:223 6:206 7:642 8:764 9:658 
1 1:185 2:224 3:210 4:190 5:225 6:208 7:642 8:764 9:658 
-1 1:190 2:225 3:185 4:191 5:222 6:186 7:628 8:740 9:626 
-1 1:190 2:222 3:185 4:191 5:222 6:186 7:628 8:740 9:626 
-1 1:194 2:222 3:193 4:193 5:224 6:189 7:628 8:740 9:626 
-1 1:190 2:225 3:191 4:193 5:223 6:188 7:628 8:740 9:626 
-1 1:194 2:220 3:184 4:192 5:223 6:188 7:628 8:740 9:626 
-1 1:192 2:222 3:179 4:190 5:221 6:186 7:628 8:740 9:627 
-1 1:187 2:222 3:185 4:191 5:222 6:186 7:628 8:740 9:626 
-1 1:190 2:225 3:191 4:193 5:224 6:188 7:628 8:740 9:627 
-1 1:190 2:220 3:185 4:190 5:221 6:185 7:628 8:740 9:627 
-1 1:192 2:220 3:188 4:191 5:222 6:187 7:628 8:740 9:627 
-1 1:190 2:225 3:185 4:191 5:222 6:186 7:628 8:740 9:626 
-1 1:199 2:224 3:193 4:194 5:224 6:189 7:628 8:740 9:626 
-1 1:194 2:222 3:193 4:193 5:224 6:189 7:628 8:740 9:626 
-1 1:190 2:225 3:191 4:191 5:222 6:187 7:628 8:740 9:627 
-1 1:192 2:225 3:188 4:193 5:223 6:188 7:628 8:740 9:627 
-1 1:192 2:225 3:188 4:195 5:225 6:190 7:628 8:740 9:627 
-1 1:188 2:220 3:184 4:191 5:221 6:186 7:628 8:740 9:627 
-1 1:192 2:220 3:184 4:191 5:222 6:187 7:628 8:740 9:627 
-1 1:192 2:222 3:179 4:191 5:222 6:187 7:628 8:740 9:627 
-1 1:192 2:222 3:187 4:191 5:222 6:186 7:628 8:740 9:627 
-1 1:190 2:222 3:191 4:192 5:223 6:188 7:628 8:740 9:627 
-1 1:190 2:220 3:185 4:190 5:221 6:186 7:628 8:740 9:627 
-1 1:192 2:225 3:188 4:194 5:224 6:189 7:628 8:741 9:627 
-1 1:187 2:222 3:185 4:191 5:221 6:186 7:628 8:741 9:627 
-1 1:192 2:220 3:184 4:191 5:222 6:187 7:628 8:741 9:627 
-1 1:188 2:220 3:184 4:191 5:222 6:187 7:628 8:740 9:627 
-1 1:190 2:222 3:182 4:191 5:222 6:186 7:628 8:740 9:627 
-1 1:188 2:220 3:184 4:191 5:222 6:186 7:628 8:740 9:627 
-1 1:192 2:220 3:184 4:191 5:222 6:187 7:628 8:740 9:627 
-1 1:190 2:220 3:184 4:191 5:222 6:186 7:628 8:740 9:627 
-1 1:188 2:220 3:184 4:191 5:222 6:187 7:628 8:741 9:627 
-1 1:188 2:220 3:184 4:191 5:222 6:187 7:628 8:740 9:626 
-1 1:194 2:220 3:184 4:191 5:222 6:186 7:628 8:740 9:626 
-1 1:188 2:220 3:184 4:191 5:222 6:186 7:628 8:740 9:627 
-1 1:192 2:220 3:188 4:192 5:223 6:187 7:628 8:740 9:627 
-1 1:190 2:220 3:184 4:191 5:222 6:187 7:628 8:740 9:627 
-1 1:188 2:220 3:184 4:191 5:222 6:187 7:628 8:740 9:627 
-1 1:194 2:222 3:180 4:190 5:221 6:185 7:628 8:740 9:626 
-1 1:188 2:220 3:184 4:191 5:222 6:187 7:628 8:740 9:627 
-1 1:188 2:220 3:184 4:192 5:222 6:187 7:628 8:740 9:626 
-1 1:190 2:220 3:179 4:190 5:221 6:185 7:628 8:740 9:626 
-1 1:190 2:220 3:184 4:191 5:222 6:186 7:628 8:740 9:627 
-1 1:192 2:220 3:184 4:192 5:222 6:187 7:628 8:740 9:626 
-1 1:188 2:220 3:182 4:191 5:221 6:186 7:628 8:740 9:626 
-1 1:180 2:213 3:177 4:182 5:213 6:177 7:628 8:740 9:627 
-1 1:190 2:222 3:185 4:192 5:222 6:187 7:628 8:740 9:627 
-1 1:190 2:220 3:179 4:189 5:220 6:185 7:628 8:740 9:627 
-1 1:197 2:222 3:184 4:193 5:223 6:188 7:628 8:740 9:627 
-1 1:189 2:222 3:179 4:191 5:222 6:186 7:628 8:740 9:627 
-1 1:190 2:220 3:188 4:190 5:220 6:185 7:628 8:740 9:627 
-1 1:194 2:222 3:188 4:192 5:223 6:188 7:628 8:740 9:627 
-1 1:188 2:220 3:184 4:192 5:222 6:187 7:629 8:741 9:627 
-1 1:188 2:220 3:184 4:191 5:222 6:186 7:628 8:741 9:627 
-1 1:190 2:225 3:191 4:192 5:223 6:187 7:628 8:741 9:627 
-1 1:190 2:222 3:185 4:190 5:221 6:185 7:628 8:740 9:627 
-1 1:188 2:220 3:184 4:192 5:222 6:187 7:628 8:740 9:627 
-1 1:192 2:220 3:188 4:192 5:222 6:187 7:628 8:740 9:627 
-1 1:188 2:220 3:184 4:191 5:222 6:186 7:628 8:740 9:626 
-1 1:188 2:220 3:184 4:191 5:221 6:186 7:628 8:741 9:627 
-1 1:188 2:220 3:184 4:191 5:222 6:186 7:628 8:741 9:627 
-1 1:190 2:225 3:191 4:192 5:223 6:187 7:628 8:740 9:627 
-1 1:190 2:222 3:185 4:190 5:221 6:185 7:629 8:741 9:627 
-1 1:192 2:220 3:188 4:190 5:220 6:185 7:628 8:741 9:627 
-1 1:192 2:222 3:179 4:190 5:221 6:185 7:628 8:741 9:627 
-1 1:190 2:222 3:191 4:191 5:222 6:186 7:628 8:741 9:627 
-1 1:190 2:225 3:185 4:190 5:221 6:186 7:628 8:740 9:627 
-1 1:190 2:220 3:185 4:190 5:220 6:185 7:628 8:741 9:627 
-1 1:188 2:220 3:184 4:191 5:221 6:186 7:628 8:740 9:627 
-1 1:190 2:220 3:184 4:191 5:222 6:186 7:628 8:741 9:627 
-1 1:188 2:220 3:184 4:192 5:222 6:187 7:628 8:741 9:627 
-1 1:188 2:220 3:184 4:192 5:222 6:187 7:628 8:740 9:627 
-1 1:188 2:220 3:184 4:191 5:221 6:186 7:628 8:741 9:627 
-1 1:190 2:222 3:191 4:192 5:222 6:187 7:628 8:740 9:626 
-1 1:188 2:220 3:184 4:191 5:221 6:186 7:628 8:740 9:627 
-1 1:190 2:220 3:179 4:189 5:220 6:184 7:628 8:740 9:627 
-1 1:190 2:225 3:191 4:194 5:225 6:189 7:628 8:740 9:626 
-1 1:188 2:220 3:184 4:191 5:221 6:186 7:628 8:740 9:626 
-1 1:194 2:220 3:184 4:191 5:222 6:187 7:628 8:740 9:627 
-1 1:190 2:220 3:179 4:190 5:220 6:185 7:628 8:740 9:627 
-1 1:188 2:220 3:184 4:191 5:222 6:187 7:628 8:740 9:627 
-1 1:190 2:220 3:184 4:191 5:222 6:187 7:628 8:740 9:627 
-1 1:190 2:220 3:188 4:190 5:220 6:185 7:628 8:740 9:627 
-1 1:190 2:220 3:179 4:189 5:220 6:185 7:628 8:740 9:627 
-1 1:185 2:211 3:179 4:185 5:215 6:180 7:628 8:740 9:626 
-1 1:194 2:222 3:188 4:191 5:221 6:186 7:628 8:740 9:627 
-1 1:190 2:220 3:179 4:190 5:221 6:185 7:628 8:740 9:627 
-1 1:192 2:220 3:188 4:190 5:220 6:185 7:628 8:740 9:627 
-1 1:188 2:220 3:184 4:191 5:221 6:186 7:628 8:741 9:627 
-1 1:192 2:220 3:188 4:192 5:222 6:187 7:628 8:741 9:626 
-1 1:190 2:222 3:185 4:191 5:221 6:186 7:628 8:740 9:626 
-1 1:190 2:222 3:191 4:191 5:222 6:187 7:628 8:741 9:627 
-1 1:190 2:220 3:180 4:189 5:219 6:184 7:628 8:740 9:626 
-1 1:190 2:220 3:191 4:190 5:221 6:186 7:628 8:740 9:626 
-1 1:190 2:220 3:191 4:191 5:222 6:186 7:628 8:740 9:626 
-1 1:188 2:220 3:184 4:191 5:221 6:186 7:628 8:740 9:626 
-1 1:188 2:220 3:184 4:191 5:222 6:186 7:628 8:741 9:627 
-1 1:190 2:220 3:184 4:191 5:221 6:186 7:628 8:740 9:627 
-1 1:190 2:225 3:191 4:191 5:222 6:187 7:628 8:740 9:626 
-1 1:205 2:245 3:178 4:203 5:239 6:177 7:621 8:727 9:608 
-1 1:206 2:245 3:181 4:206 5:242 6:180 7:621 8:727 9:608 
-1 1:209 2:248 3:183 4:207 5:243 6:181 7:621 8:727 9:608 
-1 1:209 2:248 3:183 4:207 5:243 6:182 7:621 8:727 9:608 
1 1:206 2:245 3:181 4:204 5:240 6:178 7:621 8:727 9:609 
-1 1:209 2:249 3:183 4:208 5:243 6:182 7:621 8:727 9:608 
-1 1:205 2:245 3:179 4:202 5:239 6:176 7:621 8:727 9:608 
-1 1:206 2:245 3:181 4:204 5:240 6:178 7:621 8:727 9:608 
-1 1:206 2:245 3:181 4:205 5:241 6:180 7:621 8:727 9:608 
-1 1:209 2:245 3:183 4:206 5:241 6:180 7:621 8:727 9:608 
-1 1:206 2:245 3:181 4:203 5:239 6:178 7:621 8:727 9:608 
-1 1:206 2:245 3:181 4:205 5:240 6:179 7:621 8:727 9:608 
-1 1:206 2:245 3:181 4:203 5:240 6:178 7:621 8:727 9:608 
-1 1:206 2:245 3:181 4:204 5:240 6:178 7:621 8:727 9:608 
-1 1:206 2:245 3:181 4:203 5:239 6:177 7:621 8:727 9:608 
-1 1:206 2:245 3:181 4:203 5:239 6:177 7:621 8:727 9:608 
-0.32125473609022626 1:205 2:245 3:182 4:204 5:240 6:178 7:621 8:727 9:608 
1 1:205 2:245 3:181 4:202 5:239 6:176 7:621 8:727 9:608 
-1 1:205 2:243 3:178 4:202 5:238 6:177 7:621 8:727 9:608 
-1 1:205 2:245 3:182 4:204 5:240 6:179 7:621 8:727 9:608 
-1 1:209 2:247 3:183 4:207 5:243 6:181 7:621 8:727 9:608 
-1 1:207 2:245 3:182 4:204 5:240 6:179 7:620 8:726 9:608 
-1 1:205 2:245 3:182 4:205 5:240 6:179 7:620 8:726 9:608 
-1 1:206 2:245 3:181 4:205 5:241 6:179 7:620 8:726 9:608 
-1 1:206 2:245 3:181 4:204 5:240 6:178 7:620 8:726 9:608 
-1 1:207 2:245 3:182 4:205 5:240 6:179 7:621 8:727 9:608 
-1 1:206 2:245 3:181 4:203 5:239 6:177 7:621 8:727 9:608 
-1 1:206 2:245 3:181 4:204 5:240 6:178 7:621 8:727 9:608 
1 1:199 2:240 3:178 4:198 5:234 6:172 7:621 8:727 9:608 
-1 1:207 2:245 3:182 4:204 5:240 6:178 7:621 8:727 9:608 
-1 1:204 2:243 3:181 4:202 5:239 6:177 7:621 8:727 9:608 
-1 1:207 2:245 3:182 4:204 5:240 6:178 7:621 8:727 9:608 
-1 1:207 2:245 3:182 4:205 5:241 6:179 7:621 8:727 9:608 
-1 1:205 2:245 3:182 4:204 5:239 6:178 7:621 8:727 9:608 
-1 1:205 2:245 3:182 4:205 5:240 6:179 7:621 8:727 9:608 
-1 1:205 2:242 3:179 4:203 5:239 6:177 7:621 8:727 9:608 
-1 1:207 2:245 3:182 4:204 5:240 6:178 7:621 8:727 9:608 
-1 1:206 2:245 3:181 4:204 5:240 6:179 7:621 8:727 9:608 
-1 1:205 2:245 3:182 4:204 5:239 6:178 7:621 8:727 9:608 
-0.43375505392531805 1:205 2:245 3:182 4:204 5:240 6:178 7:621 8:727 9:608 
-1 1:207 2:243 3:182 4:204 5:240 6:179 7:621 8:727 9:608 
-1 1:206 2:245 3:181 4:204 5:240 6:178 7:621 8:727 9:608 
-1 1:206 2:245 3:181 4:205 5:240 6:179 7:621 8:727 9:608 
-1 1:205 2:245 3:182 4:204 5:239 6:178 7:621 8:727 9:608 
-1 1:205 2:245 3:182 4:205 5:240 6:179 7:620 8:726 9:608 
-1 1:205 2:243 3:178 4:202 5:239 6:177 7:620 8:726 9:608 
-1 1:205 2:245 3:182 4:204 5:240 6:178 7:620 8:726 9:607 
-1 1:205 2:243 3:182 4:204 5:239 6:178 7:621 8:727 9:608 
-1 1:206 2:245 3:181 4:204 5:240 6:179 7:621 8:727 9:608 
-1 1:206 2:245 3:181 4:203 5:239 6:178 7:621 8:727 9:608 
-1 1:207 2:245 3:182 4:204 5:240 6:178 7:621 8:727 9:608 
-1 1:205 2:243 3:182 4:203 5:239 6:178 7:621 8:727 9:608 
-1 1:205 2:243 3:178 4:202 5:239 6:177 7:621 8:727 9:608 
-1 1:205 2:243 3:178 4:203 5:239 6:177 7:621 8:727 9:608 
-1 1:205 2:245 3:179 4:203 5:239 6:177 7:621 8:726 9:607 
-1 1:205 2:245 3:182 4:204 5:239 6:178 7:621 8:727 9:608 
-0.083459982866273971 1:205 2:245 3:182 4:204 5:240 6:178 7:621 8:727 9:608 
-1 1:206 2:247 3:181 4:205 5:241 6:180 7:621 8:727 9:608 
-1 1:206 2:243 3:181 4:204 5:240 6:179 7:621 8:727 9:608 
1 1:205 2:245 3:182 4:203 5:239 6:177 7:621 8:727 9:608 
-1 1:205 2:245 3:178 4:203 5:239 6:178 7:621 8:727 9:608 
-1 1:207 2:245 3:182 4:205 5:240 6:179 7:621 8:727 9:608 
-0.053366619271688343 1:205 2:245 3:182 4:204 5:240 6:178 7:621 8:727 9:608 
-1 1:205 2:243 3:178 4:203 5:239 6:178 7:621 8:727 9:608 
-1 1:205 2:243 3:178 4:203 5:239 6:177 7:621 8:727 9:608 
-1 1:205 2:245 3:178 4:203 5:239 6:177 7:621 8:727 9:608 
-1 1:205 2:243 3:182 4:203 5:239 6:178 7:621 8:727 9:608 
-1 1:205 2:245 3:178 4:203 5:239 6:177 7:621 8:727 9:608 
-1 1:205 2:243 3:182 4:204 5:240 6:178 7:621 8:727 9:608 
-1 1:205 2:243 3:182 4:203 5:239 6:178 7:621 8:727 9:608 
-1 1:205 2:245 3:179 4:202 5:238 6:176 7:621 8:727 9:608 
-1 1:205 2:243 3:178 4:203 5:239 6:177 7:621 8:727 9:608 
-1 1:205 2:245 3:182 4:204 5:240 6:179 7:621 8:727 9:608 
-1 1:205 2:245 3:181 4:203 5:238 6:177 7:621 8:727 9:608 
-1 1:205 2:245 3:176 4:201 5:238 6:176 7:621 8:727 9:608 
-1 1:206 2:243 3:179 4:203 5:239 6:178 7:621 8:727 9:608 
-1 1:206 2:245 3:181 4:204 5:240 6:179 7:621 8:727 9:608 
-1 1:205 2:243 3:182 4:203 5:239 6:178 7:621 8:727 9:608 
-1 1:206 2:243 3:181 4:203 5:239 6:178 7:621 8:727 9:608 
-1 1:205 2:243 3:182 4:203 5:239 6:178 7:621 8:727 9:608 
-1 1:204 2:239 3:150 4:204 5:236 6:154 7:614 8:714 9:590 
1 1:207 2:239 3:158 4:206 5:238 6:156 7:615 8:714 9:591 
-1 1:207 2:237 3:151 4:205 5:237 6:155 7:615 8:714 9:591 
1 1:207 2:241 3:158 4:205 5:237 6:155 7:615 8:714 9:591 
1 1:204 2:241 3:158 4:205 5:238 6:155 7:615 8:714 9:590 
-1 1:206 2:237 3:151 4:204 5:236 6:154 7:614 8:714 9:590 
-1 1:205 2:236 3:150 4:203 5:235 6:154 7:614 8:714 9:590 
-1 1:206 2:236 3:152 4:204 5:236 6:154 7:615 8:714 9:590 
-1 1:207 2:239 3:151 4:203 5:236 6:154 7:614 8:714 9:590 
1 1:206 2:236 3:152 4:203 5:235 6:154 7:615 8:714 9:591 
-1 1:206 2:236 3:150 4:204 5:236 6:154 7:614 8:714 9:590 
1 1:206 2:236 3:152 4:204 5:236 6:154 7:615 8:714 9:591 
-1 1:207 2:237 3:151 4:205 5:237 6:155 7:615 8:714 9:591 
1 1:210 2:245 3:159 4:206 5:238 6:156 7:615 8:714 9:591 
1 1:204 2:241 3:158 4:205 5:237 6:155 7:615 8:714 9:590 
-1 1:206 2:236 3:150 4:204 5:236 6:154 7:615 8:714 9:591 
1 1:205 2:236 3:152 4:203 5:235 6:153 7:615 8:714 9:591 
-1 1:206 2:236 3:152 4:203 5:236 6:154 7:614 8:714 9:590 
-1 1:207 2:239 3:150 4:204 5:236 6:154 7:615 8:714 9:590 
1 1:206 2:236 3:152 4:204 5:236 6:154 7:615 8:714 9:591 
-1 1:206 2:236 3:150 4:204 5:236 6:154 7:615 8:714 9:591 
-1 1:206 2:237 3:151 4:204 5:236 6:154 7:614 8:714 9:590 
1 1:200 2:231 3:148 4:197 5:229 6:148 7:615 8:714 9:591 
-1 1:210 2:236 3:151 4:205 5:237 6:155 7:615 8:714 9:591 
-1 1:206 2:236 3:150 4:204 5:236 6:154 7:615 8:715 9:591 
-1 1:204 2:239 3:150 4:203 5:235 6:154 7:615 8:715 9:591 
-1 1:207 2:243 3:151 4:205 5:237 6:155 7:615 8:715 9:591 
1 1:205 2:236 3:152 4:203 5:235 6:153 7:615 8:715 9:591 
-1 1:206 2:243 3:151 4:204 5:236 6:155 7:615 8:715 9:591 
1 1:197 2:232 3:151 4:199 5:230 6:150 7:615 8:714 9:591 
-1 1:205 2:236 3:150 4:203 5:235 6:153 7:615 8:715 9:591 
0.58509762758247907 1:205 2:241 3:151 4:204 5:236 6:154 7:615 8:714 9:591 
1 1:207 2:239 3:151 4:203 5:234 6:153 7:615 8:714 9:591 
1 1:205 2:236 3:152 4:203 5:235 6:153 7:615 8:715 9:591 
1 1:206 2:237 3:151 4:203 5:235 6:153 7:615 8:714 9:591 
0.57112347042779332 1:205 2:241 3:151 4:204 5:236 6:154 7:615 8:714 9:591 
1 1:205 2:236 3:151 4:203 5:235 6:153 7:615 8:714 9:591 
-1 1:208 2:237 3:151 4:203 5:235 6:154 7:615 8:715 9:591 
-1 1:207 2:239 3:150 4:204 5:236 6:154 7:615 8:714 9:591 
-1 1:205 2:236 3:151 4:203 5:235 6:154 7:615 8:715 9:591 
1 1:206 2:236 3:152 4:203 5:235 6:153 7:615 8:715 9:591 
1 1:205 2:241 3:151 4:203 5:235 6:153 7:615 8:715 9:591 
1 1:206 2:236 3:152 4:203 5:235 6:153 7:615 8:715 9:591 
0.015650910722388653 1:204 2:232 3:152 4:203 5:234 6:153 7:615 8:715 9:591 
-1 1:207 2:239 3:151 4:203 5:235 6:154 7:615 8:715 9:591 
1 1:205 2:236 3:152 4:203 5:235 6:153 7:615 8:715 9:591 
1 1:206 2:238 3:152 4:203 5:235 6:153 7:615 8:715 9:591 
1 1:205 2:236 3:152 4:203 5:235 6:153 7:615 8:715 9:591 
1 1:206 2:237 3:151 4:202 5:234 6:153 7:615 8:714 9:591 
1 1:205 2:241 3:152 4:203 5:235 6:154 7:615 8:715 9:591 
-1 1:206 2:236 3:152 4:203 5:235 6:154 7:615 8:714 9:590 
-1 1:206 2:237 3:151 4:203 5:235 6:154 7:615 8:715 9:591 
1 1:205 2:241 3:157 4:204 5:236 6:154 7:615 8:715 9:591 
1 1:200 2:234 3:150 4:198 5:229 6:149 7:615 8:714 9:591 
1 1:205 2:236 3:152 4:203 5:235 6:153 7:615 8:714 9:591 
1 1:206 2:237 3:152 4:201 5:233 6:152 7:615 8:714 9:591 
1 1:203 2:239 3:150 4:201 5:233 6:152 7:615 8:714 9:591 
1 1:203 2:237 3:151 4:201 5:233 6:152 7:615 8:714 9:591 
-1 1:206 2:237 3:152 4:203 5:235 6:154 7:614 8:714 9:590 
0.92891645382817023 1:205 2:241 3:151 4:204 5:236 6:154 7:615 8:714 9:591 
1 1:205 2:241 3:151 4:203 5:236 6:154 7:615 8:714 9:591 
1 1:205 2:236 3:152 4:203 5:235 6:154 7:615 8:714 9:591 
1 1:203 2:236 3:150 4:200 5:232 6:151 7:615 8:715 9:591 
1 1:205 2:239 3:151 4:202 5:235 6:153 7:615 8:715 9:591 
-1 1:207 2:239 3:150 4:204 5:236 6:154 7:615 8:715 9:591 
-1 1:205 2:236 3:151 4:203 5:235 6:154 7:615 8:715 9:591 
-1 1:205 2:236 3:151 4:203 5:235 6:154 7:615 8:715 9:591 
0.56934013260752414 1:203 2:239 3:150 4:202 5:234 6:152 7:615 8:715 9:591 
-1 1:205 2:239 3:151 4:203 5:235 6:154 7:615 8:715 9:591 
1 1:203 2:237 3:151 4:202 5:233 6:152 7:615 8:715 9:591 
1 1:189 2:215 3:122 4:188 5:217 6:127 7:608 8:702 9:576 
1 1:198 2:227 3:133 4:195 5:225 6:134 7:608 8:702 9:576 
1 1:197 2:223 3:132 4:196 5:225 6:134 7:608 8:703 9:576 
1 1:193 2:223 3:129 4:193 5:221 6:131 7:608 8:702 9:576 
1 1:193 2:221 3:133 4:195 5:224 6:134 7:608 8:702 9:576 
1 1:197 2:223 3:128 4:193 5:222 6:132 7:608 8:703 9:576 
1 1:197 2:223 3:128 4:194 5:223 6:133 7:608 8:703 9:576 
1 1:197 2:223 3:129 4:195 5:224 6:134 7:608 8:703 9:576 
1 1:189 2:221 3:126 4:191 5:220 6:130 7:608 8:703 9:576 
1 1:197 2:223 3:135 4:196 5:225 6:135 7:608 8:702 9:576 
1 1:197 2:223 3:128 4:194 5:223 6:133 7:608 8:702 9:576 
1 1:195 2:225 3:128 4:194 5:223 6:133 7:608 8:702 9:576 
1 1:193 2:221 3:128 4:193 5:222 6:132 7:608 8:702 9:576 
1 1:198 2:221 3:133 4:195 5:224 6:134 7:608 8:702 9:576 
1 1:193 2:221 3:128 4:192 5:221 6:131 7:608 8:702 9:575 
1 1:197 2:223 3:128 4:194 5:223 6:133 7:608 8:702 9:575 
1 1:198 2:225 3:133 4:194 5:223 6:133 7:608 8:703 9:576 
1 1:193 2:221 3:128 4:193 5:222 6:132 7:608 8:702 9:576 
1 1:193 2:221 3:133 4:194 5:223 6:133 7:608 8:703 9:576 
1 1:197 2:223 3:128 4:193 5:222 6:132 7:608 8:703 9:576 
1 1:197 2:223 3:128 4:193 5:222 6:132 7:608 8:703 9:576 
1 1:193 2:221 3:128 4:193 5:222 6:132 7:608 8:702 9:576 
1 1:197 2:223 3:128 4:193 5:222 6:132 7:608 8:702 9:576 
1 1:197 2:223 3:128 4:194 5:223 6:132 7:608 8:703 9:576 
1 1:197 2:223 3:128 4:194 5:223 6:133 7:608 8:702 9:576 
1 1:197 2:223 3:132 4:194 5:222 6:133 7:608 8:703 9:576 
1 1:197 2:223 3:129 4:194 5:223 6:133 7:608 8:702 9:576 
1 1:197 2:223 3:129 4:194 5:223 6:133 7:608 8:702 9:576 
1 1:197 2:223 3:132 4:194 5:223 6:133 7:607 8:702 9:575 
1 1:195 2:221 3:128 4:192 5:221 6:131 7:607 8:702 9:575 
1 1:195 2:221 3:128 4:192 5:221 6:131 7:607 8:702 9:575 
1 1:197 2:223 3:130 4:194 5:223 6:133 7:608 8:702 9:576 
1 1:195 2:225 3:130 4:194 5:222 6:133 7:608 8:702 9:575 
1 1:197 2:223 3:129 4:194 5:222 6:133 7:608 8:702 9:575 
1 1:195 2:221 3:128 4:194 5:222 6:132 7:607 8:702 9:575 
1 1:195 2:221 3:128 4:193 5:222 6:132 7:608 8:702 9:575 
1 1:195 2:223 3:128 4:193 5:222 6:132 7:608 8:702 9:575 
1 1:195 2:225 3:130 4:194 5:223 6:133 7:608 8:702 9:575 
1 1:195 2:221 3:128 4:193 5:222 6:132 7:608 8:702 9:575 
1 1:195 2:221 3:128 4:193 5:222 6:132 7:608 8:702 9:575 
1 1:189 2:215 3:123 4:186 5:214 6:125 7:607 8:702 9:575 
1 1:195 2:225 3:130 4:194 5:222 6:133 7:608 8:702 9:575 
1 1:195 2:221 3:128 4:192 5:221 6:131 7:608 8:702 9:575 
1 1:197 2:223 3:128 4:193 5:222 6:132 7:608 8:702 9:576 
1 1:197 2:223 3:128 4:194 5:222 6:132 7:608 8:702 9:575 
1 1:193 2:221 3:129 4:192 5:221 6:131 7:608 8:702 9:576 
1 1:197 2:223 3:130 4:194 5:222 6:133 7:608 8:703 9:576 
1 1:195 2:221 3:128 4:193 5:221 6:131 7:608 8:703 9:576 
1 1:189 2:216 3:123 4:188 5:216 6:126 7:608 8:702 9:576 
1 1:197 2:223 3:129 4:194 5:223 6:133 7:608 8:702 9:576 
1 1:197 2:223 3:128 4:194 5:222 6:132 7:608 8:702 9:576 
1 1:197 2:223 3:129 4:194 5:223 6:133 7:607 8:702 9:575 
1 1:197 2:223 3:128 4:193 5:222 6:132 7:607 8:702 9:575 
1 1:197 2:223 3:128 4:193 5:222 6:132 7:608 8:702 9:575 
1 1:195 2:221 3:130 4:194 5:222 6:132 7:607 8:702 9:575 
1 1:197 2:223 3:132 4:194 5:222 6:132 7:608 8:702 9:575 
1 1:197 2:223 3:128 4:194 5:222 6:133 7:608 8:702 9:575 
1 1:197 2:223 3:129 4:193 5:222 6:132 7:608 8:702 9:575 
1 1:197 2:223 3:129 4:195 5:223 6:133 7:608 8:702 9:575 
1 1:197 2:223 3:128 4:194 5:222 6:132 7:608 8:702 9:575 
1 1:197 2:223 3:128 4:193 5:222 6:132 7:608 8:702 9:575 
1 1:197 2:223 3:128 4:194 5:222 6:132 7:608 8:703 9:576 
1 1:195 2:221 3:128 4:192 5:221 6:131 7:608 8:702 9:576 
1 1:197 2:223 3:128 4:194 5:222 6:132 7:608 8:702 9:576 
1 1:198 2:225 3:129 4:194 5:223 6:133 7:608 8:702 9:575 
1 1:197 2:223 3:129 4:194 5:222 6:132 7:608 8:702 9:575 
1 1:197 2:223 3:132 4:194 5:223 6:133 7:608 8:702 9:575 
1 1:197 2:223 3:128 4:194 5:222 6:132 7:608 8:702 9:575 
1 1:198 2:225 3:133 4:195 5:224 6:133 7:608 8:702 9:575 
1 1:197 2:223 3:128 4:193 5:222 6:132 7:607 8:702 9:575 
1 1:197 2:223 3:128 4:193 5:222 6:132 7:607 8:702 9:575 
1 1:195 2:221 3:128 4:192 5:220 6:130 7:608 8:702 9:575 
1 1:195 2:225 3:128 4:194 5:222 6:132 7:607 8:702 9:575 
1 1:197 2:223 3:129 4:194 5:223 6:133 7:608 8:702 9:575 
1 1:197 2:223 3:128 4:194 5:222 6:132 7:608 8:702 9:576 
1 1:193 2:223 3:129 4:193 5:222 6:132 7:608 8:702 9:575 
1 1:197 2:223 3:129 4:194 5:222 6:132 7:608 8:702 9:575 
1 1:197 2:223 3:128 4:194 5:222 6:132 7:608 8:702 9:575 
1 1:195 2:225 3:130 4:194 5:223 6:133 7:607 8:702 9:575 
1 1:193 2:223 3:129 4:193 5:222 6:132 7:608 8:702 9:575 
1 1:197 2:223 3:129 4:194 5:223 6:133 7:608 8:702 9:575 
1 1:197 2:223 3:128 4:193 5:222 6:132 7:608 8:702 9:575 
1 1:193 2:223 3:129 4:194 5:222 6:132 7:608 8:702 9:575 
1 1:198 2:225 3:133 4:196 5:225 6:135 7:608 8:703 9:576 
1 1:195 2:223 3:128 4:193 5:221 6:131 7:608 8:702 9:576 
1 1:196 2:222 3:129 4:195 5:223 6:133 7:608 8:702 9:576 
1 1:193 2:223 3:129 4:194 5:222 6:132 7:608 8:702 9:576 
1 1:195 2:221 3:128 4:193 5:221 6:131 7:608 8:702 9:575 
1 1:195 2:221 3:128 4:192 5:221 6:131 7:608 8:702 9:576 
1 1:197 2:223 3:129 4:194 5:222 6:132 7:608 8:702 9:575 
1 1:197 2:223 3:129 4:194 5:223 6:133 7:608 8:702 9:575 
1 1:195 2:221 3:128 4:194 5:222 6:132 7:608 8:702 9:576 
1 1:197 2:223 3:129 4:194 5:222 6:132 7:608 8:702 9:576 
1 1:195 2:221 3:126 4:193 5:221 6:131 7:608 8:702 9:576 
1 1:197 2:223 3:128 4:194 5:222 6:132 7:608 8:702 9:576 
1 1:195 2:225 3:128 4:194 5:222 6:132 7:608 8:703 9:576 
1 1:193 2:223 3:129 4:193 5:222 6:131 7:608 8:702 9:576 
1 1:195 2:221 3:126 4:193 5:221 6:131 7:608 8:703 9:576 
-1 1:203 2:217 3:105 4:201 5:218 6:109 7:591 8:678 9:546 
-1 1:203 2:219 3:105 4:200 5:218 6:109 7:591 8:678 9:547 
-1 1:203 2:219 3:105 4:201 5:219 6:110 7:591 8:678 9:547 
-1 1:198 2:214 3:105 4:200 5:218 6:109 7:591 8:678 9:547 
-1 1:203 2:219 3:105 4:201 5:219 6:109 7:591 8:678 9:547 
-1 1:202 2:217 3:102 4:201 5:219 6:109 7:591 8:678 9:547 
-1 1:203 2:219 3:105 4:201 5:219 6:110 7:592 8:678 9:547 
-1 1:202 2:217 3:106 4:202 5:220 6:110 7:592 8:678 9:547 
-1 1:201 2:217 3:105 4:200 5:218 6:109 7:592 8:678 9:547 
-1 1:203 2:219 3:105 4:202 5:220 6:110 7:592 8:678 9:547 
-1 1:202 2:217 3:106 4:202 5:220 6:110 7:592 8:678 9:547 
-1 1:202 2:217 3:106 4:201 5:219 6:110 7:592 8:678 9:547 
-1 1:201 2:217 3:105 4:199 5:217 6:108 7:592 8:678 9:547 
-1 1:201 2:217 3:105 4:199 5:217 6:108 7:591 8:678 9:547 
-1 1:202 2:217 3:106 4:201 5:219 6:109 7:592 8:678 9:547 
-1 1:203 2:222 3:105 4:203 5:221 6:111 7:592 8:678 9:547 
-1 1:201 2:219 3:105 4:200 5:218 6:109 7:592 8:678 9:547 
-1 1:203 2:219 3:105 4:201 5:219 6:110 7:591 8:678 9:547 
-1 1:204 2:217 3:106 4:201 5:219 6:110 7:592 8:678 9:547 
-1 1:202 2:217 3:106 4:201 5:219 6:110 7:591 8:678 9:547 
-1 1:201 2:214 3:105 4:199 5:217 6:108 7:591 8:678 9:547 
-1 1:201 2:215 3:105 4:199 5:217 6:108 7:591 8:678 9:547 
-1 1:201 2:214 3:105 4:199 5:216 6:108 7:591 8:678 9:547 
-1 1:202 2:217 3:105 4:201 5:218 6:109 7:591 8:678 9:547 
-1 1:201 2:217 3:105 4:201 5:219 6:109 7:591 8:678 9:547 
-1 1:199 2:217 3:106 4:200 5:218 6:109 7:591 8:678 9:547 
-1 1:202 2:217 3:106 4:200 5:218 6:109 7:591 8:678 9:547 
-1 1:202 2:217 3:106 4:201 5:219 6:110 7:591 8:678 9:547 
-1 1:203 2:219 3:105 4:200 5:218 6:109 7:591 8:678 9:547 
-1 1:201 2:219 3:102 4:200 5:217 6:109 7:591 8:678 9:547 
-1 1:202 2:217 3:106 4:201 5:219 6:110 7:591 8:678 9:547 
-1 1:201 2:219 3:102 4:200 5:217 6:109 7:592 8:678 9:547 
-1 1:203 2:222 3:105 4:203 5:221 6:111 7:591 8:678 9:547 
-1 1:194 2:209 3:100 4:193 5:211 6:103 7:591 8:678 9:547 
-1 1:201 2:219 3:102 4:201 5:219 6:110 7:592 8:679 9:547 
-1 1:203 2:219 3:105 4:202 5:220 6:111 7:591 8:678 9:547 
-1 1:202 2:217 3:106 4:200 5:218 6:109 7:592 8:678 9:547 
-1 1:203 2:219 3:105 4:203 5:221 6:111 7:592 8:678 9:547 
-1 1:202 2:217 3:106 4:202 5:219 6:110 7:592 8:678 9:547 
-1 1:203 2:222 3:105 4:204 5:222 6:112 7:592 8:678 9:547 
-1 1:201 2:217 3:105 4:200 5:217 6:108 7:592 8:678 9:547 
-1 1:201 2:219 3:102 4:200 5:218 6:109 7:591 8:678 9:547 
-1 1:202 2:217 3:106 4:200 5:218 6:109 7:592 8:678 9:547 
-1 1:201 2:219 3:102 4:200 5:218 6:109 7:592 8:678 9:547 
-1 1:197 2:214 3:105 4:198 5:216 6:108 7:592 8:678 9:547 
-1 1:202 2:217 3:106 4:201 5:219 6:109 7:591 8:678 9:547 
-1 1:201 2:214 3:105 4:199 5:217 6:108 7:591 8:678 9:547 
-1 1:202 2:217 3:100 4:201 5:218 6:109 7:591 8:678 9:547 
-1 1:201 2:219 3:102 4:200 5:218 6:109 7:591 8:678 9:547 
-1 1:203 2:219 3:105 4:203 5:221 6:111 7:591 8:678 9:547 
-1 1:201 2:212 3:106 4:200 5:217 6:109 7:591 8:678 9:547 
-0.88030483977462315 1:201 2:212 3:106 4:199 5:217 6:108 7:591 8:678 9:547 
-1 1:202 2:217 3:105 4:200 5:218 6:109 7:591 8:678 9:547 
-1 1:203 2:217 3:105 4:201 5:219 6:109 7:591 8:678 9:547 
-1 1:198 2:214 3:105 4:199 5:217 6:108 7:591 8:678 9:547 
-1 1:198 2:217 3:101 4:200 5:218 6:109 7:591 8:678 9:547 
-1 1:201 2:212 3:102 4:199 5:217 6:108 7:591 8:678 9:547 
-1 1:201 2:217 3:105 4:201 5:219 6:110 7:592 8:678 9:547 
-1 1:201 2:219 3:102 4:200 5:218 6:109 7:592 8:678 9:547 
-1 1:202 2:217 3:106 4:200 5:218 6:109 7:592 8:679 9:547 
-1 1:201 2:212 3:102 4:200 5:217 6:109 7:592 8:678 9:547 
-1 1:202 2:217 3:106 4:200 5:218 6:109 7:591 8:678 9:547 
-1 1:203 2:222 3:105 4:203 5:221 6:111 7:592 8:678 9:547 
-1 1:197 2:214 3:105 4:198 5:216 6:108 7:592 8:678 9:547 
-1 1:203 2:215 3:105 4:201 5:218 6:109 7:591 8:678 9:547 
-1 1:197 2:217 3:105 4:200 5:218 6:108 7:591 8:678 9:547 
-1 1:195 2:212 3:92 4:193 5:210 6:102 7:591 8:678 9:547 
-1 1:203 2:215 3:105 4:201 5:219 6:109 7:591 8:678 9:547 
-1 1:203 2:217 3:105 4:201 5:219 6:109 7:591 8:678 9:547 
-1 1:203 2:217 3:105 4:201 5:219 6:109 7:591 8:678 9:547 
-1 1:201 2:214 3:102 4:199 5:217 6:108 7:591 8:678 9:547 
-1 1:203 2:219 3:105 4:203 5:220 6:111 7:591 8:678 9:547 
-1 1:201 2:217 3:105 4:200 5:218 6:109 7:591 8:678 9:547 
-1 1:198 2:217 3:100 4:200 5:217 6:108 7:592 8:678 9:547 
-1 1:201 2:219 3:102 4:200 5:218 6:109 7:591 8:678 9:547 
-1 1:201 2:214 3:105 4:199 5:217 6:108 7:591 8:678 9:547 
-1 1:203 2:217 3:105 4:201 5:219 6:110 7:591 8:678 9:547 
-1 1:201 2:217 3:105 4:200 5:218 6:109 7:591 8:678 9:547 
-1 1:201 2:217 3:105 4:200 5:218 6:109 7:592 8:678 9:547 
-1 1:203 2:217 3:105 4:201 5:219 6:109 7:591 8:678 9:547 
-1 1:201 2:219 3:102 4:199 5:217 6:108 7:592 8:678 9:547 
-1 1:201 2:219 3:105 4:200 5:218 6:109 7:592 8:679 9:547 
-1 1:201 2:219 3:102 4:199 5:217 6:108 7:592 8:679 9:548 
-1 1:201 2:219 3:102 4:199 5:217 6:108 7:592 8:679 9:548 
-1 1:201 2:219 3:102 4:200 5:218 6:109 7:592 8:679 9:548 
-1 1:198 2:217 3:100 4:200 5:218 6:108 7:592 8:679 9:548 
-1 1:200 2:217 3:105 4:199 5:217 6:108 7:592 8:679 9:547 
-1 1:198 2:217 3:100 4:199 5:217 6:108 7:592 8:679 9:548 
-1 1:198 2:214 3:105 4:199 5:216 6:107 7:592 8:678 9:547 
1 1:198 2:214 3:105 4:200 5:218 6:108 7:592 8:679 9:548 
0.26496422271168707 1:201 2:215 3:105 4:199 5:217 6:108 7:592 8:679 9:548 
1 1:193 2:203 3:89 4:194 5:208 6:93 7:583 8:663 9:527 
1 1:196 2:208 3:90 4:197 5:212 6:95 7:583 8:664 9:527 
-1 1:196 2:208 3:90 4:198 5:212 6:96 7:583 8:664 9:527 
1 1:197 2:211 3:91 4:199 5:213 6:96 7:583 8:664 9:527 
-1 1:202 2:211 3:91 4:201 5:216 6:98 7:583 8:664 9:527 
1 1:196 2:210 3:90 4:198 5:213 6:96 7:583 8:663 9:527 
1 1:197 2:210 3:91 4:200 5:215 6:97 7:583 8:663 9:527 
1 1:196 2:210 3:90 4:198 5:213 6:96 7:583 8:663 9:527 
1 1:195 2:208 3:90 4:194 5:208 6:92 7:583 8:663 9:527 
1 1:196 2:210 3:90 4:198 5:212 6:95 7:582 8:663 9:527 
1 1:198 2:210 3:92 4:200 5:214 6:97 7:583 8:664 9:527 
1 1:195 2:208 3:90 4:197 5:211 6:95 7:583 8:663 9:527 
1 1:196 2:210 3:90 4:199 5:214 6:96 7:583 8:663 9:527 
0.406304457313449 1:202 2:214 3:92 4:202 5:216 6:98 7:583 8:663 9:527 
1 1:198 2:210 3:90 4:198 5:212 6:95 7:583 8:663 9:527 
1 1:195 2:208 3:90 4:197 5:211 6:95 7:582 8:663 9:527 
1 1:196 2:210 3:90 4:199 5:214 6:96 7:583 8:663 9:527 
1 1:197 2:210 3:91 4:199 5:213 6:96 7:583 8:663 9:527 
1 1:197 2:214 3:90 4:198 5:212 6:95 7:583 8:663 9:527 
1 1:198 2:210 3:92 4:201 5:215 6:98 7:582 8:663 9:527 
1 1:197 2:210 3:91 4:199 5:213 6:96 7:582 8:663 9:527 
1 1:196 2:203 3:91 4:194 5:208 6:92 7:582 8:663 9:527 
-1 1:197 2:210 3:89 4:198 5:213 6:95 7:582 8:663 9:526 
1 1:197 2:210 3:91 4:199 5:213 6:96 7:582 8:663 9:527 
1 1:197 2:210 3:89 4:198 5:213 6:95 7:582 8:663 9:527 
1 1:197 2:210 3:91 4:198 5:213 6:95 7:582 8:663 9:527 
1 1:198 2:210 3:90 4:198 5:212 6:95 7:582 8:663 9:527 
1 1:198 2:210 3:92 4:200 5:214 6:97 7:582 8:663 9:527 
1 1:197 2:210 3:91 4:199 5:213 6:96 7:582 8:663 9:527 
1 1:198 2:210 3:90 4:198 5:212 6:95 7:582 8:663 9:527 
1 1:198 2:210 3:90 4:198 5:212 6:95 7:582 8:663 9:527 
1 1:196 2:210 3:90 4:199 5:214 6:96 7:582 8:663 9:527 
-1 1:196 2:210 3:90 4:199 5:214 6:96 7:582 8:663 9:526 
-1 1:196 2:208 3:90 4:197 5:211 6:95 7:582 8:663 9:526 
1 1:195 2:208 3:90 4:197 5:211 6:94 7:582 8:663 9:527 
0.89962765372831688 1:198 2:210 3:90 4:199 5:213 6:96 7:582 8:663 9:527 
-1 1:196 2:210 3:90 4:198 5:213 6:95 7:582 8:663 9:526 
-1 1:196 2:210 3:90 4:199 5:213 6:96 7:582 8:663 9:526 
-1 1:198 2:210 3:92 4:200 5:214 6:97 7:582 8:663 9:526 
-1 1:196 2:210 3:90 4:198 5:212 6:95 7:582 8:663 9:526 
-1 1:198 2:210 3:90 4:198 5:212 6:95 7:582 8:663 9:526 
0.4010180215781009 1:198 2:210 3:90 4:199 5:213 6:96 7:582 8:663 9:527 
1 1:196 2:208 3:90 4:197 5:212 6:95 7:582 8:663 9:527 
1 1:196 2:210 3:90 4:199 5:213 6:96 7:582 8:663 9:527 
1 1:196 2:208 3:90 4:198 5:213 6:95 7:582 8:663 9:527 
1 1:196 2:208 3:90 4:198 5:213 6:95 7:582 8:663 9:527 
-1 1:196 2:208 3:90 4:199 5:213 6:95 7:582 8:663 9:526 
-1 1:196 2:208 3:90 4:198 5:212 6:95 7:582 8:663 9:526 
-1 1:196 2:208 3:90 4:198 5:213 6:95 7:582 8:663 9:526 
-1 1:196 2:208 3:90 4:198 5:212 6:95 7:582 8:663 9:526 
1 1:191 2:203 3:85 4:190 5:204 6:89 7:582 8:663 9:527 
1 1:198 2:210 3:90 4:197 5:211 6:95 7:582 8:663 9:527 
1 1:195 2:208 3:90 4:196 5:211 6:94 7:582 8:663 9:527 
-1 1:196 2:210 3:90 4:198 5:213 6:95 7:582 8:663 9:526 
1 1:195 2:208 3:90 4:196 5:210 6:94 7:582 8:663 9:527 
1 1:198 2:210 3:90 4:197 5:211 6:94 7:582 8:663 9:527 
1 1:196 2:206 3:91 4:195 5:209 6:93 7:582 8:663 9:526 
1 1:195 2:208 3:90 4:196 5:210 6:94 7:582 8:663 9:527 
1 1:197 2:212 3:91 4:197 5:211 6:95 7:583 8:663 9:527 
1 1:198 2:210 3:90 4:198 5:212 6:95 7:583 8:663 9:527 
1 1:196 2:208 3:90 4:197 5:211 6:94 7:582 8:663 9:527 
1 1:198 2:210 3:90 4:197 5:211 6:95 7:582 8:663 9:527 
1 1:198 2:210 3:90 4:198 5:212 6:95 7:583 8:663 9:527 
1 1:198 2:210 3:90 4:198 5:212 6:95 7:583 8:663 9:527 
1 1:196 2:208 3:90 4:198 5:212 6:95 7:582 8:663 9:527 
1 1:198 2:210 3:90 4:198 5:212 6:95 7:582 8:663 9:527 
1 1:198 2:210 3:92 4:199 5:213 6:96 7:583 8:663 9:527 
1 1:197 2:210 3:90 4:198 5:213 6:95 7:583 8:664 9:527 
1 1:196 2:210 3:90 4:198 5:212 6:95 7:583 8:663 9:527 
1 1:195 2:208 3:90 4:197 5:211 6:94 7:583 8:663 9:527 
1 1:198 2:210 3:90 4:197 5:211 6:94 7:583 8:663 9:527 
0.87824625466082873 1:198 2:210 3:90 4:199 5:213 6:96 7:582 8:663 9:527 
1 1:198 2:210 3:90 4:197 5:211 6:94 7:582 8:663 9:527 
1 1:197 2:212 3:91 4:196 5:211 6:94 7:582 8:663 9:527 
1 1:197 2:212 3:91 4:197 5:211 6:94 7:582 8:663 9:527 
-1 1:190 2:201 3:82 4:190 5:204 6:89 7:582 8:663 9:527 
1 1:198 2:210 3:92 4:199 5:213 6:96 7:582 8:663 9:527 
1 1:197 2:210 3:90 4:197 5:211 6:94 7:583 8:664 9:528 
1 1:197 2:212 3:89 4:197 5:211 6:94 7:583 8:664 9:528 
1 1:197 2:212 3:91 4:197 5:211 6:94 7:583 8:664 9:528 
1 1:198 2:210 3:90 4:198 5:212 6:95 7:583 8:664 9:528 
1 1:197 2:210 3:90 4:197 5:211 6:94 7:583 8:664 9:528 
1 1:198 2:210 3:90 4:197 5:212 6:94 7:583 8:664 9:528 
1 1:198 2:210 3:90 4:197 5:211 6:94 7:583 8:664 9:527 
1 1:196 2:208 3:91 4:197 5:212 6:95 7:583 8:664 9:527 
1 1:196 2:208 3:90 4:198 5:212 6:94 7:583 8:664 9:527 
1 1:198 2:210 3:90 4:197 5:211 6:94 7:583 8:664 9:527 
-1 1:214 2:192 3:65 4:210 5:191 6:63 7:562 8:636 9:502 
1 1:214 2:195 3:66 4:209 5:190 6:63 7:562 8:636 9:502 
1 1:208 2:192 3:65 4:209 5:190 6:62 7:562 8:636 9:502 
-1 1:214 2:195 3:61 4:210 5:191 6:62 7:562 8:636 9:502 
-1 1:214 2:192 3:65 4:211 5:192 6:63 7:562 8:636 9:502 
-1 1:207 2:190 3:63 4:209 5:190 6:62 7:562 8:636 9:502 
-1 1:207 2:190 3:61 4:208 5:190 6:61 7:562 8:636 9:502 
-1 1:208 2:192 3:63 4:209 5:191 6:62 7:562 8:636 9:502 
1 1:214 2:192 3:65 4:209 5:191 6:62 7:562 8:637 9:503 
-1 1:211 2:195 3:63 4:209 5:191 6:62 7:562 8:637 9:502 
1 1:208 2:192 3:66 4:208 5:189 6:62 7:562 8:637 9:503 
-1 1:214 2:195 3:61 4:210 5:191 6:62 7:562 8:637 9:503 
-1 1:210 2:195 3:61 4:210 5:191 6:62 7:562 8:637 9:503 
-1 1:210 2:195 3:63 4:209 5:191 6:62 7:562 8:637 9:502 
1 1:208 2:192 3:66 4:208 5:189 6:61 7:562 8:636 9:502 
1 1:208 2:192 3:66 4:208 5:189 6:61 7:562 8:636 9:502 
1 1:208 2:192 3:66 4:207 5:189 6:61 7:562 8:636 9:502 
-1 1:208 2:188 3:60 4:204 5:186 6:59 7:562 8:636 9:502 
1 1:208 2:192 3:66 4:208 5:190 6:62 7:562 8:636 9:502 
-1 1:208 2:188 3:60 4:204 5:186 6:59 7:562 8:636 9:502 
-1 1:208 2:188 3:60 4:206 5:188 6:60 7:562 8:636 9:502 
1 1:208 2:192 3:65 4:209 5:190 6:62 7:562 8:636 9:502 
-1 1:208 2:188 3:60 4:206 5:187 6:60 7:562 8:636 9:502 
0.9690099385790969 1:214 2:192 3:65 4:209 5:191 6:62 7:562 8:636 9:502 
-1 1:210 2:190 3:61 4:208 5:190 6:61 7:562 8:636 9:502 
1 1:208 2:192 3:65 4:208 5:189 6:61 7:562 8:636 9:502 
1 1:208 2:188 3:66 4:205 5:187 6:60 7:562 8:636 9:502 
-1 1:208 2:188 3:60 4:205 5:186 6:60 7:562 8:636 9:502 
-1 1:208 2:188 3:60 4:205 5:186 6:59 7:562 8:636 9:502 
-1 1:207 2:188 3:58 4:203 5:185 6:59 7:562 8:636 9:502 
-1 1:208 2:188 3:60 4:206 5:188 6:60 7:562 8:637 9:503 
1 1:208 2:192 3:66 4:207 5:189 6:61 7:562 8:636 9:502 
1 1:208 2:192 3:65 4:208 5:189 6:61 7:562 8:636 9:502 
1 1:208 2:192 3:65 4:208 5:190 6:61 7:562 8:637 9:502 
1 1:208 2:192 3:66 4:207 5:189 6:61 7:562 8:636 9:502 
1 1:208 2:192 3:66 4:208 5:190 6:61 7:562 8:636 9:502 
-1 1:207 2:190 3:61 4:208 5:189 6:61 7:562 8:636 9:502 
1 1:208 2:192 3:66 4:206 5:188 6:60 7:562 8:636 9:502 
-1 1:200 2:185 3:58 4:200 5:182 6:57 7:562 8:636 9:502 
1 1:208 2:192 3:66 4:207 5:188 6:61 7:562 8:636 9:502 
-1 1:207 2:190 3:63 4:207 5:188 6:61 7:562 8:636 9:502 
-1 1:208 2:192 3:60 4:207 5:188 6:61 7:562 8:636 9:502 
-1 1:214 2:192 3:65 4:211 5:192 6:63 7:562 8:636 9:502 
-1 1:208 2:192 3:60 4:208 5:189 6:61 7:562 8:636 9:502 
-1 1:208 2:188 3:60 4:206 5:188 6:61 7:562 8:636 9:502 
-1 1:202 2:187 3:53 4:199 5:181 6:56 7:562 8:636 9:502 
1 1:208 2:188 3:66 4:206 5:188 6:61 7:562 8:636 9:502 
-1 1:208 2:188 3:60 4:206 5:188 6:60 7:562 8:636 9:502 
1 1:208 2:192 3:65 4:208 5:190 6:61 7:562 8:636 9:502 
-1 1:208 2:188 3:60 4:207 5:188 6:61 7:562 8:636 9:502 
-1 1:207 2:190 3:61 4:207 5:189 6:61 7:562 8:636 9:502 
-1 1:207 2:190 3:61 4:207 5:189 6:61 7:562 8:636 9:502 
-1 1:207 2:190 3:61 4:207 5:189 6:60 7:562 8:636 9:502 
1 1:208 2:190 3:67 4:207 5:189 6:61 7:562 8:636 9:502 
-0.31643717344292188 1:206 2:190 3:63 4:208 5:189 6:61 7:562 8:636 9:502 
1 1:208 2:188 3:66 4:208 5:189 6:61 7:562 8:636 9:502 
-1 1:207 2:190 3:61 4:207 5:189 6:61 7:562 8:636 9:502 
-1 1:207 2:190 3:61 4:207 5:189 6:61 7:562 8:636 9:502 
1 1:208 2:192 3:66 4:208 5:190 6:62 7:562 8:636 9:502 
1 1:208 2:188 3:66 4:207 5:188 6:61 7:562 8:636 9:502 
1 1:208 2:192 3:66 4:206 5:188 6:61 7:562 8:636 9:502 
-1 1:206 2:190 3:54 4:205 5:186 6:60 7:562 8:636 9:502 
-1 1:207 2:190 3:61 4:208 5:189 6:61 7:562 8:636 9:502 
-1 1:210 2:190 3:63 4:208 5:189 6:61 7:562 8:636 9:502 
-1 1:208 2:192 3:60 4:207 5:189 6:61 7:562 8:636 9:502 
-1 1:208 2:192 3:60 4:207 5:189 6:61 7:562 8:637 9:503 
1 1:208 2:192 3:66 4:208 5:190 6:61 7:562 8:637 9:503 
-1 1:208 2:188 3:60 4:206 5:188 6:60 7:562 8:637 9:503 
-1 1:208 2:188 3:60 4:205 5:187 6:60 7:562 8:637 9:503 
1 1:207 2:190 3:63 4:207 5:189 6:61 7:562 8:637 9:503 
-1 1:208 2:192 3:60 4:207 5:189 6:61 7:562 8:637 9:503 
1 1:208 2:188 3:66 4:206 5:188 6:60 7:562 8:637 9:503 
-1 1:207 2:190 3:61 4:207 5:189 6:61 7:562 8:637 9:503 
1 1:208 2:192 3:66 4:206 5:188 6:60 7:562 8:637 9:503 
1 1:208 2:192 3:66 4:208 5:190 6:61 7:563 8:637 9:503 
-1 1:207 2:190 3:61 4:208 5:189 6:61 7:563 8:637 9:503 
1 1:207 2:190 3:63 4:207 5:189 6:61 7:563 8:637 9:503 
1 1:211 2:190 3:63 4:208 5:189 6:61 7:563 8:637 9:503 
1 1:207 2:190 3:63 4:207 5:189 6:61 7:563 8:637 9:503 
1 1:208 2:192 3:66 4:207 5:189 6:61 7:563 8:637 9:503 
1 1:208 2:192 3:65 4:209 5:190 6:62 7:563 8:637 9:503 
1 1:207 2:190 3:63 4:208 5:189 6:61 7:563 8:637 9:503 
-1 1:207 2:190 3:61 4:207 5:189 6:61 7:562 8:637 9:503 
-1 1:207 2:190 3:61 4:207 5:189 6:61 7:562 8:637 9:503 
-1 1:202 2:185 3:54 4:201 5:182 6:57 7:562 8:637 9:503 
1 1:208 2:192 3:67 4:207 5:189 6:61 7:562 8:637 9:503 
-1 1:186 2:162 3:45 4:189 5:165 6:46 7:547 8:613 9:478 
-1 1:191 2:162 3:46 4:190 5:165 6:46 7:547 8:613 9:478 
-1 1:192 2:163 3:46 4:191 5:166 6:46 7:547 8:613 9:478 
-1 1:191 2:162 3:46 4:190 5:166 6:46 7:547 8:613 9:478 
-1 1:191 2:160 3:46 4:190 5:166 6:46 7:547 8:613 9:478 
-1 1:189 2:163 3:45 4:190 5:166 6:46 7:547 8:613 9:478 
-1 1:186 2:162 3:45 4:189 5:164 6:45 7:547 8:613 9:478 
-1 1:186 2:162 3:45 4:188 5:163 6:45 7:547 8:613 9:478 
-1 1:187 2:164 3:46 4:189 5:165 6:45 7:547 8:613 9:478 
-1 1:186 2:162 3:45 4:188 5:164 6:45 7:547 8:613 9:477 
-1 1:191 2:162 3:38 4:191 5:167 6:47 7:546 8:613 9:477 
-1 1:187 2:163 3:45 4:189 5:165 6:45 7:547 8:613 9:477 
-1 1:187 2:162 3:45 4:189 5:164 6:45 7:547 8:613 9:477 
-1 1:191 2:160 3:46 4:189 5:165 6:46 7:547 8:613 9:478 
-1 1:187 2:162 3:45 4:188 5:163 6:45 7:547 8:613 9:477 
-1 1:191 2:160 3:46 4:190 5:165 6:46 7:547 8:613 9:478 
-1 1:191 2:163 3:45 4:192 5:167 6:47 7:547 8:613 9:478 
-1 1:186 2:162 3:45 4:188 5:164 6:45 7:547 8:613 9:478 
-1 1:187 2:163 3:45 4:189 5:165 6:45 7:547 8:613 9:478 
-1 1:186 2:162 3:37 4:185 5:161 6:43 7:547 8:613 9:478 
-1 1:186 2:162 3:45 4:188 5:164 6:45 7:547 8:613 9:478 
-1 1:187 2:163 3:38 4:189 5:164 6:45 7:547 8:613 9:478 
-1 1:191 2:160 3:46 4:189 5:164 6:45 7:547 8:613 9:478 
-1 1:187 2:160 3:46 4:189 5:164 6:45 7:547 8:613 9:478 
-1 1:191 2:160 3:46 4:189 5:164 6:45 7:547 8:613 9:478 
-1 1:187 2:163 3:45 4:189 5:164 6:45 7:547 8:613 9:478 
-1 1:186 2:162 3:45 4:188 5:163 6:44 7:547 8:613 9:478 
-1 1:191 2:160 3:46 4:191 5:166 6:46 7:547 8:613 9:478 
-1 1:184 2:156 3:37 4:184 5:159 6:42 7:547 8:613 9:478 
-1 1:187 2:163 3:44 4:189 5:164 6:45 7:547 8:613 9:478 
-1 1:187 2:164 3:38 4:189 5:164 6:45 7:547 8:613 9:478 
-1 1:187 2:164 3:46 4:189 5:165 6:45 7:547 8:613 9:478 
-1 1:187 2:164 3:46 4:189 5:165 6:45 7:547 8:613 9:478 
-1 1:186 2:162 3:45 4:188 5:163 6:45 7:547 8:613 9:478 
-1 1:191 2:162 3:38 4:191 5:166 6:47 7:547 8:613 9:478 
-1 1:187 2:163 3:45 4:189 5:164 6:45 7:547 8:613 9:478 
-1 1:186 2:162 3:45 4:188 5:163 6:45 7:547 8:613 9:478 
-1 1:187 2:164 3:46 4:189 5:165 6:45 7:547 8:613 9:478 
-1 1:191 2:162 3:45 4:190 5:165 6:46 7:547 8:613 9:478 
-1 1:185 2:164 3:46 4:189 5:164 6:45 7:547 8:613 9:478 
-1 1:187 2:163 3:45 4:190 5:166 6:46 7:547 8:613 9:478 
-1 1:186 2:162 3:45 4:188 5:163 6:45 7:547 8:613 9:478 
-1 1:178 2:157 3:37 4:181 5:156 6:41 7:547 8:613 9:478 
-1 1:187 2:163 3:45 4:190 5:165 6:46 7:547 8:613 9:478 
-1 1:191 2:162 3:45 4:189 5:165 6:45 7:547 8:613 9:478 
-1 1:186 2:162 3:45 4:187 5:163 6:45 7:547 8:613 9:478 
-1 1:187 2:163 3:46 4:189 5:165 6:45 7:547 8:613 9:478 
-1 1:187 2:163 3:46 4:189 5:165 6:45 7:547 8:613 9:478 
-1 1:191 2:164 3:46 4:190 5:165 6:46 7:547 8:613 9:478 
-1 1:186 2:162 3:45 4:188 5:163 6:45 7:547 8:613 9:478 
-1 1:178 2:155 3:37 4:181 5:156 6:42 7:547 8:613 9:478 
-1 1:187 2:163 3:45 4:189 5:164 6:45 7:547 8:613 9:478 
-1 1:187 2:163 3:46 4:189 5:164 6:45 7:547 8:613 9:478 
-1 1:187 2:163 3:45 4:189 5:165 6:46 7:547 8:613 9:478 
-1 1:187 2:164 3:46 4:189 5:164 6:45 7:547 8:613 9:478 
-1 1:191 2:160 3:46 4:189 5:164 6:45 7:547 8:613 9:478 
-1 1:191 2:162 3:46 4:188 5:164 6:45 7:547 8:613 9:478 
-1 1:187 2:164 3:46 4:189 5:164 6:45 7:547 8:613 9:478 
-1 1:191 2:164 3:46 4:189 5:165 6:45 7:547 8:613 9:478 
-1 1:184 2:155 3:37 4:182 5:157 6:42 7:547 8:613 9:478 
-1 1:186 2:162 3:45 4:188 5:164 6:45 7:547 8:613 9:478 
-1 1:186 2:162 3:45 4:189 5:164 6:45 7:547 8:613 9:478 
-1 1:186 2:163 3:45 4:188 5:164 6:45 7:547 8:613 9:478 
-1 1:187 2:164 3:46 4:188 5:164 6:45 7:547 8:613 9:478 
-1 1:191 2:162 3:46 4:190 5:165 6:46 7:547 8:613 9:478 
-1 1:187 2:163 3:45 4:190 5:165 6:45 7:547 8:613 9:478 
-1 1:186 2:162 3:45 4:189 5:164 6:45 7:547 8:614 9:478 
-1 1:187 2:164 3:46 4:189 5:164 6:45 7:547 8:613 9:478 
-1 1:186 2:162 3:45 4:189 5:165 6:45 7:547 8:614 9:478 
-1 1:187 2:163 3:45 4:190 5:166 6:46 7:547 8:613 9:478 
-1 1:187 2:163 3:45 4:189 5:165 6:45 7:547 8:613 9:478 
-1 1:186 2:162 3:45 4:188 5:164 6:45 7:547 8:614 9:478 
-1 1:187 2:164 3:38 4:189 5:164 6:45 7:547 8:614 9:478 
-1 1:191 2:162 3:46 4:190 5:166 6:46 7:547 8:613 9:478 
-1 1:186 2:163 3:45 4:189 5:165 6:45 7:547 8:613 9:478 
-1 1:191 2:162 3:46 4:188 5:164 6:46 7:547 8:613 9:478 
-1 1:187 2:164 3:46 4:187 5:163 6:45 7:547 8:614 9:478 
-1 1:191 2:160 3:46 4:189 5:165 6:46 7:547 8:613 9:478 
1 1:187 2:163 3:46 4:189 5:165 6:45 7:547 8:614 9:479 
-1 1:186 2:162 3:45 4:188 5:163 6:45 7:547 8:614 9:478 
-1 1:185 2:160 3:46 4:188 5:164 6:45 7:547 8:614 9:478 
-1 1:187 2:163 3:45 4:190 5:166 6:46 7:547 8:614 9:478 
-1 1:187 2:164 3:46 4:189 5:165 6:45 7:547 8:614 9:478 
-1 1:191 2:163 3:45 4:191 5:167 6:46 7:547 8:614 9:479 
1 1:187 2:164 3:46 4:189 5:165 6:45 7:547 8:614 9:479 
-1 1:191 2:162 3:45 4:190 5:165 6:46 7:547 8:614 9:479 
1 1:185 2:162 3:46 4:188 5:163 6:45 7:547 8:614 9:479 
-1 1:187 2:164 3:44 4:189 5:164 6:45 7:547 8:614 9:479 
-1 1:187 2:163 3:38 4:188 5:164 6:44 7:547 8:614 9:479 
-1 1:186 2:162 3:45 4:188 5:164 6:45 7:547 8:614 9:479 
-1 1:191 2:164 3:46 4:189 5:165 6:46 7:547 8:614 9:479 
-1 1:187 2:164 3:46 4:188 5:164 6:45 7:547 8:613 9:478 
-1 1:187 2:163 3:45 4:189 5:164 6:45 7:547 8:613 9:478 
-1 1:191 2:164 3:46 4:189 5:165 6:46 7:547 8:614 9:478 
-1 1:187 2:164 3:46 4:189 5:164 6:45 7:547 8:613 9:478 
-1 1:186 2:162 3:45 4:188 5:163 6:44 7:547 8:613 9:478 
-1 1:187 2:163 3:45 4:189 5:165 6:45 7:547 8:613 9:478 
-1 1:187 2:163 3:46 4:190 5:165 6:45 7:547 8:614 9:478 
1 1:198 2:170 3:40 4:195 5:168 6:41 7:536 8:598 9:459 
1 1:198 2:170 3:39 4:196 5:170 6:41 7:536 8:599 9:460 
1 1:198 2:170 3:40 4:195 5:168 6:41 7:536 8:599 9:459 
1 1:199 2:170 3:40 4:197 5:170 6:41 7:536 8:598 9:459 
1 1:191 2:162 3:39 4:191 5:164 6:39 7:536 8:598 9:459 
-1 1:198 2:170 3:39 4:196 5:170 6:42 7:536 8:598 9:459 
1 1:199 2:170 3:40 4:196 5:169 6:41 7:536 8:598 9:459 
1 1:198 2:170 3:40 4:196 5:169 6:41 7:536 8:598 9:459 
1 1:198 2:170 3:39 4:196 5:170 6:41 7:536 8:599 9:460 
1 1:198 2:170 3:40 4:196 5:169 6:41 7:536 8:599 9:460 
1 1:198 2:170 3:39 4:196 5:170 6:42 7:536 8:599 9:460 
1 1:198 2:167 3:40 4:193 5:167 6:40 7:536 8:599 9:460 
1 1:198 2:170 3:39 4:196 5:170 6:42 7:536 8:599 9:460 
1 1:198 2:167 3:39 4:195 5:169 6:41 7:536 8:599 9:460 
1 1:198 2:170 3:40 4:197 5:170 6:42 7:536 8:599 9:460 
1 1:198 2:170 3:40 4:196 5:170 6:42 7:536 8:598 9:459 
1 1:198 2:170 3:40 4:196 5:170 6:41 7:536 8:598 9:459 
1 1:198 2:170 3:40 4:195 5:169 6:41 7:536 8:598 9:460 
1 1:198 2:167 3:39 4:194 5:168 6:41 7:536 8:599 9:460 
1 1:198 2:167 3:39 4:195 5:168 6:41 7:536 8:599 9:460 
1 1:198 2:170 3:39 4:196 5:169 6:41 7:536 8:599 9:460 
1 1:198 2:170 3:39 4:196 5:170 6:42 7:537 8:599 9:460 
1 1:188 2:162 3:39 4:188 5:160 6:38 7:536 8:599 9:460 
1 1:198 2:170 3:39 4:194 5:168 6:40 7:536 8:599 9:460 
1 1:198 2:170 3:40 4:195 5:169 6:41 7:536 8:599 9:460 
1 1:198 2:170 3:40 4:196 5:169 6:41 7:536 8:599 9:460 
1 1:198 2:170 3:40 4:195 5:169 6:41 7:537 8:599 9:460 
1 1:198 2:167 3:39 4:195 5:169 6:41 7:537 8:599 9:460 
1 1:198 2:170 3:40 4:195 5:168 6:41 7:537 8:599 9:460 
1 1:198 2:170 3:40 4:196 5:170 6:41 7:537 8:599 9:460 
1 1:198 2:170 3:40 4:195 5:169 6:41 7:537 8:599 9:460 
1 1:198 2:167 3:39 4:195 5:168 6:41 7:537 8:599 9:460 
1 1:198 2:170 3:39 4:196 5:169 6:41 7:537 8:599 9:460 
1 1:198 2:170 3:40 4:194 5:168 6:40 7:537 8:599 9:460 
1 1:198 2:170 3:40 4:196 5:169 6:41 7:537 8:599 9:460 
1 1:198 2:170 3:39 4:197 5:170 6:42 7:537 8:599 9:460 
1 1:198 2:167 3:39 4:195 5:169 6:41 7:537 8:599 9:460 
1 1:198 2:170 3:40 4:195 5:168 6:41 7:537 8:599 9:460 
1 1:198 2:170 3:40 4:196 5:169 6:41 7:537 8:599 9:460 
1 1:199 2:171 3:42 4:195 5:169 6:42 7:537 8:599 9:460 
1 1:198 2:170 3:40 4:195 5:169 6:41 7:537 8:599 9:460 
1 1:198 2:165 3:40 4:194 5:167 6:40 7:537 8:599 9:460 
1 1:198 2:167 3:39 4:195 5:169 6:41 7:537 8:599 9:460 
1 1:198 2:170 3:40 4:195 5:169 6:41 7:537 8:599 9:460 
1 1:198 2:170 3:39 4:195 5:169 6:41 7:537 8:599 9:460 
1 1:198 2:170 3:40 4:195 5:168 6:41 7:537 8:599 9:460 
1 1:198 2:167 3:39 4:194 5:168 6:41 7:537 8:599 9:460 
1 1:198 2:170 3:40 4:195 5:168 6:41 7:537 8:599 9:460 
1 1:198 2:165 3:39 4:195 5:168 6:40 7:537 8:599 9:460 
1 1:198 2:170 3:40 4:196 5:169 6:41 7:537 8:599 9:460 
1 1:198 2:167 3:39 4:195 5:168 6:41 7:537 8:599 9:460 
1 1:198 2:167 3:39 4:194 5:168 6:41 7:537 8:599 9:460 
1 1:198 2:170 3:40 4:196 5:169 6:41 7:537 8:599 9:460 
1 1:198 2:167 3:39 4:196 5:170 6:42 7:537 8:599 9:460 
1 1:195 2:167 3:42 4:194 5:168 6:41 7:537 8:599 9:460 
1 1:198 2:165 3:40 4:195 5:168 6:40 7:537 8:599 9:460 
1 1:198 2:170 3:40 4:196 5:169 6:41 7:536 8:599 9:460 
1 1:198 2:170 3:40 4:195 5:169 6:41 7:537 8:599 9:460 
1 1:198 2:170 3:40 4:196 5:169 6:41 7:537 8:599 9:460 
1 1:198 2:170 3:40 4:195 5:169 6:41 7:537 8:599 9:460 
1 1:198 2:170 3:40 4:195 5:169 6:41 7:537 8:599 9:460 
1 1:198 2:170 3:40 4:194 5:167 6:40 7:537 8:599 9:460 
1 1:188 2:162 3:39 4:187 5:160 6:38 7:537 8:599 9:460 
1 1:198 2:170 3:40 4:196 5:169 6:41 7:537 8:599 9:460 
1 1:198 2:167 3:39 4:195 5:169 6:41 7:537 8:599 9:460 
1 1:198 2:170 3:40 4:197 5:170 6:42 7:537 8:599 9:460 
1 1:198 2:165 3:40 4:194 5:167 6:40 7:537 8:599 9:460 
1 1:198 2:170 3:40 4:195 5:169 6:41 7:537 8:599 9:460 
1 1:198 2:170 3:40 4:196 5:169 6:41 7:537 8:599 9:460 
1 1:198 2:170 3:40 4:195 5:168 6:41 7:537 8:599 9:460 
1 1:193 2:165 3:40 4:193 5:166 6:40 7:537 8:599 9:460 
1 1:198 2:170 3:40 4:194 5:167 6:40 7:537 8:599 9:460 
1 1:198 2:170 3:40 4:196 5:170 6:41 7:537 8:599 9:460 
1 1:198 2:170 3:40 4:195 5:169 6:41 7:537 8:599 9:460 
1 1:193 2:165 3:40 4:193 5:166 6:40 7:537 8:599 9:460 
1 1:198 2:167 3:39 4:195 5:168 6:41 7:537 8:599 9:460 
1 1:198 2:167 3:39 4:195 5:168 6:41 7:537 8:599 9:460 
1 1:198 2:165 3:40 4:193 5:166 6:40 7:537 8:599 9:460 
1 1:198 2:170 3:40 4:196 5:169 6:41 7:537 8:599 9:460 
1 1:198 2:167 3:39 4:195 5:169 6:41 7:537 8:599 9:460 
1 1:198 2:170 3:40 4:196 5:169 6:41 7:537 8:599 9:460 
1 1:198 2:170 3:39 4:196 5:169 6:41 7:537 8:599 9:460 
1 1:198 2:167 3:39 4:194 5:167 6:41 7:537 8:599 9:460 
1 1:198 2:170 3:40 4:194 5:167 6:40 7:537 8:599 9:460 
1 1:198 2:167 3:39 4:195 5:168 6:41 7:537 8:599 9:460 
1 1:198 2:170 3:39 4:196 5:170 6:42 7:537 8:599 9:460 
1 1:198 2:167 3:39 4:194 5:168 6:41 7:537 8:599 9:460 
1 1:198 2:170 3:40 4:196 5:169 6:41 7:537 8:599 9:460 
1 1:198 2:170 3:40 4:196 5:169 6:41 7:537 8:599 9:460 
1 1:198 2:170 3:40 4:195 5:168 6:41 7:537 8:599 9:460 
1 1:198 2:170 3:40 4:195 5:169 6:41 7:537 8:599 9:460 
1 1:198 2:170 3:39 4:196 5:169 6:41 7:537 8:599 9:460 
1 1:198 2:170 3:40 4:195 5:168 6:41 7:537 8:599 9:460 
1 1:198 2:170 3:40 4:195 5:168 6:41 7:537 8:599 9:460 
1 1:198 2:170 3:40 4:195 5:169 6:41 7:537 8:599 9:460 
1 1:198 2:167 3:39 4:196 5:169 6:41 7:537 8:599 9:460 
1 1:198 2:170 3:40 4:195 5:169 6:41 7:537 8:599 9:460 
1 1:198 2:167 3:40 4:195 5:169 6:41 7:537 8:599 9:460 
